tree
version=v4
num_class=4
num_tree_per_iteration=4
label_index=0
max_feature_idx=163
objective=multiclass num_class:4
feature_names=number_of_vehicles_entry number_of_vehicles_exit number_of_vehicles_roundabout avg_time_spent_entry avg_time_spent_exit avg_time_spent_from_roundabout avg_idle_time_entry avg_idle_time_exit avg_idle_time_from_roundabout idle_0_entry idle_1_entry idle_2_entry idle_3_entry idle_4_entry idle_0_exit idle_1_exit idle_2_exit idle_3_exit idle_4_exit time_spent_0_entry time_spent_1_entry time_spent_2_entry time_spent_3_entry time_spent_4_entry time_spent_0_exit time_spent_1_exit time_spent_2_exit time_spent_3_exit time_spent_4_exit signaling congestion_enter_rating congestion_exit_rating hour minute day_of_week hour_sin hour_cos is_rush_hour is_morning_rush is_evening_rush hour_bin congestion_enter_rating_t_m_1 congestion_enter_rating_t_m_2 congestion_enter_rating_t_m_3 congestion_enter_rating_t_m_4 congestion_enter_rating_t_m_5 congestion_enter_rating_t_m_6 congestion_enter_rating_t_m_7 congestion_enter_rating_t_m_8 congestion_enter_rating_t_m_9 congestion_enter_rating_t_m_10 congestion_exit_rating_t_m_1 congestion_exit_rating_t_m_2 congestion_exit_rating_t_m_3 congestion_exit_rating_t_m_4 congestion_exit_rating_t_m_5 congestion_exit_rating_t_m_6 congestion_exit_rating_t_m_7 congestion_exit_rating_t_m_8 congestion_exit_rating_t_m_9 congestion_exit_rating_t_m_10 signaling_t_m_1 signaling_t_m_2 signaling_t_m_3 signaling_t_m_4 signaling_t_m_5 signaling_t_m_6 signaling_t_m_7 signaling_t_m_8 signaling_t_m_9 signaling_t_m_10 hour_t_m_1 hour_t_m_2 hour_t_m_3 hour_t_m_4 hour_t_m_5 hour_t_m_6 hour_t_m_7 hour_t_m_8 hour_t_m_9 hour_t_m_10 minute_t_m_1 minute_t_m_2 minute_t_m_3 minute_t_m_4 minute_t_m_5 minute_t_m_6 minute_t_m_7 minute_t_m_8 minute_t_m_9 minute_t_m_10 number_of_vehicles_entry_t_m_1 number_of_vehicles_entry_t_m_2 number_of_vehicles_entry_t_m_3 number_of_vehicles_entry_t_m_4 number_of_vehicles_entry_t_m_5 number_of_vehicles_entry_t_m_6 number_of_vehicles_entry_t_m_7 number_of_vehicles_entry_t_m_8 number_of_vehicles_entry_t_m_9 number_of_vehicles_entry_t_m_10 number_of_vehicles_exit_t_m_1 number_of_vehicles_exit_t_m_2 number_of_vehicles_exit_t_m_3 number_of_vehicles_exit_t_m_4 number_of_vehicles_exit_t_m_5 number_of_vehicles_exit_t_m_6 number_of_vehicles_exit_t_m_7 number_of_vehicles_exit_t_m_8 number_of_vehicles_exit_t_m_9 number_of_vehicles_exit_t_m_10 number_of_vehicles_roundabout_t_m_1 number_of_vehicles_roundabout_t_m_2 number_of_vehicles_roundabout_t_m_3 number_of_vehicles_roundabout_t_m_4 number_of_vehicles_roundabout_t_m_5 number_of_vehicles_roundabout_t_m_6 number_of_vehicles_roundabout_t_m_7 number_of_vehicles_roundabout_t_m_8 number_of_vehicles_roundabout_t_m_9 number_of_vehicles_roundabout_t_m_10 idle_0_entry_t_m_1 idle_0_entry_t_m_2 idle_0_entry_t_m_3 idle_0_entry_t_m_4 idle_0_entry_t_m_5 idle_0_entry_t_m_6 idle_0_entry_t_m_7 idle_0_entry_t_m_8 idle_0_entry_t_m_9 idle_0_entry_t_m_10 idle_4_entry_t_m_1 idle_4_entry_t_m_2 idle_4_entry_t_m_3 idle_4_entry_t_m_4 idle_4_entry_t_m_5 idle_4_entry_t_m_6 idle_4_entry_t_m_7 idle_4_entry_t_m_8 idle_4_entry_t_m_9 idle_4_entry_t_m_10 time_spent_0_entry_t_m_1 time_spent_0_entry_t_m_2 time_spent_0_entry_t_m_3 time_spent_0_entry_t_m_4 time_spent_0_entry_t_m_5 time_spent_0_entry_t_m_6 time_spent_0_entry_t_m_7 time_spent_0_entry_t_m_8 time_spent_0_entry_t_m_9 time_spent_0_entry_t_m_10 time_spent_4_entry_t_m_1 time_spent_4_entry_t_m_2 time_spent_4_entry_t_m_3 time_spent_4_entry_t_m_4 time_spent_4_entry_t_m_5 time_spent_4_entry_t_m_6 time_spent_4_entry_t_m_7 time_spent_4_entry_t_m_8 time_spent_4_entry_t_m_9 time_spent_4_entry_t_m_10 camera_normanniles2 camera_normanniles3 camera_normanniles4
feature_infos=[0:58] [0:43] [0:41] [0:104.35714285714286] [0:109.16666666666669] [0:26] [0:42.035714285714285] [0:48.5] [0:2.9750000000000001] [0:53] [0:22] [0:13] [0:6] [0:9] [0:42] [0:11] [0:3] none none [0:42] [0:24] [0:22] [0:12] [0:18] [0:35] [0:26] [0:8] [0:7] [0:5] [0:3] [0:3] [0:3] [6:17] [0:59] [0:1] [-0.96592582628906831:1] [-1:6.123233995736766e-17] [0:1] [0:1] [0:1] [1:4] [0:3] [0:3] [0:3] [0:3] [0:3] [0:3] [0:3] [0:3] [0:3] [0:3] [0:3] [0:3] [0:3] [0:3] [0:3] [0:3] [0:3] [0:3] [0:3] [0:3] [0:3] [0:3] [0:3] [0:3] [0:3] [0:3] [0:3] [0:3] [0:3] [0:3] [6:17] [6:17] [6:17] [6:17] [6:17] [6:17] [6:17] [6:17] [6:17] [6:17] [0:59] [0:59] [0:59] [0:59] [0:59] [0:59] [0:59] [0:59] [0:59] [0:59] [0:58] [0:58] [0:58] [0:58] [0:58] [0:58] [0:57] [0:58] [0:58] [0:58] [0:43] [0:43] [0:43] [0:43] [0:43] [0:43] [0:35] [0:43] [0:43] [0:43] [0:41] [0:40] [0:41] [0:41] [0:41] [0:41] [0:41] [0:41] [0:41] [0:41] [0:53] [0:53] [0:47] [0:53] [0:53] [0:53] [0:48] [0:53] [0:48] [0:53] [0:9] [0:7] [0:7] [0:9] [0:9] [0:7] [0:9] [0:7] [0:7] [0:9] [0:42] [0:42] [0:42] [0:42] [0:42] [0:42] [0:42] [0:42] [0:42] [0:42] [0:18] [0:18] [0:18] [0:18] [0:18] [0:18] [0:18] [0:18] [0:18] [0:18] [0:1] [0:1] [0:1]
tree_sizes=2183 2190 2181 2172 2243 2246 2248 2215 2241 2243 2252 2228 2251 2244 2255 2242 2249 2251 2241 2241 2242 2252 2245 2230 2251 2242 2250 2233 2249 2253 2267 2228 2248 2257 2252 2227 2252 2266 2261 2235 2244 2250 2247 2240 2244 2244 2255 2234 2258 2257 2240 2235 2253 2246 2251 2252 2249 2251 2248 2245 2259 2269 2241 2238 2247 2246 2240 2243 2251 2255 2264 2246 2239 2253 2264 2234 2252 2253 2252 2238 2263 2241 2261 2257 2266 2258 2239 2245 2263 2251 2244 2261 2248 2246 2258 2244 2255 2247 2249 2245 2259 2257 2238 2248 2264 2256 2260 2257 2257 2249 2259 2243 2264 2238 2258 2249 2251 2251 2256 2243 2262 2255 2265 2258 2265 2263 2249 2245 2253 2261 2263 2252 2248 2268 2255 2259 2246 2259 2263 2253 2259 2276 2261 2249 2255 2277 2252 2238 2263 2255 2252 2250 2258 2265 2249 2254 2236 2264 2261 2246

Tree=0
num_leaves=20
num_cat=0
split_feature=123 77 45 125 98 95 91 126 8 96 85 81 100 80 127 107 128 107 91
split_gain=135.046 69.4565 27.7061 13.9345 11.1484 11.1231 9.54373 9.31816 7.9524 7.5032 6.8717 6.73769 6.72951 6.51214 7.75385 6.46304 8.13338 7.70376 6.39643
threshold=12.500000000000002 13.500000000000002 1.0000000180025095e-35 29.500000000000004 26.500000000000004 48.500000000000007 27.500000000000004 31.500000000000004 0.11024305555555557 18.500000000000004 13.500000000000002 30.500000000000004 30.500000000000004 11.500000000000002 28.500000000000004 11.500000000000002 17.500000000000004 17.500000000000004 20.500000000000004
decision_type=2 2 2 2 2 2 2 2 2 2 2 2 2 2 2 2 2 2 2
left_child=18 2 6 4 9 -5 11 13 10 -3 12 -2 -6 -4 -15 -11 17 -17 -1
right_child=1 3 7 5 8 -7 -8 -9 -10 15 -12 -13 -14 14 -16 16 -18 -19 -20
leaf_value=-1.2407004088779081 -1.2978209708616328 -1.3792805504246035 -1.4240283816724806 -1.3947450118715279 -1.3374777163695328 -1.3203284048360278 -1.3891167167012326 -1.4314838600706978 -1.3985040573101784 -1.3579296192644821 -1.3545286744760707 -1.3870617521973028 -1.3953430722592652 -1.3783133657900268 -1.4169942296726812 -1.2834495445993881 -1.2484226421428064 -1.381929605583917 -1.3187558975879732
leaf_weight=15.363808467984201 5.3736831843852979 6.5257202833890942 39.665479049086571 66.814814284443855 6.3717342019081142 5.4294672906398764 51.564153507351875 89.241862609982491 18.933238878846169 6.5738063454628017 69.654164895415306 3.4878966510295868 23.761650532484055 26.654666990041733 25.208922192454338 4.3066754788160306 5.1794365644454956 3.6850703507661819 3.1653985232114783
leaf_count=106 31 27 128 258 32 29 203 273 72 30 324 14 91 112 85 26 35 15 17
internal_value=-1.38637 -1.39172 -1.41019 -1.37121 -1.36227 -1.38915 -1.38088 -1.41999 -1.3688 -1.3328 -1.36316 -1.33295 -1.38311 -1.40878 -1.39711 -1.31744 -1.29723 -1.32886 -1.25403
internal_weight=476.962 458.432 241.197 217.236 144.991 72.2443 60.4257 180.771 118.721 26.2707 99.7875 8.86158 30.1334 91.5291 51.8636 19.745 13.1712 7.99175 18.5292
internal_count=1908 1785 846 939 652 287 248 598 519 133 447 45 123 325 197 106 76 41 123
is_linear=0
shrinkage=1


Tree=1
num_leaves=20
num_cat=0
split_feature=32 8 110 152 145 46 30 158 155 125 121 114 101 98 126 136 129 81 129
split_gain=37.2711 18.6272 19.0006 15.577 12.6694 17.8161 11.3455 10.4258 9.24959 11.8565 11.1878 8.34067 10.6642 10.4206 8.9689 8.21721 7.28221 7.14373 9.78143
threshold=12.500000000000002 0.022474747474747453 14.500000000000002 4.5000000000000009 28.500000000000004 1.0000000180025095e-35 1.0000000180025095e-35 10.500000000000002 4.5000000000000009 30.500000000000004 27.500000000000004 23.500000000000004 23.500000000000004 33.500000000000007 18.500000000000004 1.0000000180025095e-35 36.500000000000007 45.500000000000007 25.500000000000004
decision_type=2 2 2 2 2 2 2 2 2 2 2 2 2 2 2 2 2 2 2
left_child=1 7 -3 6 5 -4 8 -1 9 15 -10 12 14 -13 -8 -2 17 -5 -19
right_child=3 2 4 16 -6 -7 11 -9 10 -11 -12 13 -14 -15 -16 -17 -18 18 -20
leaf_value=-1.4171667553279357 -1.3629006271924278 -1.409529924078295 -1.306788184655606 -1.3955975230597806 -1.288128973223247 -1.399915415234825 -1.3286130539654233 -1.3766800103715515 -1.4062627261422334 -1.2897355356639102 -1.3410351134493914 -1.2906192778567269 -1.3364398160868012 -1.3812030248938221 -1.4036824413353617 -1.3125789961651799 -1.3427931158700948 -1.3245412554692773 -1.3942588496996691
leaf_weight=127.40662476420403 31.35959056019783 25.292521968483925 7.840635731816298 101.4657626748085 6.3963435441255561 14.8864179700613 4.4005626440048209 18.168521508574486 13.524541690945627 10.161579340696333 12.791333854198454 5.5763044655323011 8.8130451589822751 7.3725606799125671 41.514894232153893 10.943515360355375 8.6878902465105039 9.0861969739198702 11.272806912660597
leaf_count=469 140 101 25 438 22 58 20 60 61 35 50 19 35 29 189 42 30 38 47
internal_value=-1.38634 -1.40278 -1.37783 -1.37446 -1.35029 -1.36779 -1.36327 -1.41211 -1.35037 -1.33823 -1.37456 -1.37828 -1.38682 -1.34219 -1.39649 -1.34988 -1.38702 -1.39017 -1.36314
internal_weight=476.962 199.991 54.4159 276.971 29.1234 22.7271 146.458 145.575 78.7806 52.4647 26.3159 67.6774 54.7285 12.9489 45.9155 42.3031 130.513 121.825 20.359
internal_count=1908 735 206 1173 105 83 620 529 328 217 111 292 244 48 209 182 553 523 85
is_linear=0
shrinkage=1


Tree=2
num_leaves=20
num_cat=0
split_feature=144 32 99 157 121 5 135 25 8 4 1 4 67 97 154 22 125 103 152
split_gain=28.4741 16.1665 17.194 13.6363 12.1826 12.069 12.7097 10.7169 10.4001 11.7182 12.4396 11.6398 10.3344 9.75101 9.29325 9.24335 9.78759 9.18409 9.00609
threshold=15.500000000000002 12.500000000000002 39.500000000000007 5.5000000000000009 28.500000000000004 11.304576376004951 3.5000000000000004 11.500000000000002 0.097800095648015312 10.788862822570691 10.500000000000002 13.678235294117647 1.0000000180025095e-35 26.500000000000004 7.5000000000000009 1.5000000000000002 29.500000000000004 9.5000000000000018 4.5000000000000009
decision_type=2 2 2 2 2 2 2 2 2 2 2 2 2 2 2 2 2 2 2
left_child=1 -1 18 5 15 6 8 14 12 10 -10 -11 -2 -14 -6 17 -17 -5 -3
right_child=3 2 -4 4 7 -7 -8 -9 9 11 -12 -13 13 -15 -16 16 -18 -19 -20
leaf_value=-1.4188057399955627 -1.3422758155576642 -1.416103931626064 -1.3613206548222947 -1.3414300724854709 -1.4209909674427526 -1.3919905565567274 -1.4362943922791491 -1.3381013243486735 -1.3549509102071093 -1.411193802354709 -1.2793879053528354 -1.3196611100247624 -1.3119874695787019 -1.3849406118752636 -1.3839395941692656 -1.3780619750799681 -1.3200861350325086 -1.4149850370928314 -1.3817417288450933
leaf_weight=71.838349297642708 32.070834219455719 46.668917059898376 38.541744008660316 5.9596712589263943 41.048194274306297 34.029267877340317 5.0396627038717261 6.3973757922649375 9.2670430094003695 7.5079265981912595 13.211609631776808 6.4631084054708481 5.0534430593252173 48.929442062973976 28.796350061893463 15.102397948503496 14.054618179798124 14.739487662911413 32.242207169532776
leaf_count=298 128 216 152 24 144 134 20 23 38 31 46 24 22 192 95 65 49 58 149
internal_value=-1.38506 -1.40012 -1.38869 -1.37515 -1.38747 -1.36553 -1.35848 -1.40004 -1.35527 -1.33289 -1.31054 -1.36885 -1.36476 -1.37811 -1.40571 -1.36826 -1.35012 -1.39381 -1.40206
internal_weight=476.962 189.291 117.453 287.67 126.098 161.572 127.543 76.2419 122.503 36.4497 22.4787 13.971 86.0537 53.9829 69.8445 49.8562 29.157 20.6992 78.9111
internal_count=1908 815 517 1093 458 635 501 262 481 139 84 55 342 214 239 196 114 82 365
is_linear=0
shrinkage=1


Tree=3
num_leaves=20
num_cat=0
split_feature=30 79 47 79 100 127 125 117 91 96 103 72 87 43 123 141 130 30 99
split_gain=258.106 67.0757 54.0324 58.7768 23.1232 21.3822 22.0438 19.1287 18.3067 12.6555 12.0446 10.6296 9.25051 8.80151 7.96598 7.37636 6.1911 7.27198 8.43935
threshold=2.5000000000000004 12.500000000000002 1.5000000000000002 11.500000000000002 46.500000000000007 31.500000000000004 30.500000000000004 16.500000000000004 41.500000000000007 41.500000000000007 20.500000000000004 11.500000000000002 25.500000000000004 2.5000000000000004 37.500000000000007 34.500000000000007 23.500000000000004 1.0000000180025095e-35 40.500000000000007
decision_type=2 2 2 2 2 2 2 2 2 2 2 2 2 2 2 2 2 2 2
left_child=2 5 10 7 14 6 13 -4 -9 -7 -1 -12 -8 -2 -5 -11 -13 -18 -19
right_child=1 -3 3 4 -6 9 12 8 -10 15 11 16 -14 -15 -16 -17 17 18 -20
leaf_value=-1.4251125077826079 -1.4165809105578686 -1.40466699184099 -1.2543779524982717 -1.4107615177888582 -1.3230120557019764 -1.3265803083550678 -1.3452649510971189 -1.4013936794231254 -1.3027605142274861 -1.254427126309186 -1.3385020337464537 -1.4362943408161162 -1.2707306705055106 -1.3348530801618399 -1.3488230260603928 -1.311880117878808 -1.4148361722942437 -1.4001841772051398 -1.3257520103696372
leaf_weight=199.18291261792183 7.0612713098525983 17.60525418817997 8.799765810370447 76.326315775513649 9.216040223836897 10.150160476565359 6.1167884320020702 7.97703389823437 11.466912269592283 33.295070663094521 6.4054983109235755 13.229901120066641 13.032020419836043 6.1750854998826981 5.5699011683464041 6.7131494879722586 22.704946964979172 9.6373060643672925 6.2963155806064597
leaf_count=888 26 73 26 318 32 33 19 28 36 97 23 59 39 19 19 20 93 38 22
internal_value=-1.38741 -1.31606 -1.40637 -1.37856 -1.3981 -1.29717 -1.32884 -1.31554 -1.34323 -1.27672 -1.41926 -1.39927 -1.29454 -1.37845 -1.40655 -1.26407 -1.40677 -1.39667 -1.37077
internal_weight=476.962 100.149 376.813 119.356 91.1123 82.5435 32.3852 28.2437 19.4439 50.1584 257.457 58.274 19.1488 13.2364 81.8962 40.0082 51.8685 38.6386 15.9336
internal_count=1908 326 1582 459 369 253 103 90 64 150 1123 235 58 45 337 117 212 153 60
is_linear=0
shrinkage=1


Tree=4
num_leaves=20
num_cat=0
split_feature=93 76 126 122 141 100 105 139 81 93 7 130 106 4 151 116 119 151 114
split_gain=108.358 62.4145 20.9726 14.3715 13.3226 12.6897 10.3147 9.99619 9.93958 7.60561 8.98008 6.9426 6.77865 6.1567 5.99169 8.40606 9.83697 6.16476 5.97388
threshold=16.500000000000004 13.500000000000002 31.500000000000004 23.500000000000004 24.500000000000004 37.500000000000007 10.500000000000002 1.0000000180025095e-35 39.500000000000007 33.500000000000007 2.7902380952380956 22.500000000000004 24.500000000000004 3.9240384615384616 4.5000000000000009 16.500000000000004 7.5000000000000009 1.5000000000000002 12.500000000000002
decision_type=2 2 2 2 2 2 2 2 2 2 2 2 2 2 2 2 2 2 2
left_child=6 2 5 4 7 8 -1 14 9 10 -2 -12 -7 -5 15 16 -3 -18 -11
right_child=1 3 -4 13 -6 12 -8 -9 -10 18 11 -13 -14 -15 -16 -17 17 -19 -20
leaf_value=0.12780607392977147 0.092032578485156599 0.0082750201334647628 -0.041086907277995195 0.063202022418099163 -0.015837369779686469 -0.031746945757846333 0.051698843522355348 0.093890123094622469 -0.023412533283657309 -0.036125282748692263 0.049734281721716685 -0.015614825939039107 0.01512881749623585 0.0041513685981535995 0.0050548135661306545 -0.0026888007044156906 0.051357737834928308 0.11213686168620446 0.01611116619401395
leaf_weight=16.358542099595073 5.8322142809629467 6.3354377299547258 97.111209273338318 4.5445482432842246 10.855045542120932 60.633889347314835 6.1164515614509574 8.7268740534782392 21.65192823112011 8.3058415800333041 8.8661109656095523 7.504269301891326 8.8362728804349882 153.73151172697544 11.899900436401365 6.5996542870998374 8.4252200126647967 8.2644318938255292 16.049344822764397
leaf_count=104 34 26 312 24 40 206 30 51 77 27 44 28 38 629 49 26 42 51 70
internal_value=-7.3531e-05 -0.00537676 -0.0232936 0.0137985 0.0343945 -0.0107433 0.107094 0.0452453 0.00457591 0.0175921 0.0387579 0.0197779 -0.0257846 0.00584688 0.0350221 0.0470596 0.0613189 0.0814545 -0.00170301
internal_weight=476.649 454.174 234.791 219.383 61.1066 137.68 22.475 50.2515 68.2097 46.5578 22.2026 16.3704 69.4702 158.276 41.5246 29.6247 23.0251 16.6897 24.3552
internal_count=1908 1774 836 938 285 524 134 245 280 203 106 72 244 653 194 145 119 93 97
is_linear=0
shrinkage=0.05


Tree=5
num_leaves=20
num_cat=0
split_feature=43 124 132 75 8 34 90 160 106 92 93 42 25 95 19 117 109 98 4
split_gain=35.7256 19.1774 13.9216 12.0514 11.2153 13.8764 10.1119 9.22265 8.93914 8.63927 7.63621 12.8744 10.1629 7.6089 9.19433 7.40939 11.3909 8.09147 9.45802
threshold=2.5000000000000004 12.500000000000002 1.5000000000000002 12.500000000000002 0.15438786565547127 1.0000000180025095e-35 18.500000000000004 6.5000000000000009 13.500000000000002 48.500000000000007 43.500000000000007 1.5000000000000002 4.5000000000000009 37.500000000000007 16.500000000000004 21.500000000000004 11.500000000000002 21.500000000000004 9.8133526850508002
decision_type=2 2 2 2 2 2 2 2 2 2 2 2 2 2 2 2 2 2 2
left_child=1 -1 4 -2 5 7 -6 9 -8 15 11 -4 -13 14 -9 16 -3 -18 -19
right_child=3 2 10 -5 6 -7 8 13 -10 -11 -12 12 -14 -15 -16 -17 17 18 -20
leaf_value=-0.0422506566541501 -0.034723341115450619 -0.0025021095425357427 -0.031067914844867858 0.010639128076792157 -0.00071535602477276858 -0.00023455594809074053 0.083268672994643009 -0.023308166876701009 0.015367172735876195 -0.035863275186365624 -0.039087839618385273 -0.016349119728198289 0.056200161408216244 -0.027289906970123887 0.066944595967596984 0.062790833110036678 0.081285666620493302 0.057640924660243745 0.011910880921226347
leaf_weight=18.765302985906601 81.983943536877632 24.143826857209206 17.866637960076332 17.824728325009346 9.58678185939789 141.15399588644505 14.681135073304178 5.0757469385862368 7.2360693961381903 4.8475966751575461 18.869246140122414 8.0331469625234622 12.095138758420942 14.99030941724777 6.3549450933933258 16.74526084959507 9.2539464235305768 18.807936251163483 28.349632501602173
leaf_count=124 261 114 76 74 39 566 53 28 27 17 64 36 46 62 24 64 38 71 124
internal_value=-2.36245e-05 0.00702085 0.00960286 -0.0266221 0.0138863 0.010589 0.0421159 0.0224721 0.0608507 0.0292827 -0.0130877 -0.000175427 0.0272459 -0.0038591 0.0268683 0.0325283 0.0262376 0.038538 0.0301495
internal_weight=476.665 376.857 358.091 99.8087 301.227 269.723 31.504 128.569 21.9172 102.148 56.8642 37.9949 20.1283 26.421 11.4307 97.3006 80.5553 56.4115 47.1576
internal_count=1908 1573 1449 335 1227 1108 119 542 80 428 222 158 82 114 52 411 347 233 195
is_linear=0
shrinkage=0.05


Tree=6
num_leaves=20
num_cat=0
split_feature=144 32 99 157 121 34 88 83 107 1 120 25 130 7 4 154 83 20 125
split_gain=25.9628 15.1419 15.8131 12.0864 11.2025 11.0845 9.95214 10.9134 13.1535 10.1963 11.0174 9.63877 9.49021 9.49856 9.71633 8.87978 8.83944 9.33736 9.23261
threshold=15.500000000000002 12.500000000000002 39.500000000000007 5.5000000000000009 28.500000000000004 1.0000000180025095e-35 2.5000000000000004 20.500000000000004 10.500000000000002 9.5000000000000018 10.500000000000002 11.500000000000002 20.500000000000004 2.1426392067124338 9.0586049170954848 7.5000000000000009 25.500000000000004 4.5000000000000009 28.500000000000004
decision_type=2 2 2 2 2 2 2 2 2 2 2 2 2 2 2 2 2 2 2
left_child=1 -1 -3 5 16 12 -7 -8 -9 -10 -11 15 -2 -14 -15 -6 -5 -18 -19
right_child=3 2 -4 4 11 6 7 8 9 10 -12 -13 13 14 -16 -17 17 18 -20
leaf_value=-0.031640095457112036 -0.050161959450817452 -0.015268302123154233 0.023694067825471815 0.038498525136515846 -0.033915869354904114 -0.030166239380805857 0.060586324349539505 0.057926124564702502 -0.050028831373907817 -0.029357732249616016 0.034640529755011369 0.044538585740060227 -0.0244914790434244 0.059144002936052098 0.007847721672769023 0.002467109032829564 -0.031707545334478754 -0.016916823903244931 0.071239189730901736
leaf_weight=70.346048891544342 7.1673715114593497 78.230828762054443 39.035942211747169 24.766092509031296 40.242425173521042 6.2789042741060248 28.286322221159935 18.540447413921356 6.5406416505575171 9.0893494635820371 25.851156815886497 6.589862808585166 14.689834028482435 12.597510471940039 34.548902183771133 28.752846732735634 13.617489129304888 5.7118254303932172 6.1872929781675339
leaf_count=298 36 365 152 96 144 23 100 75 25 33 96 23 60 46 141 95 55 24 21
internal_value=0.00118805 -0.0133002 -0.00229845 0.0105786 -0.00106925 0.0195406 0.0306572 0.0349819 0.0229153 0.00726678 0.0179922 -0.0132356 0.00430256 0.0106155 0.0215541 -0.0187538 0.0172193 -0.00343405 0.0289225
internal_weight=477.071 187.613 117.267 289.458 125.868 163.59 94.5868 88.3079 60.0216 41.4811 34.9405 75.5851 69.0036 61.8362 47.1464 68.9953 50.2827 25.5166 11.8991
internal_count=1908 815 517 1093 458 635 352 329 229 154 129 262 283 247 187 239 196 100 45
is_linear=0
shrinkage=0.05


Tree=7
num_leaves=20
num_cat=0
split_feature=41 74 43 78 91 143 9 130 149 127 99 107 87 3 46 22 121 91 95
split_gain=226.365 66.4828 51.7708 29.4744 16.6887 13.6123 12.573 12.5654 12.231 12.7673 12.0663 8.55036 8.13393 7.08351 6.07115 5.94131 5.77572 6.39625 5.25762
threshold=2.5000000000000004 12.500000000000002 2.5000000000000004 11.500000000000002 49.500000000000007 14.500000000000002 34.500000000000007 34.500000000000007 14.500000000000002 33.500000000000007 43.500000000000007 20.500000000000004 24.500000000000004 59.279220779220786 2.5000000000000004 5.5000000000000009 36.500000000000007 48.500000000000007 35.500000000000007
decision_type=2 2 2 2 2 2 2 2 2 2 2 2 2 2 2 2 2 2 2
left_child=2 7 4 14 6 -5 -1 8 12 11 18 -10 -2 -7 -4 16 -9 -18 -8
right_child=1 -3 3 5 -6 13 10 15 9 -11 -12 -13 -14 -15 -16 -17 17 -19 -20
leaf_value=-0.031677167300462321 0.048188566525815352 -0.0235545634621896 0.055624581855861749 0.064472483320922744 0.03531395336316636 -0.0399649818633665 0.022701811104383705 0.12844130582634578 -0.011803535423497161 0.081990836186168189 0.056330207748761123 0.059375453912087497 0.12232708520716842 0.027489833424105561 0.11664163708308151 0.063592666785037055 0.056907184950494641 0.12012941607936936 -0.03430013965130705
leaf_weight=288.19873496890068 5.6291773319244411 18.651140287518501 8.4733390063047427 6.0527858585119274 10.550677061080931 14.116048365831377 5.7662903070449891 18.158224731683731 10.796867758035665 12.505730003118513 7.8186382055282584 6.9253346025943747 10.792745426297186 5.3733920454978934 7.8567277640104285 9.0600907206535322 8.333502262830736 7.6943973600864402 13.553922414779661
leaf_count=1280 17 74 27 21 37 57 23 51 38 36 24 23 31 20 22 26 24 21 56
internal_value=-0.00109273 0.0623533 -0.0198193 0.0325168 -0.0265438 -0.00102559 -0.0286134 0.080177 0.0621785 0.0433079 0.00392166 0.0160112 0.0969136 -0.0213672 0.0849811 0.0995921 0.109133 0.0872578 -0.0172874
internal_weight=476.308 108.547 367.761 41.8723 325.888 25.5422 315.338 89.8961 46.6499 30.2279 27.1389 17.7222 16.4219 19.4894 16.3301 43.2462 34.1861 16.0279 19.3202
internal_count=1908 341 1567 147 1420 98 1383 267 145 97 103 61 48 77 49 122 96 45 79
is_linear=0
shrinkage=0.05


Tree=8
num_leaves=20
num_cat=0
split_feature=123 77 126 122 151 100 121 117 81 153 3 81 0 23 82 23 120 36 126
split_gain=98.8395 59.6629 19.5072 13.1409 12.4697 10.6413 9.90832 9.47394 9.38436 8.55123 9.15585 7.12046 7.52116 6.95708 6.29333 11.2139 6.2048 5.93591 5.67272
threshold=13.500000000000002 13.500000000000002 31.500000000000004 27.500000000000004 4.5000000000000009 37.500000000000007 25.500000000000004 22.500000000000004 39.500000000000007 1.5000000000000002 38.051125989044436 30.500000000000004 35.500000000000007 4.5000000000000009 20.500000000000004 4.5000000000000009 20.500000000000004 -0.98296291314453399 19.500000000000004
decision_type=2 2 2 2 2 2 2 2 2 2 2 2 2 2 2 2 2 2 2
left_child=-1 2 5 4 6 8 7 9 14 18 -11 -5 16 -12 -2 -16 -13 -10 -3
right_child=1 3 -4 11 -6 -7 -8 -9 17 10 13 12 -14 -15 15 -17 -18 -19 -20
leaf_value=0.10158587986583389 -0.0006301355584717635 -0.0039221819863352915 -0.040282296091504924 -0.010681681535038359 0.0057555771548800632 -0.024779244272613979 0.015193964767626345 8.5770671338930181e-05 0.014906422983382628 0.12845072288104059 0.032726142407879598 0.076160064360745225 0.00099544200677147447 0.099886142248050425 0.071354779784610731 -0.0019430905850691708 0.010139279975737539 -0.041882564063140428 0.06687214076393222
leaf_weight=22.767910331487656 27.100750371813774 6.0459609776735288 94.738363489508629 60.035850197076797 49.455235227942467 68.806233569979668 27.052213802933693 6.7800882011651984 6.6456114500761041 7.3113406449556377 9.2207450121641141 7.6843166798353177 27.878610163927078 6.62778416275978 10.783985093235971 10.110202729701994 6.6288086026906967 14.959862068295479 5.319161981344223
leaf_count=131 108 23 313 228 203 246 116 27 29 47 42 42 112 39 58 40 28 48 28
internal_value=-6.92977e-05 -0.00517643 -0.0228011 0.013498 0.02488 -0.0108354 0.0387162 0.0541217 0.00294929 0.0647334 0.082165 0.000380691 0.0161217 0.0608122 0.0152676 0.0358877 0.045584 -0.0244149 0.0292113
internal_weight=475.953 453.185 233.145 220.04 117.813 138.407 68.3573 41.3051 69.6004 34.525 23.1599 102.228 42.1917 15.8485 47.9949 20.8942 14.3131 21.6055 11.3651
internal_count=1908 1777 842 935 525 529 322 206 283 179 128 410 182 81 206 98 70 77 51
is_linear=0
shrinkage=0.05


Tree=9
num_leaves=20
num_cat=0
split_feature=43 124 132 75 111 112 129 141 4 8 92 11 96 113 104 46 88 116 90
split_gain=32.5413 17.4907 12.7233 11.3042 10.5064 17.7266 11.0212 10.9887 9.9447 11.0417 10.0934 9.44047 9.55386 12.6955 11.1297 8.31673 8.1913 8.16273 8.0773
threshold=2.5000000000000004 12.500000000000002 1.5000000000000002 12.500000000000002 16.500000000000004 12.500000000000002 30.500000000000004 9.5000000000000018 13.029513888888891 0.14946808510638296 28.500000000000004 1.5000000000000002 27.500000000000004 21.500000000000004 23.500000000000004 1.5000000000000002 42.500000000000007 19.500000000000004 18.500000000000004
decision_type=2 2 2 2 2 2 2 2 2 2 2 2 2 2 2 2 2 2 2
left_child=1 -1 4 -2 5 6 7 -3 9 11 -10 -6 -13 14 17 -12 -9 -14 -11
right_child=3 2 -4 -5 8 -7 -8 16 10 18 15 12 13 -15 -16 -17 -18 -19 -20
leaf_value=-0.041265627563758948 -0.033759067956100994 -0.005651379657239327 -0.012731009236672117 0.010183266825630742 -0.010708434193112884 -0.01607687058812109 -0.010869128732553282 0.046354791961858606 0.10184158876215295 0.0033473080476120708 0.0036912426505590341 0.081073231069282714 -0.018506542727061329 -0.018915981870276048 0.099914330766374848 0.067946427611944235 -0.0014312998444489815 0.043086288197470603 0.071619447197661848
leaf_weight=18.137160047888756 79.894298493862152 19.700858846306801 56.499739676713943 17.918124511837959 35.911966845393181 63.507164388895035 25.949879512190819 48.175437226891518 7.0681717842817333 6.3256002813577679 11.234921038150789 6.1631535887718192 8.5630932450294548 17.369179591536522 5.4042283147573462 9.1268745362758619 11.019085079431532 14.467124685645102 13.748298212885855
leaf_count=124 261 91 222 74 148 272 107 186 24 25 45 22 36 68 18 33 49 53 50
internal_value=-1.66497e-06 0.00664399 0.00905615 -0.0257093 0.0131089 0.00476978 0.0173971 0.0266943 0.0234789 0.016648 0.0503626 0.00900527 0.0226286 0.0147645 0.0353382 0.0324927 0.0374594 0.0201848 0.0501058
internal_weight=476.184 378.372 360.235 97.8124 303.735 168.352 104.845 78.8954 135.383 107.953 27.43 87.8787 51.9668 45.8036 28.4344 20.3618 59.1945 23.0302 20.0739
internal_count=1908 1573 1449 335 1227 705 433 326 522 420 102 345 197 175 107 78 235 89 75
is_linear=0
shrinkage=0.05


Tree=10
num_leaves=20
num_cat=0
split_feature=144 32 99 157 121 123 34 88 83 120 135 3 110 122 150 152 10 64 125
split_gain=23.592 14.0844 14.3759 10.9331 10.2014 10.1717 9.80088 9.02171 9.47431 9.77709 13.1669 12.9994 10.1802 9.57844 8.45389 8.3596 8.48101 9.17181 8.14795
threshold=15.500000000000002 12.500000000000002 39.500000000000007 5.5000000000000009 28.500000000000004 40.500000000000007 1.0000000180025095e-35 2.5000000000000004 20.500000000000004 10.500000000000002 1.0000000180025095e-35 35.637656125431839 14.500000000000002 33.500000000000007 18.500000000000004 4.5000000000000009 8.5000000000000018 1.5000000000000002 27.500000000000004
decision_type=2 2 2 2 2 2 2 2 2 2 2 2 2 2 2 2 2 2 2
left_child=1 -1 15 6 -5 -6 -2 -8 14 -10 11 -11 -13 -12 -9 -3 17 -17 -16
right_child=3 2 -4 4 5 -7 7 8 9 10 13 12 -14 -15 18 16 -18 -19 -20
leaf_value=-0.030727141160134641 0.0041279448723602888 -0.02856078286746945 0.022298965011570977 0.016229237620805623 -0.017988968366098528 0.052457839695561441 -0.029556706466361105 0.10265119980002216 -0.021206652731060722 0.10683657193941153 -0.020986986025159998 0.067334081093164549 -0.00081123855483442725 0.057931196551263213 0.0016538643022838554 -0.028641079352415218 0.045215716412823875 0.046960188660583407 0.064554831637853513
leaf_weight=68.762209936976433 69.118541866540909 45.362332075834274 39.580891028046608 50.795150443911552 69.451792314648628 5.532161056995391 6.1940896064043036 7.3438691198825863 10.944793224334715 7.9345490038394955 14.774256229400637 10.617577940225603 11.327535793185232 5.1974446922540656 8.3062414079904574 17.731580898165706 9.2362624406814557 5.1848550885915747 13.542237803339956
leaf_count=298 283 216 152 196 245 17 23 26 40 26 66 41 40 16 29 84 41 24 45
internal_value=0.00115117 -0.0127656 -0.00221798 0.0100372 -0.00107167 -0.0127915 0.01849 0.0288108 0.0328283 0.0215862 0.0309814 0.0519897 0.0321591 -0.000449282 0.0562412 -0.0147369 0.00476645 -0.0115363 0.0406415
internal_weight=476.938 185.858 117.096 291.08 125.779 74.984 165.301 96.1826 89.9885 60.7962 49.8514 29.8797 21.9451 19.9717 29.1923 77.515 32.1527 22.9164 21.8485
internal_count=1908 815 517 1093 458 262 635 352 329 229 189 107 81 82 100 365 149 108 74
is_linear=0
shrinkage=0.05


Tree=11
num_leaves=20
num_cat=0
split_feature=41 74 43 80 9 151 49 130 149 24 107 91 128 87 128 71 97 100 122
split_gain=199.896 56.2321 47.0881 25.1283 15.597 18.5625 12.5912 10.1807 10.1039 10.9463 9.69432 9.47808 6.42893 5.80282 5.06318 5.01437 4.96 8.304 5.08003
threshold=2.5000000000000004 12.500000000000002 2.5000000000000004 11.500000000000002 34.500000000000007 5.5000000000000009 2.5000000000000004 34.500000000000007 14.500000000000002 4.5000000000000009 20.500000000000004 49.500000000000007 31.500000000000004 25.500000000000004 31.500000000000004 13.500000000000002 45.500000000000007 33.500000000000007 33.500000000000007
decision_type=2 2 2 2 2 2 2 2 2 2 2 2 2 2 2 2 2 2 2
left_child=2 7 4 -4 11 15 -5 8 13 -10 12 16 -11 -2 -3 -6 18 -18 -1
right_child=1 14 3 6 5 -7 -8 -9 9 10 -12 -13 -14 -15 -16 -17 17 -19 -20
leaf_value=-0.035051655547870542 0.048800358745923617 -0.038850150595923123 0.077071602537118047 -0.023234079937857661 0.0089514846046891052 0.062620229564209498 0.054674463281245735 0.089761150072813434 0.094316297303871588 -0.039808980534909048 0.059466563830152634 0.022647271018828526 0.029436759209968685 0.10914039749851033 0.020155299059698456 -0.04292720768151248 0.034747153152979875 -0.02874373919601907 -0.010648403617780425
leaf_weight=234.44716653227806 6.2196886688470867 13.382198691368105 17.117774993181229 18.338625803589824 8.2172282189130836 10.4162490516901 7.2308842390775672 45.626323252916336 7.099877297878268 6.5885767787694949 10.560399204492567 8.5448325276374799 6.8231674283742905 11.086969569325445 4.9917714595794669 10.752781495451925 7.4538205564022091 16.662083327770233 23.460101932287216
leaf_count=1090 18 56 49 75 28 36 23 122 19 25 32 31 21 30 18 45 27 70 93
internal_value=-0.00108471 0.0571809 -0.0191406 0.030186 -0.0257216 0.00899187 -0.00120207 0.0728176 0.0568381 0.0397847 0.023634 -0.0292324 -0.00458051 0.0874553 -0.0228198 -0.0204549 -0.0308042 -0.00911977 -0.0328319
internal_weight=475.021 112.379 362.642 42.6873 319.954 29.3863 25.5695 94.005 48.3787 31.072 23.9721 290.568 13.4117 17.3067 18.374 18.97 282.023 24.1159 257.907
internal_count=1908 341 1567 147 1420 109 98 267 145 97 78 1311 46 48 74 73 1280 97 1183
is_linear=0
shrinkage=0.05


Tree=12
num_leaves=20
num_cat=0
split_feature=123 75 45 127 95 4 2 134 82 0 82 79 33 67 97 130 4 3 82
split_gain=85.4728 55.1802 17.35 11.3358 12.0668 10.9551 9.90769 6.6116 6.60319 6.59862 6.49752 6.37619 6.23491 9.95787 6.1397 6.08068 5.55805 7.56985 6.94355
threshold=13.500000000000002 12.500000000000002 1.0000000180025095e-35 27.500000000000004 37.500000000000007 5.8582663989290502 6.5000000000000009 1.0000000180025095e-35 27.500000000000004 36.500000000000007 52.500000000000007 11.500000000000002 35.500000000000007 1.0000000180025095e-35 39.500000000000007 24.500000000000004 9.0586049170954848 47.494141414141417 29.500000000000004
decision_type=2 2 2 2 2 2 2 2 2 2 2 2 2 2 2 2 2 2 2
left_child=-1 2 7 4 6 -6 -3 -2 -5 11 16 -4 13 -10 15 -7 17 -8 -18
right_child=1 3 9 8 5 14 10 -9 12 -11 -12 -13 -14 -15 -16 -17 18 -19 -20
leaf_value=0.092193331899816947 0.014681467387191753 0.092099567665445803 -0.034743986237341068 -0.012090962326844756 0.074139660033152352 0.025221286064275712 -0.019510469480082508 -0.02971807017824812 -0.009305426627780394 -0.040492265624710283 -0.012741078600227277 0.012481528108964347 -4.3803177704274365e-05 0.069056911543657104 0.045506703540722081 -0.021310125041065876 0.02762873297115815 0.033863513173938396 0.068177213916031071
leaf_weight=23.842139720916748 29.496000587940216 5.9590747207403174 15.996762111783028 69.310804605484009 4.5871456563472739 8.6824005991220456 11.082171723246576 11.714911013841627 6.9204327762126949 109.70257001370192 9.868534103035925 12.920150130987167 38.028372466564178 9.7880150824785215 5.0899009853601447 36.691582471132278 33.115630194544792 16.584288939833641 15.499149292707441
leaf_count=131 126 34 55 263 25 39 40 41 26 368 37 56 151 52 25 132 149 77 81
internal_value=-6.93095e-05 -0.00494637 -0.0264234 0.00929448 0.0186797 0.000159727 0.0297486 0.00206013 -0.00183935 -0.0348914 0.0254357 -0.0136435 0.0111418 0.0366002 -0.00656502 -0.0124062 0.0303746 0.0124838 0.0405562
internal_weight=474.88 451.038 179.83 271.208 147.16 55.051 92.1088 41.2109 124.048 138.619 86.1498 28.9169 54.7368 16.7084 50.4639 45.374 76.2812 27.6665 48.6148
internal_count=1908 1777 646 1131 639 221 418 167 492 479 384 111 229 78 196 171 347 117 230
is_linear=0
shrinkage=0.05


Tree=13
num_leaves=20
num_cat=0
split_feature=43 124 132 75 118 110 126 142 94 160 97 120 109 5 126 66 49 97 93
split_gain=29.5795 16.0302 11.5995 10.6464 10.1041 12.9239 12.0654 10.3482 8.7148 10.3832 9.13942 8.46107 8.45841 9.43401 8.37421 9.54885 8.99293 8.93489 9.8185
threshold=2.5000000000000004 12.500000000000002 1.5000000000000002 12.500000000000002 23.500000000000004 14.500000000000002 19.500000000000004 9.5000000000000018 48.500000000000007 7.5000000000000009 39.500000000000007 22.500000000000004 8.5000000000000018 7.6677206093705097 22.500000000000004 1.5000000000000002 2.5000000000000004 26.500000000000004 43.500000000000007
decision_type=2 2 2 2 2 2 2 2 2 2 2 2 2 2 2 2 2 2 2
left_child=1 -1 4 -2 6 -6 7 -3 9 14 -10 -7 -9 -14 -8 16 17 -16 -19
right_child=3 2 -4 -5 5 11 8 12 10 -11 -12 -13 13 -15 15 -17 -18 18 -20
leaf_value=-0.040379340541566021 -0.032816167142695717 0.078571660517610206 -0.012345192458507898 0.0098724242216306317 0.013561671563290434 0.038693214231913485 -0.021101597527919787 -0.037477421254237843 0.091330352120199979 -0.021808329652375929 0.0039055012786317587 0.11031458498718279 -0.003619947197409332 0.061255213858671546 -0.021757483604432276 -0.007685441711352891 -0.027683609288110169 0.037097532085819424 -0.0081176872275706604
leaf_weight=17.551390185952187 77.820363581180573 9.9091852307319623 56.128377944231033 17.98026505112648 28.424264714121819 9.8289439827203768 22.963067874312401 5.341972008347514 5.7185111790895444 38.165320485830307 6.2640601843595505 7.104074001312255 10.078543677926065 12.621331274509428 9.4782940596342069 45.809845492243767 9.124347656965254 70.695187509059906 14.462753668427466
leaf_count=124 261 38 222 74 109 36 103 24 20 158 22 21 47 52 44 187 35 278 53
internal_value=2.26949e-05 0.00628717 0.00854904 -0.0248042 0.0123817 0.0341616 0.00859141 0.0346503 0.00415025 0.0017914 0.0456278 0.0687412 0.0191298 0.0324512 0.00701179 0.0113279 0.0197223 0.0242929 0.0294184
internal_weight=475.47 379.669 362.118 95.8006 305.99 45.3573 260.632 37.951 222.681 210.699 11.9826 16.933 28.0418 22.6999 172.533 149.57 103.761 94.6362 85.1579
internal_count=1908 1573 1449 335 1227 166 1061 161 900 858 42 57 123 99 700 597 410 375 331
is_linear=0
shrinkage=0.05


Tree=14
num_leaves=20
num_cat=0
split_feature=125 144 42 144 152 146 90 48 109 92 104 110 93 119 118 10 118 13 125
split_gain=21.9924 14.0857 11.5882 10.681 9.18655 13.2971 8.48585 7.71099 7.63713 7.58569 10.2671 9.02861 9.80687 8.49148 8.28942 8.89534 10.1193 7.638 7.89744
threshold=17.500000000000004 15.500000000000002 2.5000000000000004 13.500000000000002 5.5000000000000009 11.500000000000002 9.5000000000000018 1.5000000000000002 10.500000000000002 30.500000000000004 21.500000000000004 6.5000000000000009 36.500000000000007 13.500000000000002 14.500000000000002 4.5000000000000009 18.500000000000004 1.0000000180025095e-35 36.500000000000007
decision_type=2 2 2 2 2 2 2 2 2 2 2 2 2 2 2 2 2 2 2
left_child=-1 3 9 4 8 -6 -4 -7 -2 14 11 12 -11 -12 -3 16 -16 18 -13
right_child=1 2 6 -5 5 7 -8 -9 -10 10 13 17 -14 -15 15 -17 -18 -19 -20
leaf_value=-0.0355195821826126 0.034579504545021428 -0.043278591204184973 0.034603615929419546 -0.029016002224692718 0.066958960257419944 0.024693158430470832 -0.016632657454620427 -0.026262950373133129 -0.016777537081345873 0.029698246615558817 0.025214365202287616 0.036198181669729761 -0.049803896720141766 -0.03599711120788076 0.044808777246724434 0.052899087737919841 -0.017698975183165124 0.016358478696037414 0.098774488114387118
leaf_weight=37.702898308634758 8.2057176828384382 9.2799410521984083 9.5988568812608701 43.182014554738998 10.722299456596373 16.752747774124149 51.115270644426346 13.333236709237097 61.435963973402977 7.7708528488874418 9.9239439815282839 70.515518352389336 7.7449370622634888 13.2043589502573 8.5304459631443006 9.0551078915595991 26.868248343467712 56.203864350914955 5.4303268641233435
leaf_count=212 37 43 31 175 38 74 168 52 258 32 38 267 28 49 34 36 107 210 19
internal_value=0.00112604 0.0042742 0.0108481 -0.0079313 0.000312066 0.0191496 -0.00853224 0.00211089 -0.0107263 0.0160887 0.0212436 0.0260953 -0.00998643 -0.00973235 -0.000296228 0.00867654 -0.00263574 0.0303317 0.0406726
internal_weight=476.577 438.874 285.242 153.632 110.45 40.8083 60.7141 30.086 69.6417 224.528 170.794 147.665 15.5158 23.1283 53.7337 44.4538 35.3987 132.15 75.9458
internal_count=1908 1696 1062 634 459 164 199 126 295 863 643 556 60 87 220 177 141 496 286
is_linear=0
shrinkage=0.05


Tree=15
num_leaves=20
num_cat=0
split_feature=30 47 79 78 130 98 119 91 127 125 108 76 48 118 24 101 92 87 92
split_gain=183.41 45.1538 41.6354 40.5913 14.4901 17.3798 13.1572 14.7594 12.6669 15.324 7.69154 7.15988 6.86683 6.75989 6.63813 9.60038 7.54783 6.43065 6.01096
threshold=2.5000000000000004 1.5000000000000002 11.500000000000002 12.500000000000002 33.500000000000007 43.500000000000007 13.500000000000002 41.500000000000007 31.500000000000004 30.500000000000004 22.500000000000004 13.500000000000002 1.0000000180025095e-35 16.500000000000004 10.500000000000002 16.500000000000004 44.500000000000007 25.500000000000004 36.500000000000007
decision_type=2 2 2 2 2 2 2 2 2 2 2 2 2 2 2 2 2 2 2
left_child=1 10 6 8 14 -6 -3 -8 9 13 -1 12 -12 -2 15 16 -4 -11 -17
right_child=3 2 4 -5 5 -7 7 -9 -10 17 11 -13 -14 -15 -16 18 -18 -19 -20
leaf_value=-0.034438911924260178 0.038927962299875316 0.10586376691259072 -0.030613281379900843 -0.016060941061579358 -0.02776615059298226 0.08320866101559754 -0.021441931224611605 0.065512430831558985 0.082571074622829255 0.030181653634008567 -0.01878424287939541 -0.027156117768189544 0.050732442165990224 -0.030937592064162363 -0.038946017197318633 0.070798498861180323 0.036864264624438037 0.08913827454809925 -0.00015566671569932863
leaf_weight=205.85794169455767 6.8447597473859769 9.4752241969108599 30.16786240041256 16.875141978263855 6.1981952935457221 8.1896476149559003 7.5014199316501644 13.965185061097143 58.078787371516228 6.6927154809236553 6.6950642168521863 22.565926492214203 7.5678099542856216 7.0059483051300049 27.456422716379166 5.2135105729103071 4.8041880428791037 14.972078010439871 6.9826723635196686
leaf_count=967 21 24 133 73 24 25 28 38 150 19 28 103 25 24 122 18 16 39 31
internal_value=-0.00108753 -0.0182699 0.00682551 0.0553174 -0.0105421 0.0354014 0.0567882 0.0351266 0.068187 0.0446647 -0.0306739 -0.00962918 0.018101 0.00358865 -0.0194002 -0.00802262 -0.0213437 0.0709253 0.0301752
internal_weight=473.111 362.641 119.954 110.469 89.0125 14.3878 30.9418 21.4666 93.5943 35.5155 242.687 36.8288 14.2629 13.8507 74.6247 47.1682 34.9721 21.6648 12.1962
internal_count=1908 1582 459 326 369 49 90 66 253 103 1123 156 53 45 320 198 149 58 49
is_linear=0
shrinkage=0.05


Tree=16
num_leaves=20
num_cat=0
split_feature=123 75 45 125 127 95 7 81 81 134 86 90 103 0 80 82 97 9 128
split_gain=74.673 49.7141 17.6984 13.4281 11.5773 10.3904 7.5423 7.3643 7.22329 6.57875 6.70629 7.29351 8.16794 6.37668 6.37981 6.19213 9.90758 7.90937 7.8635
threshold=12.500000000000002 12.500000000000002 1.0000000180025095e-35 29.500000000000004 27.500000000000004 48.500000000000007 6.3969263381028094 44.500000000000007 28.500000000000004 1.0000000180025095e-35 45.500000000000007 23.500000000000004 17.500000000000004 36.500000000000007 11.500000000000002 29.500000000000004 31.500000000000004 26.500000000000004 26.500000000000004
decision_type=2 2 2 2 2 2 2 2 2 2 2 2 2 2 2 2 2 2 2
left_child=-1 2 9 4 6 -5 7 15 -6 10 11 12 -2 14 -4 16 -3 -18 -17
right_child=1 3 13 5 8 -7 -8 -9 -10 -11 -12 -13 -14 -15 -16 18 17 -19 -20
leaf_value=0.087978601843809123 0.071169809588475658 0.0053244906842653591 -0.034165885085960905 -0.012078724202835497 -0.011962533998575567 0.049662589816051469 0.078381553229752959 -0.0018227003501147601 0.019023260979683699 -0.028982006542419066 0.070368492482977871 -0.021165361134012645 -0.009021360606507654 -0.039671495948972763 0.013356802297921803 0.084158039933310017 0.022779322283560111 0.077786884267315254 0.016493193546599502
leaf_weight=22.914612516760826 6.5382118821144157 33.928184866905212 15.916317582130432 82.842765331268311 42.760317400097847 7.4250037521123877 6.7305787950754157 22.050001099705696 33.577496618032455 11.503073468804358 4.6945616304874411 12.877001553773878 6.1738606244325638 106.3023374080658 12.695422455668449 10.615272268652918 15.479252859950067 11.309339538216589 7.2099881917238227
leaf_count=123 35 137 56 314 162 37 36 86 145 41 25 46 23 368 55 58 68 62 31
internal_value=-7.05289e-05 -0.00454785 -0.0252254 0.00879046 0.0165514 -0.00700017 0.0271389 0.0237102 0.00166669 0.00320789 0.0154351 0.00535698 0.0322234 -0.034032 -0.0130794 0.0308784 0.0232716 0.0460019 0.0567889
internal_weight=473.544 450.629 176.701 273.928 183.66 90.2678 107.323 100.592 76.3378 41.7867 30.2836 25.5891 12.7121 134.914 28.6117 78.542 60.7168 26.7886 17.8253
internal_count=1908 1785 649 1136 785 351 478 442 307 170 129 104 58 479 111 356 267 130 89
is_linear=0
shrinkage=0.05


Tree=17
num_leaves=20
num_cat=0
split_feature=43 124 132 74 111 142 20 109 99 70 95 98 151 20 87 4 19 83 107
split_gain=26.969 14.7292 10.6089 9.27616 9.05748 11.5415 10.5282 9.81221 9.75338 9.36392 9.6331 8.53027 8.53155 9.28664 8.45601 8.89195 8.35947 7.81748 10.1723
threshold=2.5000000000000004 12.500000000000002 1.5000000000000002 12.500000000000002 16.500000000000004 16.500000000000004 8.5000000000000018 17.500000000000004 38.500000000000007 1.0000000180025095e-35 38.500000000000007 22.500000000000004 7.5000000000000009 7.5000000000000009 32.500000000000007 8.6141439205955361 14.500000000000002 51.500000000000007 7.5000000000000009
decision_type=2 2 2 2 2 2 2 2 2 2 2 2 2 2 2 2 2 2 2
left_child=1 -1 4 -2 5 6 8 -8 9 10 -3 -6 13 17 15 -9 -7 18 -13
right_child=3 2 -4 -5 11 16 7 14 -10 -11 -12 12 -14 -15 -16 -17 -18 -19 -20
leaf_value=-0.039542087989676317 -0.031781033925749845 0.018122865479385415 -0.011970037901721544 0.0075945450252289859 0.064806235869913298 -0.049646848499053375 0.06452401450857817 0.074804411564817042 -0.022885237195003315 -0.010802367886426535 0.088854975804971509 -0.033513018166035337 0.040498494675163921 -0.049970716479461656 -0.026638001361701982 0.0013401091797272677 -0.0030554129301583613 0.055949319476201034 0.016553997845510468
leaf_weight=16.983332321047783 75.207313098013401 28.386394292116165 55.768778026103973 18.670558959245682 10.388157397508619 14.15880250930786 15.173555478453634 7.4972624182701173 27.284422174096107 23.656312674283981 5.7965879887342444 11.898452356457708 31.046586215496063 5.9812471568584433 8.5921040624380094 9.1408029198646528 30.081252664327621 10.044649571180342 68.846313536167145
leaf_count=124 259 124 222 76 38 65 54 25 116 109 20 50 112 21 36 40 116 36 265
internal_value=5.28043e-05 0.00597133 0.00809638 -0.02395 0.0117301 0.00399342 0.0117329 0.0327509 0.00175678 0.0133811 0.0301173 0.0212335 0.0176922 0.0103754 0.0136425 0.0344438 -0.0179668 0.014351 0.00917618
internal_weight=474.603 380.725 363.742 93.8779 307.973 169.767 125.527 40.4037 85.1237 57.8393 34.183 138.205 127.817 96.7707 25.2302 16.6381 44.2401 90.7894 80.7448
internal_count=1908 1573 1449 335 1227 705 524 155 369 253 144 522 484 372 101 65 181 351 315
is_linear=0
shrinkage=0.05


Tree=18
num_leaves=20
num_cat=0
split_feature=125 91 23 120 110 0 103 66 129 97 89 14 106 1 126 119 118 6 158
split_gain=20.3179 14.6557 10.609 11.6046 11.3052 10.5826 10.0389 10.4808 13.191 7.87131 7.93419 8.82314 14.1806 9.65424 7.53651 7.8826 7.36664 7.44382 7.32675
threshold=17.500000000000004 39.500000000000007 6.5000000000000009 23.500000000000004 18.500000000000004 28.500000000000004 10.500000000000002 1.5000000000000002 32.500000000000007 44.500000000000007 52.500000000000007 12.500000000000002 15.500000000000002 14.500000000000002 28.500000000000004 13.500000000000002 4.5000000000000009 8.6331868131868159 10.500000000000002
decision_type=2 2 2 2 2 2 2 2 2 2 2 2 2 2 2 2 2 2 2
left_child=-1 2 6 4 -4 -3 7 8 -2 10 11 -8 13 -13 15 -6 -14 -18 -7
right_child=1 5 3 -5 14 18 9 -9 -10 -11 -12 12 16 -15 -16 -17 17 -19 -20
leaf_value=-0.034631615490892644 -0.0011640159079032123 0.045015898178614927 -0.00044676176632580549 0.087554461513327186 0.024756354568301924 -0.0048927499447576133 -0.022393425208954751 0.062630903055641826 0.086798269596338143 -0.035772879057093365 0.044404393023892041 0.087610650389316133 0.047209907960871371 0.020463413978453596 0.0044642143788019882 0.10554948561148954 -0.04940838546810454 -0.0021334414948536245 -0.03542928693411751
leaf_weight=36.700115613639355 29.307506382465363 9.7287471145391446 23.767776787281036 8.1344063729047758 5.0101728737354296 168.98984377086163 31.353783845901489 14.261421620845793 4.987397074699401 13.70307272672653 11.146860703825949 7.1834067255258587 5.8183627426624289 21.0086430311203 5.7740880697965613 7.5962799191474915 10.599256619811056 38.836285144090652 22.22681151330471
leaf_count=212 127 38 103 30 22 618 139 52 17 55 42 25 22 78 25 25 46 156 76
internal_value=0.00110865 0.00409356 0.0124753 0.0328777 0.0223253 -0.00585411 0.00702438 0.026608 0.0116281 0.00021512 0.00413064 0.000220124 0.00871688 0.0375727 0.0517718 0.0734399 -0.00600614 -0.0122695 -0.00844228
internal_weight=476.134 439.434 238.489 50.2827 42.1483 200.945 188.206 48.5563 34.2949 139.65 125.947 114.8 83.446 28.192 18.3805 12.6065 55.2539 49.4355 191.217
internal_count=1908 1696 964 205 175 732 759 196 144 563 508 466 327 103 72 47 224 202 694
is_linear=0
shrinkage=0.05


Tree=19
num_leaves=20
num_cat=0
split_feature=30 47 79 78 100 126 103 119 91 91 76 9 24 107 110 103 134 127 87
split_gain=163.385 42.1707 36.9264 34.7254 16.4801 11.3323 11.2724 11.1173 12.968 8.57562 9.46971 8.18955 7.08538 11.5094 10.9538 6.95938 6.75267 6.26765 8.09492
threshold=2.5000000000000004 1.5000000000000002 11.500000000000002 12.500000000000002 46.500000000000007 28.500000000000004 20.500000000000004 13.500000000000002 41.500000000000007 39.500000000000007 13.500000000000002 33.500000000000007 10.500000000000002 14.500000000000002 18.500000000000004 14.500000000000002 1.0000000180025095e-35 30.500000000000004 25.500000000000004
decision_type=2 2 2 2 2 2 2 2 2 2 2 2 2 2 2 2 2 2 2
left_child=1 6 7 5 12 11 -1 -3 -9 -8 -11 -2 13 -4 15 -15 -5 18 -7
right_child=3 2 4 16 -6 17 9 8 -10 10 -12 -13 -14 14 -16 -17 -18 -19 -20
leaf_value=-0.035892373974879231 -0.0010656830019912286 0.096816797207705502 -0.02508080883280138 -0.036635322571743179 0.049963556679547265 0.0011886916087563665 -0.026883951172293592 -0.020865977483912689 0.060537820917413943 0.048101873758765394 -0.015964420804873061 0.067480542771733085 -0.038451778477952364 0.015866685034137396 -0.028435745367940937 0.091133667964916357 0.032282069969154462 0.079680755532741676 0.068022431880317896
leaf_weight=182.11399810016155 10.641836032271387 9.8729889988899249 32.056957140564919 11.530855759978296 10.101199939846991 6.4606316387653377 32.132848709821701 7.4120256453752544 14.392134621739386 10.515915974974634 12.774745814502237 7.3788199573755255 27.297606766223907 6.4139253944158572 6.4743119329214087 5.8927654474973679 5.1381409168243399 56.86901493370533 15.166481718420981
leaf_count=888 34 24 136 52 32 20 141 28 38 37 57 20 124 25 30 22 21 139 40
internal_value=-0.00110389 -0.0176814 0.00648975 0.0512496 -0.0101349 0.062759 -0.0298836 0.0527977 0.0328657 -0.0101395 0.012962 0.0270016 -0.0179043 -0.00687123 0.0242104 0.0519065 -0.0153919 0.0709679 0.0480573
internal_weight=470.637 357.451 119.914 113.186 88.2368 96.5168 237.538 31.6771 21.8042 55.4235 23.2907 18.0207 78.1356 50.838 18.781 12.3067 16.669 78.4961 21.6271
internal_count=1908 1582 459 326 369 253 1123 90 66 235 94 54 337 213 77 47 73 199 60
is_linear=0
shrinkage=0.05


Tree=20
num_leaves=20
num_cat=0
split_feature=93 77 0 92 102 4 117 7 151 21 2 45 115 5 90 3 152 95 125
split_gain=78.1298 47.5653 20.4436 9.1901 8.86644 9.2136 10.5504 8.2264 6.88964 5.99218 5.79471 5.75651 5.52391 9.39758 5.33718 5.21969 6.20262 4.46781 5.6733
threshold=17.500000000000004 12.500000000000002 36.500000000000007 30.500000000000004 27.500000000000004 5.4150834356714599 20.500000000000004 3.9639376218323585 2.5000000000000004 4.5000000000000009 20.500000000000004 1.0000000180025095e-35 11.500000000000002 9.546938775510208 57.500000000000007 46.852150537634415 2.5000000000000004 48.500000000000007 30.500000000000004
decision_type=2 2 2 2 2 2 2 2 2 2 2 2 2 2 2 2 2 2 2
left_child=8 2 9 7 5 6 10 15 -1 -2 -5 -11 -9 -14 17 16 -3 18 -7
right_child=1 3 -4 4 -6 14 -8 12 -10 11 -12 -13 13 -15 -16 -17 -18 -19 -20
leaf_value=0.087314367102025017 -0.0084697481276405553 -0.018539328898940045 -0.036231222678154477 0.040514858664636062 0.065384577844880082 -0.00077847802138758613 -0.0094576592180983833 0.020747249826313447 0.023491356298288094 0.068176699772347457 0.12020033084594517 -0.00055799199224538208 0.12324115936094551 0.035322403365715835 0.043914272646515207 0.028594371301049207 0.041825553320570232 0.03814038360237379 -0.022231060076235973
leaf_weight=25.558572292327884 39.177194267511368 18.735628694295887 128.66727702319622 6.548857659101488 5.3846938759088507 111.95006631314754 7.716838225722312 10.457058459520342 5.0666989386081687 5.7267008870840055 3.5011965036392212 6.5076414495706558 4.9976209253072721 7.7571457773447037 5.7604630291461936 22.54548941552639 5.5060578137636176 5.7665994912385932 42.525831162929535
leaf_count=137 155 68 461 31 28 442 30 44 21 30 22 27 31 35 28 101 26 27 153
internal_value=-0.000459771 -0.00584356 -0.0255821 0.00787223 0.00214441 0.000291395 0.0345129 0.0233502 0.0767554 0.00106932 0.0682754 0.0316156 0.0476856 0.0697711 -0.00337125 0.0112771 -0.00482854 -0.00507109 -0.00668418
internal_weight=469.858 439.232 180.079 259.154 189.155 183.77 17.7669 69.999 30.6253 51.4115 10.0501 12.2343 23.2118 12.7548 166.003 46.7872 24.2417 160.242 154.476
internal_count=1897 1739 673 1066 761 733 83 305 158 212 53 57 110 66 650 195 94 622 595
is_linear=0
shrinkage=0.05


Tree=21
num_leaves=20
num_cat=0
split_feature=45 123 108 94 99 6 59 96 21 20 125 62 70 159 155 33 113 86 107
split_gain=31.8393 13.2604 11.917 14.1302 9.0377 8.62833 7.7964 7.67826 10.5384 6.29634 13.7351 8.4978 11.7275 12.1479 11.4558 12.4248 11.2246 9.19347 8.5216
threshold=2.5000000000000004 12.500000000000002 22.500000000000004 28.500000000000004 30.500000000000004 27.449785670545012 1.0000000180025095e-35 41.500000000000007 5.5000000000000009 10.500000000000002 26.500000000000004 1.0000000180025095e-35 1.0000000180025095e-35 3.5000000000000004 3.5000000000000004 5.5000000000000009 22.500000000000004 12.500000000000002 13.500000000000002
decision_type=2 2 2 2 2 2 2 2 2 2 2 2 2 2 2 2 2 2 2
left_child=1 -1 5 -4 -5 6 9 8 -2 11 -11 14 13 18 15 -3 -17 -15 -13
right_child=7 2 3 4 -6 -7 -8 -9 -10 10 -12 12 -14 17 -16 16 -18 -19 -20
leaf_value=-0.03883967958323107 0.02711642219868924 0.091159640717368789 0.039571781890371194 0.028574883584865891 -0.033460812585877908 -0.028861715239627002 -0.020420042617096811 -0.036061349838013942 -0.037548900254583926 -0.0028871524625831615 0.076541849309442606 -0.013343859414638124 0.0099280984918702266 0.10276648152531415 -0.017327460769965587 -0.0050397036309660498 0.059750340892674031 0.042256892625668119 0.049330158903979536
leaf_weight=16.159440316259861 13.207397863268854 5.1949012577533713 10.425427600741385 6.8447726368904105 41.269749961793423 12.72435489296913 16.27549821138382 67.317157372832298 12.047594666481016 9.8834061473608035 12.113342598080633 14.46732882410288 106.0142927467823 8.3304238915443403 44.693230450153351 31.041649930179119 8.5196455270051938 25.46930243074894 8.6761315166950208
leaf_count=127 49 18 38 26 164 53 58 234 45 40 41 60 404 28 203 144 32 98 35
internal_value=-0.000959423 0.00547525 0.00745375 -0.0132009 -0.0246356 0.0114389 0.0132031 -0.0272413 -0.0037314 0.0151973 0.0408534 0.0129615 0.0197586 0.0380605 0.000578608 0.0184595 0.00891303 0.0571703 0.0101517
internal_weight=470.675 378.103 361.943 58.54 48.1145 303.404 290.679 92.5721 25.255 274.404 21.9967 252.407 162.957 56.9432 89.4494 44.7562 39.5613 33.7997 23.1435
internal_count=1897 1569 1442 228 190 1214 1161 328 94 1103 81 1022 625 221 397 194 176 126 95
is_linear=0
shrinkage=0.05


Tree=22
num_leaves=20
num_cat=0
split_feature=122 70 20 30 98 130 25 111 103 10 101 10 81 88 33 126 21 66 3
split_gain=22.1226 12.3305 16.3524 11.5644 11.5121 7.58124 10.0104 7.543 7.43972 10.2405 7.42576 7.17144 8.85002 9.10255 7.69854 7.61757 7.64062 7.14139 7.42677
threshold=15.500000000000002 1.0000000180025095e-35 5.5000000000000009 1.0000000180025095e-35 45.500000000000007 25.500000000000004 6.5000000000000009 12.500000000000002 15.500000000000002 6.5000000000000009 18.500000000000004 12.500000000000002 24.500000000000004 2.5000000000000004 41.500000000000007 25.500000000000004 3.5000000000000004 2.5000000000000004 68.105882352941194
decision_type=2 2 2 2 2 2 2 2 2 2 2 2 2 2 2 2 2 2 2
left_child=-1 -2 4 5 11 -4 7 -7 9 -5 -8 12 13 -3 -14 -16 -17 18 -15
right_child=1 2 3 8 -6 6 10 -9 -10 -11 -12 -13 14 17 15 16 -18 -19 -20
leaf_value=-0.04747571923615744 -0.0095708728437925127 -0.018073671855466645 -0.012593130328219218 -0.018263189362341618 -0.0065332602521750317 -0.050386429033020166 0.10530238446071179 0.033696256982651558 -0.023166174679648145 0.061502071677120823 0.027905034463286061 0.081360588885885779 -0.0066643908000833946 0.027733513126694725 0.070024220655165823 0.032334969217404128 -0.031634782240098087 0.090490066013351772 0.080423633904782577
leaf_weight=23.063670538365841 140.37419079989195 7.7345378100872031 13.335424244403837 9.9458547234535235 39.258418560028076 4.437547832727434 6.022449925541876 6.6861920952796936 69.299746759235859 6.7577875554561606 6.3843095898628235 5.239872843027114 37.160759665071964 55.388749592006207 7.7730770632624653 14.940930157899858 6.7888632267713538 6.1628714501857749 7.6061648875474921
leaf_count=160 576 29 60 35 133 21 20 24 247 26 26 19 156 212 32 49 27 18 27
internal_value=0.000288311 0.0027293 0.00828252 -0.00590326 0.0175511 0.0175258 0.0345951 0.000153497 -0.0159463 0.0140074 0.065475 0.0239056 0.0218084 0.0333678 0.00847539 0.0275449 0.0123494 0.039121 0.0340955
internal_weight=474.361 451.298 310.924 122.869 188.054 36.8659 23.5305 11.1237 86.0034 16.7036 12.4068 148.796 143.556 76.8923 66.6636 29.5029 21.7298 69.1578 62.9949
internal_count=1897 1737 1161 459 702 151 91 45 308 61 46 569 550 286 264 108 76 257 239
is_linear=0
shrinkage=0.05


Tree=23
num_leaves=20
num_cat=0
split_feature=30 129 78 93 92 32 157 99 96 149 146 6 47 20 108 127 154 151 24
split_gain=165.977 38.3497 36.8096 31.6044 21.8427 11.915 10.7231 8.76723 8.41306 8.3647 9.98863 8.55767 9.6514 7.88173 7.85827 7.17873 6.21952 5.97334 6.42197
threshold=2.5000000000000004 33.500000000000007 12.500000000000002 43.500000000000007 49.500000000000007 11.500000000000002 11.500000000000002 34.500000000000007 40.500000000000007 17.500000000000004 33.500000000000007 25.053375751148824 2.5000000000000004 4.5000000000000009 23.500000000000004 33.500000000000007 4.5000000000000009 2.5000000000000004 11.500000000000002
decision_type=2 2 2 2 2 2 2 2 2 2 2 2 2 2 2 2 2 2 2
left_child=1 4 7 8 6 -6 14 -2 -3 -9 11 12 -11 -14 -1 -10 -5 -16 -19
right_child=2 3 -4 16 5 -7 -8 9 15 10 -12 -13 13 -15 17 -17 -18 18 -20
leaf_value=-0.032277485073725076 0.018416986526859094 -0.035221341960625173 -0.018834777927366004 0.10520339166572357 0.087382267863572005 -0.0029490197430641911 0.022860078361919015 0.084203371433897875 -0.014287353876215584 -0.016199027871004506 0.091052717813809095 0.074624620575991785 0.076877171404890657 0.013963088091793788 0.029438683034966759 0.049212037482616294 0.048943670279476423 0.027049566017584004 -0.035726658992553263
leaf_weight=233.31167976558208 10.513897433876989 16.190649524331093 16.339484035968781 7.3431205898523357 6.2611190825700751 8.7553811445832235 10.286824420094488 39.390986651182175 9.82547275722027 9.0011580139398593 13.877360403537748 13.799820110201834 10.203951001167299 9.7202899605035764 8.831141874194147 8.1368957012891752 14.841027177870272 5.4954473003745106 15.75000077486038
leaf_count=1137 33 70 72 20 17 32 39 95 40 28 33 35 24 25 33 23 45 24 72
internal_value=0.00113457 -0.0166353 0.051043 0.0210996 -0.0239991 0.0347145 -0.0272207 0.0617631 -0.00908275 0.0665107 0.054198 0.0422273 0.0267711 0.0461837 -0.0291766 0.0144777 0.0675661 -0.00512253 -0.0194887
internal_weight=467.876 345.029 122.847 56.3372 288.692 15.0165 273.675 106.507 34.153 95.9936 56.6026 42.7252 28.9254 19.9242 263.388 17.9624 22.1841 30.0766 21.2454
internal_count=1897 1552 345 198 1354 49 1305 273 133 240 145 112 77 49 1266 63 65 129 96
is_linear=0
shrinkage=0.05


Tree=24
num_leaves=20
num_cat=0
split_feature=93 77 0 122 128 63 147 97 151 21 118 7 144 136 149 151 144 19 149
split_gain=68.6764 43.7717 19.3467 10.2147 8.37186 7.68954 9.7115 7.0171 5.95452 5.50766 5.61541 5.45672 5.89221 5.38709 7.8048 6.46443 5.40552 5.32719 5.0307
threshold=17.500000000000004 12.500000000000002 36.500000000000007 22.500000000000004 23.500000000000004 1.0000000180025095e-35 20.500000000000004 25.500000000000004 2.5000000000000004 4.5000000000000009 13.500000000000002 2.1589473684210532 14.500000000000002 1.0000000180025095e-35 13.500000000000002 4.5000000000000009 10.500000000000002 20.500000000000004 13.500000000000002
decision_type=2 2 2 2 2 2 2 2 2 2 2 2 2 2 2 2 2 2 2
left_child=8 2 9 13 5 6 18 -6 -1 -2 -11 12 -9 14 16 17 -3 -16 -5
right_child=1 3 -4 4 7 -7 -8 11 -10 10 -12 -13 -14 -15 15 -17 -18 -19 -20
leaf_value=0.080770731020564104 -0.0082121274795060786 0.057721108231404687 -0.035429493616812816 0.049215376719598719 0.044898110801684252 0.0072101951206677024 0.0047470876994384131 0.054343600103735339 0.021843256634574884 0.0026963639192119507 0.071465996765335729 -0.009811710395349298 0.00257789697605206 0.00015848320381945812 0.10843809859370634 0.026833114663499726 -0.00068133790952996476 0.034598499636083239 0.13076145989207405
leaf_weight=26.155713975429538 39.007533296942711 5.3305657655000713 124.96679290384054 3.6737973541021329 7.4362571239471427 25.64482669532299 5.6898742467164993 6.7765843719243994 5.1273627430200568 7.4623349010944349 4.9292353093624115 122.7546149790287 29.114701390266418 14.310015663504599 7.3287969082593936 9.0883727967739087 15.432094395160673 3.663739800453186 3.8980849087238312
leaf_count=137 155 26 461 18 36 106 23 34 21 30 27 465 118 56 43 40 59 17 25
internal_value=-0.000450727 -0.00557941 -0.0248089 0.00745742 0.00231818 0.0231951 0.0541057 -0.00257246 0.0711124 0.00101284 0.0300522 -0.00479757 0.0123517 0.0265584 0.0358079 0.0580327 0.0143128 0.0838278 0.0911962
internal_weight=467.791 436.508 176.366 260.142 204.989 38.9066 13.2618 166.082 31.2831 51.3991 12.3916 158.646 35.8913 55.1536 40.8436 20.0809 20.7627 10.9925 7.57188
internal_count=1897 1739 673 1066 825 172 66 653 158 212 57 617 152 241 185 100 85 60 43
is_linear=0
shrinkage=0.05


Tree=25
num_leaves=20
num_cat=0
split_feature=45 141 70 108 33 93 159 6 102 105 96 21 14 158 106 121 69 14 22
split_gain=29.1925 12.5576 9.36566 9.98787 9.03542 8.2414 9.25323 9.83033 8.14615 7.39864 7.34164 9.74069 7.24523 9.55123 8.43411 13.8019 8.398 8.68384 7.19508
threshold=2.5000000000000004 5.5000000000000009 1.0000000180025095e-35 22.500000000000004 21.500000000000004 39.500000000000007 2.5000000000000004 15.055574614065181 11.500000000000002 9.5000000000000018 41.500000000000007 5.5000000000000009 10.500000000000002 3.5000000000000004 12.500000000000002 29.500000000000004 1.5000000000000002 20.500000000000004 6.5000000000000009
decision_type=2 2 2 2 2 2 2 2 2 2 2 2 2 2 2 2 2 2 2
left_child=1 -1 4 18 5 6 7 -3 -8 -6 11 -2 13 -11 -14 16 17 -16 -4
right_child=10 2 3 -5 9 -7 8 -9 -10 12 -12 -13 14 -15 15 -17 -18 -19 -20
leaf_value=-0.038605687905674646 0.025743390719681177 -0.018794467911286063 0.008251609910373138 -0.022651905972981758 -0.0184697351380907 0.0057653959864539788 0.10378157254047581 0.06638951592325612 0.041980270638101599 -0.0086194762805716103 -0.035212104528727181 -0.036690256385437561 -0.031968982612995717 0.07887598964991599 0.028973185600436588 -0.035041310951869777 -0.015937012024482167 0.098619133364712813 -0.0296492779378364
leaf_weight=15.669329382479189 13.382779866456987 8.4135406911373121 177.42632779479027 37.488937444984913 21.120044238865376 18.040483266115189 9.055312782526018 5.6687354519963256 12.968236133456228 4.8238080739974967 65.396629340946674 11.716975159943102 10.887927934527395 8.8260459303855878 13.416548259556299 8.9691561162471753 5.8307439833879462 6.7161768078804007 13.472957015037535
leaf_count=117 49 39 694 151 97 67 29 19 51 24 234 45 53 33 53 36 27 23 56
internal_value=-0.000875744 0.0052196 0.00711072 0.000943103 0.0175653 0.0333617 0.0471503 0.0154958 0.0673908 0.00695212 -0.0263893 -0.00340165 0.0159803 0.0479554 0.00645501 0.0184311 0.0369034 0.0522067 0.00557671
internal_weight=469.291 378.794 363.125 228.388 134.737 54.1463 36.1058 14.0823 22.0235 80.5905 90.4964 25.0998 59.4704 13.6499 45.8206 34.9326 25.9635 20.1327 190.899
internal_count=1897 1569 1452 901 551 205 138 58 80 346 328 94 249 57 192 139 103 76 750
is_linear=0
shrinkage=0.05


Tree=26
num_leaves=20
num_cat=0
split_feature=122 20 99 10 83 66 1 85 48 49 2 41 106 105 112 82 128 83 143
split_gain=20.6914 10.3599 10.1385 8.92674 8.51702 10.7589 9.59677 8.8308 8.70167 7.64787 8.72432 8.46616 13.3585 7.59575 7.45691 6.98066 6.96541 6.69118 6.66132
threshold=15.500000000000002 5.5000000000000009 47.500000000000007 12.500000000000002 22.500000000000004 2.5000000000000004 11.500000000000002 16.500000000000004 1.0000000180025095e-35 1.5000000000000002 16.500000000000004 1.0000000180025095e-35 13.500000000000002 10.500000000000002 25.500000000000004 50.500000000000007 29.500000000000004 33.500000000000007 16.500000000000004
decision_type=2 2 2 2 2 2 2 2 2 2 2 2 2 2 2 2 2 2 2
left_child=-1 2 3 4 5 7 13 -2 -9 10 -8 17 -13 15 -11 16 -6 -12 -3
right_child=1 18 -4 -5 6 -7 9 8 -10 14 11 12 -14 -15 -16 -17 -18 -19 -20
leaf_value=-0.046844612637048248 0.0058646755839797862 -0.014340853009654231 -0.020028786860653579 0.058916060731651509 -0.034659923517174569 0.070561039975515868 -0.0042131035670844204 0.0075085327420174293 0.062585856239363455 -0.022956748624332373 0.023774674800268146 -0.040917358225450798 0.055704363883977925 -0.033592678046890423 0.039662010800299879 0.050824504557507269 0.02243078580364391 0.091120948628879664 0.0058208779464644532
leaf_weight=22.160621404647827 71.510752789676189 110.34108797460794 27.659431494772434 9.6953372210264188 12.186803869903093 9.6599699258804304 16.386896207928658 12.737861201167108 16.409858882427216 20.420048564672474 5.8380885794758823 6.3523360788822165 8.1885570436716062 26.895309418439865 6.1972153484821311 6.1218466311693183 9.5131778568029386 10.015480890870093 65.161481708288193
leaf_count=160 276 439 96 34 57 31 77 54 55 82 24 31 27 111 21 22 31 32 237
internal_value=0.000325199 0.00264147 0.00868476 0.0118855 0.00997312 0.0201569 0.00120408 0.0153197 0.0385165 0.0130195 0.0251937 0.0410481 0.0134942 -0.0146453 -0.00837742 0.00367101 -0.0096316 0.0663206 -0.0068551
internal_weight=473.452 451.292 275.789 248.13 238.434 110.318 128.116 100.658 29.1477 73.3986 46.7814 30.3945 14.5409 54.7171 26.6173 27.8218 21.7 15.8536 175.503
internal_count=1897 1737 1061 965 931 416 515 385 109 294 191 114 58 221 103 110 88 56 676
is_linear=0
shrinkage=0.05


Tree=27
num_leaves=20
num_cat=0
split_feature=30 93 78 91 97 126 4 79 154 107 67 155 155 99 107 146 30 25 70
split_gain=148.438 35.486 32.138 18.4267 12.8991 12.9176 12.4718 11.4898 10.7922 9.75795 8.7509 9.44518 9.1949 7.63277 8.27506 8.94266 6.44809 5.70405 6.98137
threshold=2.5000000000000004 43.500000000000007 12.500000000000002 35.500000000000007 44.500000000000007 30.500000000000004 8.7537878787878807 11.500000000000002 8.5000000000000018 22.500000000000004 1.5000000000000002 3.5000000000000004 6.5000000000000009 34.500000000000007 19.500000000000004 33.500000000000007 1.5000000000000002 6.5000000000000009 1.5000000000000002
decision_type=2 2 2 2 2 2 2 2 2 2 2 2 2 2 2 2 2 2 2
left_child=1 4 13 -3 9 16 -7 8 -5 -1 11 -9 -13 -2 15 17 -6 18 -15
right_child=2 3 -4 7 5 6 -8 10 -10 -11 -12 12 -14 14 -16 -17 -18 -19 -20
leaf_value=-0.032899331858120544 0.017123891833555921 -0.037689106320500917 -0.018226937798315211 0.085657071355982661 -0.048558735446717467 -0.013326813045109773 0.074617536104940083 -0.029119854973690545 0.020092804324802316 -0.0047737770646165585 -0.04028273999729217 0.074608208218114272 0.0057226933129289302 0.041239686121255476 0.078283237306695133 0.083849212232587095 0.019744850920164814 0.059216866796639733 -0.015222344410161476
leaf_weight=199.29652898013592 10.627722531557081 13.481016457080839 16.142175391316414 12.493300005793573 10.898613721132277 7.1455489248037365 9.2500194981694204 6.8172959834337261 12.613134339451788 36.484194912016392 7.3348136544227591 9.4515782594680804 9.9378153756260854 15.846171259880066 42.686064288020134 13.826027393341063 5.0592749193310729 17.47347466647625 8.3647966831922531
leaf_count=1014 33 60 72 31 46 25 29 27 36 157 33 32 41 40 103 32 21 42 23
internal_value=0.00100565 -0.0161102 0.0476092 0.0150222 -0.0244849 0.00512026 0.0362895 0.0271386 0.0527185 -0.0285472 0.00799163 0.0215028 0.0393017 0.0573749 0.0617312 0.0490031 -0.0269038 0.0374452 0.0217323
internal_weight=465.23 340.263 124.966 72.129 268.134 32.3535 16.3956 58.6479 25.1064 235.781 33.5415 26.2067 19.3894 108.824 98.1965 55.5105 15.9579 41.6844 24.211
internal_count=1897 1552 345 260 1292 121 54 200 67 1171 133 100 73 273 240 137 67 105 63
is_linear=0
shrinkage=0.05


Tree=28
num_leaves=20
num_cat=0
split_feature=93 77 129 102 4 122 8 91 4 114 116 9 48 121 116 36 146 107 108
split_gain=60.853 40.4508 17.3994 9.68247 9.71039 10.9663 10.0831 14.1513 9.51084 9.30754 6.68498 6.71316 5.45313 5.34159 5.29119 7.15205 5.85321 5.46394 7.63728
threshold=17.500000000000004 13.500000000000002 27.500000000000004 26.500000000000004 6.0973590855340962 25.500000000000004 0.087337909992372217 38.500000000000007 16.232221098752955 8.5000000000000018 23.500000000000004 17.500000000000004 1.5000000000000002 18.500000000000004 18.500000000000004 -0.78656609248549325 10.500000000000002 11.500000000000002 23.500000000000004
decision_type=2 2 2 2 2 2 2 2 2 2 2 2 2 2 2 2 2 2 2
left_child=13 2 8 4 6 10 7 -3 -2 -5 11 -6 -4 -1 15 -13 -17 -18 -19
right_child=1 3 12 9 5 -7 -8 -9 -10 -11 -12 14 -14 -15 -16 16 17 18 -20
leaf_value=0.076354236217892335 -0.0070354751531596683 0.10485509404582682 -0.016043446960766396 0.004711982727396747 0.050631280282950879 -0.0071645192895730715 -0.0057124442927529041 0.017334332282812295 0.060181683243561747 0.10135883725662882 0.070417337147487019 0.060065684770924069 -0.038068692819753724 0.024078074153021281 -0.021678624750372834 -0.026699871238360706 -0.017982035209115756 0.052512020333993825 -0.014677571009926975
leaf_weight=25.684678554534916 76.460219636559486 8.3266812413930946 39.825524777173996 4.530195087194441 10.423405736684797 104.14649507403374 10.089084193110464 10.371553704142569 5.651559814810752 5.5346294939517975 5.6310628354549399 7.3716688305139462 95.469664633274078 6.0346649140119544 12.553347066044806 9.9384480416774803 7.5988959968090084 13.765364766120912 6.1051459014415732
leaf_count=133 306 49 158 18 49 400 39 44 29 32 30 37 355 25 44 33 27 67 22
internal_value=-0.000444984 -0.00533338 -0.0205658 0.00997096 0.00763492 0.00326698 0.0345724 0.056309 -0.00240908 0.0578579 0.0180707 0.0137203 -0.0315853 0.0664086 0.00700967 0.0150521 0.00618158 0.0180781 0.0318683
internal_weight=465.512 433.793 217.407 216.386 206.321 177.534 28.7873 18.6982 82.1118 10.0648 73.3873 67.7563 135.295 31.7193 57.3329 44.7795 37.4079 27.4694 19.8705
internal_count=1897 1739 848 891 841 709 132 93 335 50 309 279 513 158 230 186 149 116 89
is_linear=0
shrinkage=0.05


Tree=29
num_leaves=20
num_cat=0
split_feature=45 141 70 108 62 100 142 123 127 94 110 32 96 21 98 61 81 117 49
split_gain=26.8126 11.5416 8.53059 9.20313 8.47909 9.48583 10.085 8.97407 7.90678 8.60812 7.87129 7.32966 7.03136 9.00159 8.23236 6.74258 10.4908 8.66052 9.03664
threshold=2.5000000000000004 5.5000000000000009 1.0000000180025095e-35 22.500000000000004 1.0000000180025095e-35 27.500000000000004 12.500000000000002 34.500000000000007 33.500000000000007 50.500000000000007 13.500000000000002 14.500000000000002 41.500000000000007 5.5000000000000009 37.500000000000007 1.5000000000000002 51.500000000000007 23.500000000000004 1.5000000000000002
decision_type=2 2 2 2 2 2 2 2 2 2 2 2 2 2 2 2 2 2 2
left_child=1 -1 4 8 10 6 -6 -7 9 15 -3 -12 13 14 -2 17 -17 -4 -19
right_child=12 2 3 -5 5 7 -8 -9 -10 -11 11 -13 -14 -15 -16 16 -18 18 -20
leaf_value=-0.037807333947606173 -0.024463791852628647 -0.015351171341515668 -0.0060344436317985722 -0.021974555061831616 0.05441560837299976 0.044388655300916693 -0.023647092759474627 -0.0138488070238207 -0.017768638856683325 0.070868507740349626 -0.027153955914221536 0.037868883487160165 -0.034405743845364052 -0.03584999122989288 0.055525846270830882 0.013259675431310068 0.078512352963658549 0.0051109798896153196 0.077230854100292762
leaf_weight=15.127744972705839 5.2576490789651897 30.5869020819664 87.887969195842743 36.967335008084774 5.708452224731448 52.52244196087122 15.033301696181296 7.5680746063590041 31.166849121451378 5.5620201379060736 5.6451760828495052 18.66033673286438 63.560200020670891 11.381153821945189 8.285814091563223 40.871053546667099 7.2526117861270896 11.917966753244402 6.834170550107955
leaf_count=117 21 148 367 151 23 191 65 29 109 17 24 71 234 45 28 164 25 44 24
internal_value=-0.000795289 0.00498629 0.00676388 0.000865629 0.0166922 0.0269908 -0.00216303 0.037054 0.00527489 0.00975448 0.00152685 0.0227667 -0.0255795 -0.00307164 0.0244734 0.00755812 0.0230938 0.000547321 0.0313949
internal_weight=467.797 379.312 364.185 228.46 135.725 80.8323 20.7418 60.0905 191.493 160.326 54.8924 24.3055 88.4848 24.9246 13.5435 154.764 48.1237 106.64 18.7521
internal_count=1897 1569 1452 901 551 308 88 220 750 641 243 95 328 94 49 624 189 435 68
is_linear=0
shrinkage=0.05


Tree=30
num_leaves=20
num_cat=0
split_feature=122 34 30 10 129 70 98 145 110 121 150 88 104 126 9 52 122 147 101
split_gain=19.3238 13.8533 11.7994 13.5787 7.92193 8.58581 8.73099 7.26294 6.86612 12.7912 8.15503 7.40198 7.82584 6.81872 7.62203 6.75717 6.67093 6.82923 7.84925
threshold=15.500000000000002 1.0000000180025095e-35 2.5000000000000004 4.5000000000000009 18.500000000000004 1.0000000180025095e-35 32.500000000000007 14.500000000000002 22.500000000000004 23.500000000000004 17.500000000000004 12.500000000000002 21.500000000000004 19.500000000000004 34.500000000000007 1.0000000180025095e-35 32.500000000000007 18.500000000000004 21.500000000000004
decision_type=2 2 2 2 2 2 2 2 2 2 2 2 2 2 2 2 2 2 2
left_child=-1 13 3 4 -3 6 -6 -7 9 10 -5 -10 -13 -2 15 16 17 -15 -19
right_child=1 2 -4 8 5 7 -8 -9 11 -11 -12 12 -14 14 -16 -17 -18 18 -20
leaf_value=-0.046244046028713619 -0.034105943758322731 0.077412000599782926 -0.0088625396288888169 0.0048999684844427734 0.039892514960070152 -0.014732220974266273 -0.027235831001472827 0.03837312227585804 -0.020446810246896457 -0.014876716042174663 0.082116219325650219 0.066561688501147576 -0.0055684885982239564 -0.0094623707599390781 -0.028386939773254211 0.045353896974027454 -0.025390824610858016 0.0092107527362777011 0.071871151360414887
leaf_weight=21.24143523722887 21.634691186249256 7.7695941776037207 62.576239690184593 7.8954426720738393 7.5446747764945057 7.1499574035406104 13.531249076128004 64.692168325185776 6.2194588035345104 59.658515155315399 6.0315550118684769 11.617109283804895 5.560264751315116 54.128327943384647 27.498784922063351 7.8861203566193572 25.306591093540192 48.895293101668358 5.5668492615222922
leaf_count=160 111 27 212 32 29 31 55 229 28 226 20 41 24 240 98 27 98 191 18
internal_value=0.000361171 0.00255542 0.0100597 0.0160499 0.0289113 0.0248557 -0.00320549 0.0330879 0.00269716 -0.00480457 0.0383411 0.0262909 0.0432134 -0.00767398 -0.00429591 0.00037654 -0.00227249 0.00311515 0.0156156
internal_weight=472.404 451.163 260.246 197.67 100.688 92.918 21.0759 71.8421 96.9823 73.5855 13.927 23.3968 17.1774 190.917 169.282 141.783 133.897 108.59 54.4621
internal_count=1897 1737 954 742 371 344 84 260 371 278 52 93 65 783 672 574 547 449 209
is_linear=0
shrinkage=0.05


Tree=31
num_leaves=20
num_cat=0
split_feature=30 129 78 93 92 103 32 141 96 95 149 154 150 6 107 124 120 128 154
split_gain=133.58 33.6907 28.2838 25.6974 18.8306 9.90522 9.856 8.55916 7.47268 6.87723 11.7123 6.05039 5.97924 5.5064 5.10856 4.88525 7.4377 5.64904 4.87247
threshold=2.5000000000000004 33.500000000000007 12.500000000000002 43.500000000000007 49.500000000000007 19.500000000000004 11.500000000000002 22.500000000000004 40.500000000000007 39.500000000000007 17.500000000000004 6.5000000000000009 6.5000000000000009 18.494178963043186 23.500000000000004 35.500000000000007 28.500000000000004 33.500000000000007 4.5000000000000009
decision_type=2 2 2 2 2 2 2 2 2 2 2 2 2 2 2 2 2 2 2
left_child=1 4 9 8 5 -1 -6 12 -3 10 -2 -10 -7 -4 15 -11 17 -17 -5
right_child=2 3 13 18 6 7 -8 -9 11 14 -12 -13 -14 -15 -16 16 -18 -19 -20
leaf_value=-0.031808077179394705 0.060429557166083149 -0.033862173478264104 0.01942881585270961 0.092482104217030459 0.077580729318818042 0.040004721662855236 -0.003483986813536873 0.049050369344798311 -0.0082443770922809839 0.063980428159059508 -0.020228582651289642 0.052079004101971138 -0.019187998616968391 -0.040926031052594306 0.080303838022689894 0.04671852129034712 0.06750188746392792 -0.0096083914391885093 0.043829125529001076
leaf_weight=192.02836446464062 10.442479074001314 15.487249612808226 6.1570345908403388 7.753237888216975 6.5428675115108481 4.5843435749411574 8.7825665771961194 5.647336207330226 11.537641637027265 40.413841411471367 7.9100424721837035 6.497687615454196 61.491948001086712 9.7846977561712247 21.843949735164642 8.3881258070468956 12.173435300588606 9.4841077923774701 15.302871756255625
leaf_count=982 28 70 24 20 17 19 32 22 44 98 24 19 282 48 52 20 28 23 45
internal_value=0.000883845 -0.015623 0.0446496 0.0195584 -0.0227555 -0.0258863 0.0311249 -0.0100317 -0.00838717 0.0536198 0.0256654 0.0134887 -0.0150812 -0.0176157 0.059178 0.0526285 0.0373593 0.016828 0.06019
internal_weight=462.254 335.656 126.598 56.5787 279.077 263.752 15.3254 71.7236 33.5226 110.656 18.3525 18.0353 66.0763 15.9417 92.3035 70.4595 30.0457 17.8722 23.0561
internal_count=1897 1552 345 198 1354 1305 49 323 133 273 52 63 301 72 221 169 71 43 65
is_linear=0
shrinkage=0.05


Tree=32
num_leaves=20
num_cat=0
split_feature=121 71 0 92 130 97 1 113 109 108 107 45 128 63 155 25 124 123 82
split_gain=54.013 34.6277 15.3361 11.1103 6.01497 7.02328 6.05794 7.71683 5.70144 5.86086 5.5352 5.47289 7.65419 5.14652 6.99112 7.81179 6.46398 5.61164 4.83025
threshold=18.500000000000004 12.500000000000002 36.500000000000007 30.500000000000004 24.500000000000004 42.500000000000007 9.5000000000000018 20.500000000000004 11.500000000000002 11.500000000000002 12.500000000000002 2.5000000000000004 31.500000000000004 1.0000000180025095e-35 4.5000000000000009 4.5000000000000009 28.500000000000004 23.500000000000004 9.5000000000000018
decision_type=2 2 2 2 2 2 2 2 2 2 2 2 2 2 2 2 2 2 2
left_child=3 2 -2 8 5 13 7 10 -1 -10 -6 -8 -13 17 16 -16 -15 -3 -19
right_child=1 4 -4 -5 6 -7 11 -9 9 -11 -12 12 -14 14 15 -17 -18 18 -20
leaf_value=0.072826299946193065 -3.7805632071722261e-05 0.017522470396476791 -0.034346855375276313 -0.0051290988594794983 0.024630915074705877 -0.016354565025650841 -0.0078130845382347498 -0.0029484150736601568 -0.0064640774020999301 0.058853207027373858 0.087296011846695928 0.06410115082982186 -0.019254845490041174 -0.01678208325150005 -0.0011779893826178245 0.077317772548785704 0.045103114357131394 0.026301824493776473 0.088639669704266566
leaf_weight=27.029854491353035 45.54107753932476 12.947882562875749 114.37170860916376 7.9929397851228705 12.73198774456978 13.229368507862089 126.71396151185036 20.918478116393089 5.5396994501352301 9.0366665571928007 4.8724613934755316 6.4592490345239622 4.8009960949420929 19.627664208412174 5.7682105302810651 7.0354194194078445 5.3750918209552756 5.1353888958692533 7.8691274225711823
leaf_count=140 188 53 445 31 56 48 486 82 20 44 27 34 18 71 23 38 26 23 44
internal_value=-0.000441373 -0.00635675 -0.0245761 0.048862 0.00513702 0.0167989 5.0123e-05 0.017581 0.0592342 0.0340296 0.041975 -0.00484456 0.0285609 0.0236779 0.0119083 0.0419544 -0.00347801 0.0408234 0.0640229
internal_weight=462.997 413.398 159.913 49.5992 253.485 76.9882 176.497 38.5229 41.6062 14.5764 17.6044 137.974 11.2602 63.7588 37.8064 12.8036 25.0028 25.9524 13.0045
internal_count=1897 1662 633 235 1029 326 703 165 204 64 83 538 52 278 158 61 97 120 67
is_linear=0
shrinkage=0.05


Tree=33
num_leaves=20
num_cat=0
split_feature=45 123 70 62 42 121 127 151 94 98 97 119 98 64 155 159 110 32 160
split_gain=24.6568 10.2877 7.87246 8.528 10.1313 10.5581 8.05645 7.74195 7.27503 7.35797 10.6009 7.29234 10.3794 9.77654 8.71712 14.2297 6.86618 7.3711 6.86338
threshold=2.5000000000000004 12.500000000000002 1.0000000180025095e-35 1.0000000180025095e-35 1.0000000180025095e-35 29.500000000000004 33.500000000000007 7.5000000000000009 50.500000000000007 21.500000000000004 25.500000000000004 25.500000000000004 35.500000000000007 1.5000000000000002 1.5000000000000002 5.5000000000000009 13.500000000000002 14.500000000000002 2.5000000000000004
decision_type=2 2 2 2 2 2 2 2 2 2 2 2 2 2 2 2 2 2 2
left_child=1 -1 3 16 5 -5 8 -6 9 -4 -11 14 -13 -14 15 18 -3 -18 -12
right_child=-2 2 6 4 7 -7 -8 -9 -10 10 11 12 13 -15 -16 -17 17 -19 -20
leaf_value=-0.036480995930787179 -0.0247985946007609 -0.015950213249880926 0.045621688419448699 0.067798832720503369 0.0046593309457921865 -0.006704513102286834 -0.020015040274992041 0.05272436378764328 0.058444527188308129 -0.037693178269073951 0.00044341836546326306 0.078204443731215115 -0.031980742488488215 0.054791902299930285 -0.006002277263563352 -0.039521863815929342 -0.02837082081160034 0.034897423122792155 0.061173501026234672
leaf_weight=14.530886083841322 86.532118372619152 29.16531490534544 9.6824101582169515 21.111544027924541 44.480611152946949 6.1377422958612433 38.792571514844894 10.321949467062948 6.158682942390441 16.189977951347828 6.5408448278904023 7.746576979756358 7.547071695327757 5.6959963738918304 107.59804472327232 6.6550588309764853 6.0613742098212269 19.142226479947567 16.113274790346622
leaf_count=127 328 137 41 71 175 24 139 36 19 75 28 23 29 20 445 29 26 72 53
internal_value=-0.000712521 0.004777 0.00641887 0.0159251 0.0261012 0.0510174 0.000748883 0.0137123 0.00498989 0.00319846 0.000838953 0.00478985 0.0322326 0.00534117 0.000582527 0.0247563 0.000567516 0.0196816 0.0436391
internal_weight=466.204 379.672 365.141 136.421 82.0518 27.2493 228.721 54.8026 189.928 183.769 174.087 157.897 20.9896 13.2431 136.907 29.3092 54.3689 25.2036 22.6541
internal_count=1897 1569 1442 541 306 95 901 211 762 743 702 627 72 49 555 110 235 98 81
is_linear=0
shrinkage=0.05


Tree=34
num_leaves=20
num_cat=0
split_feature=142 34 49 20 108 117 98 160 98 98 7 19 1 102 158 5 143 142 30
split_gain=17.476 12.5904 12.4895 10.9793 8.29285 8.42366 7.92977 7.57219 7.41782 6.14561 5.99812 10.1158 8.83124 7.82838 5.8818 7.60289 7.51444 7.3069 6.58673
threshold=8.5000000000000018 1.0000000180025095e-35 1.5000000000000002 5.5000000000000009 21.500000000000004 10.500000000000002 23.500000000000004 1.5000000000000002 30.500000000000004 45.500000000000007 2.9574034213209477 31.500000000000004 7.5000000000000009 11.500000000000002 7.5000000000000009 10.982434514637907 15.500000000000002 28.500000000000004 1.5000000000000002
decision_type=2 2 2 2 2 2 2 2 2 2 2 2 2 2 2 2 2 2 2
left_child=-1 6 3 4 5 -3 -2 -7 -5 14 11 12 -9 -12 15 16 -8 -18 -17
right_child=1 2 -4 8 -6 7 9 10 -10 -11 13 -13 -14 -15 -16 18 17 -19 -20
leaf_value=-0.033315844713326957 -0.038194999404238289 -0.021147822699796464 -0.0014509299471532492 0.042771058008816108 0.074356804609097424 0.060347365125092804 -0.0057473777555717177 0.045365598613424096 -0.0084992643052829633 -0.022626565384015911 0.003464531160832163 0.065708224642283639 -0.026343768403895719 0.062373563113846377 -0.022006382820380147 -0.044596013354773062 0.033095255101809745 -0.013742949126780419 0.014343090220728015
leaf_weight=35.546319827437401 18.213700652122498 8.5517961755394918 119.18117801845074 8.6769004091620427 9.8543107956647855 17.093665733933449 34.259439185261726 5.7303818762302461 37.737233847379684 33.182720810174942 8.989460229873659 5.7740356624126425 17.122561737895012 15.134024247527121 22.141103595495224 12.159089982509615 43.767763786017895 10.283005803823469 7.7690707743167868
leaf_count=215 101 39 416 32 32 58 151 23 152 121 36 19 72 51 84 58 172 37 28
internal_value=0.000394303 0.00314502 0.0103382 0.0207718 0.0311256 0.0256914 -0.00690003 0.0314265 0.00108548 -0.00341513 0.0220548 0.0065774 -0.00836262 0.0404215 0.00147435 0.00627753 0.0125726 0.0241844 -0.0216184
internal_weight=471.168 435.621 253.846 134.664 88.2502 78.3959 181.776 69.8441 46.4141 163.562 52.7505 28.627 22.8529 24.1235 130.379 108.238 88.3102 54.0508 19.9282
internal_count=1897 1682 930 514 330 298 752 259 184 651 201 114 95 87 530 446 360 209 86
is_linear=0
shrinkage=0.05


Tree=35
num_leaves=20
num_cat=0
split_feature=30 129 78 93 92 45 155 0 120 158 147 96 99 107 146 127 6 25 4
split_gain=120.102 30.9971 25.1561 22.8385 17.3208 8.87811 8.41378 7.11824 11.1535 8.9874 7.47957 6.9111 6.53741 6.72781 7.65932 5.78234 5.2042 5.04613 5.6922
threshold=2.5000000000000004 33.500000000000007 12.500000000000002 43.500000000000007 49.500000000000007 2.5000000000000004 12.500000000000002 25.500000000000004 6.5000000000000009 1.5000000000000002 11.500000000000002 40.500000000000007 34.500000000000007 19.500000000000004 33.500000000000007 30.500000000000004 18.494178963043186 6.5000000000000009 8.4498746867167949
decision_type=2 2 2 2 2 2 2 2 2 2 2 2 2 2 2 2 2 2 2
left_child=1 4 12 11 6 -6 7 -1 9 -9 -11 -3 -2 14 17 -13 -4 -14 -19
right_child=2 3 16 -5 5 -7 -8 8 -10 10 -12 15 13 -15 -16 -17 -18 18 -20
leaf_value=-0.044508894550973593 0.013486577921761009 -0.03316040925908792 0.018381106751406112 0.056167486103173375 -0.0045222538106100578 0.071756229009103639 0.029708421239721297 0.05299371734675682 -0.026701611116975516 0.026178661278065059 -0.04777208091446733 -0.026573462859550059 0.0175948463255351 0.068816069332479232 0.074586566279552624 0.03294268236087896 -0.040347105612941907 0.082038984927501973 0.025684349354921102
leaf_weight=45.71445456892252 10.928091764450071 15.118596151471136 6.2301891893148413 23.537700146436691 8.6000273749232274 6.8555414229631415 6.799015372991561 8.0689260587096232 184.35366212576628 6.3758677616715413 7.3735430911183357 6.1986277177929905 24.741459310054779 44.260948523879051 14.239049971103666 11.946346387267111 9.5615895241498929 8.5216422975063342 9.4497010707855207
leaf_count=301 33 70 24 65 32 17 26 29 889 27 33 27 63 103 32 36 48 19 23
internal_value=0.000764374 -0.0151398 0.0419061 0.0184774 -0.0221052 0.0293122 -0.0251772 -0.0266587 -0.0227008 0.0111037 -0.0134797 -0.00819254 0.0502263 0.0541932 0.0428288 0.012611 -0.0171776 0.0322418 0.0524066
internal_weight=458.875 330.942 127.933 56.8013 274.141 15.4556 258.685 251.886 206.172 21.8183 13.7494 33.2636 112.141 101.213 56.9519 18.145 15.7918 42.7128 17.9713
internal_count=1897 1552 345 198 1354 49 1305 1279 978 89 60 133 273 240 137 63 72 105 42
is_linear=0
shrinkage=0.05


Tree=36
num_leaves=20
num_cat=0
split_feature=121 71 0 92 102 127 63 130 9 11 102 96 4 8 160 42 158 3 109
split_gain=48.1547 31.8176 14.6302 9.86733 7.21915 7.02548 8.22305 6.06716 8.01916 10.7554 8.45673 6.54219 5.61416 6.31943 6.2447 7.76515 6.7014 5.436 5.16333
threshold=18.500000000000004 12.500000000000002 36.500000000000007 30.500000000000004 28.500000000000004 30.500000000000004 2.5000000000000004 24.500000000000004 26.500000000000004 1.0000000180025095e-35 9.5000000000000018 23.500000000000004 5.4786879786879794 0.099180327868852461 6.5000000000000009 1.0000000180025095e-35 4.5000000000000009 58.68384879725086 11.500000000000002
decision_type=2 2 2 2 2 2 2 2 2 2 2 2 2 2 2 2 2 2 2
left_child=3 2 -2 18 5 6 7 8 9 -3 -10 -9 13 -13 -14 -16 -17 -18 -1
right_child=1 4 -4 -5 -6 -7 -8 11 10 -11 -12 12 14 -15 15 16 17 -19 -20
leaf_value=0.068581380382688184 7.658123690847487e-05 0.044886370334160333 -0.033602802085823738 -0.0050309948287611712 0.063538799941974963 -0.010445428279959933 0.059274471228048436 0.055981028462984042 -0.013217022011276071 -0.012332063347947547 0.065006022302403862 0.058909359582208977 -0.014067762652794365 -0.017262842537082421 -0.0099724158237360153 0.0032278364443099738 0.11253315076495776 0.026161336884353549 0.031837348052637028
leaf_weight=27.155474901199341 45.448070257902145 12.233792275190352 110.99491181224585 7.9756604284048072 5.132826328277587 65.349991768598557 7.6840632706880561 5.0120837390422812 4.5358596891164806 24.987747505307198 14.502516001462935 7.3069129735231382 72.589461043477058 4.3401959240436554 16.69614635407925 6.3591697812080366 4.0134216547012329 3.3358268737792969 14.756178766489027
leaf_count=140 188 57 445 31 26 250 39 25 17 91 74 36 269 16 63 26 25 15 64
internal_value=-0.000442179 -0.00607911 -0.0238186 0.0459442 0.00484353 0.00363334 0.00864457 0.00643301 0.0199748 0.00647421 0.0463695 6.57722e-05 -0.00237883 0.0305244 -0.00609971 0.0129237 0.0408099 0.0733289 0.0556446
internal_weight=460.41 410.523 156.443 49.8873 254.08 248.947 183.597 175.913 56.2599 37.2215 19.0384 119.653 114.641 11.6471 102.994 30.4046 13.7084 7.34925 41.9117
internal_count=1897 1662 633 235 1029 1003 753 714 239 148 91 475 450 52 398 129 66 40 204
is_linear=0
shrinkage=0.05


Tree=37
num_leaves=20
num_cat=0
split_feature=43 111 51 92 160 110 94 33 107 25 126 115 150 43 29 150 4 30 114
split_gain=23.0377 12.2777 8.50227 8.01544 7.8771 9.91971 13.2725 9.78514 9.68547 12.3998 11.3959 10.6869 10.13 9.40751 8.36366 8.31319 8.07732 6.84921 7.63671
threshold=2.5000000000000004 4.5000000000000009 2.5000000000000004 35.500000000000007 7.5000000000000009 14.500000000000002 29.500000000000004 52.500000000000007 19.500000000000004 7.5000000000000009 29.500000000000004 10.500000000000002 26.500000000000004 1.0000000180025095e-35 1.5000000000000002 18.500000000000004 12.564652371669917 1.0000000180025095e-35 17.500000000000004
decision_type=2 2 2 2 2 2 2 2 2 2 2 2 2 2 2 2 2 2 2
left_child=1 -1 4 -2 5 17 14 15 9 11 -10 -8 13 -13 -7 -6 -17 18 -3
right_child=3 2 -4 -5 7 6 8 -9 10 -11 -12 12 -14 -15 -16 16 -18 -19 -20
leaf_value=-0.033556565234729933 0.023189082681317436 -0.0032040101207419717 -0.047519795191479378 -0.028098579366261995 -0.03951053927432667 0.032712217575839149 0.083801528133715719 0.050510874934342753 -0.024568751117677763 -0.0037412218420641188 0.025890599157240565 0.042218307482850582 0.083623718763972149 -0.024986864921295378 0.087574224318136398 -0.010488469876867842 0.050115482672267377 -0.0089491873847455262 0.029897354850799536
leaf_weight=19.734404429793358 8.4003781080245954 35.015500225126743 7.0186613202095023 81.79532065987587 20.590205013751984 25.171261504292488 11.271328598260878 6.5682700872421256 28.481189280748367 22.692198842763901 18.429875165224075 10.658031851053243 5.8944926261901847 10.181879177689551 9.5950281471014005 32.656025163829327 6.6110501587390891 69.066697761416435 34.683146633207798
leaf_count=139 33 164 25 317 94 99 35 23 121 88 66 37 18 40 30 125 22 283 138
internal_value=-0.000637991 0.00482791 0.00696419 -0.0233219 0.00806443 0.0117232 0.0209954 -0.00742119 0.0123181 0.0255055 -0.00474487 0.0429679 0.0257522 0.00938348 0.0478534 -0.0137782 -0.000285118 0.00220987 0.0132678
internal_weight=464.515 374.319 354.585 90.1957 347.566 281.141 142.375 66.4256 107.609 60.6979 46.9111 38.0057 26.7344 20.8399 34.7663 59.8573 39.2671 138.765 69.6986
internal_count=1897 1547 1408 350 1383 1119 534 264 405 218 187 130 95 77 129 241 147 585 302
is_linear=0
shrinkage=0.05


Tree=38
num_leaves=20
num_cat=0
split_feature=142 34 104 91 23 10 10 10 111 87 115 141 98 160 112 84 130 153 13
split_gain=16.1771 11.5784 10.4054 10.7196 11.8567 10.5148 8.98818 9.33349 8.44543 9.98782 8.00458 8.44336 7.4823 7.08811 8.45423 6.8293 10.5445 6.40575 5.94508
threshold=8.5000000000000018 1.0000000180025095e-35 22.500000000000004 38.500000000000007 1.5000000000000002 1.0000000180025095e-35 12.500000000000002 4.5000000000000009 7.5000000000000009 45.500000000000007 13.500000000000002 18.500000000000004 23.500000000000004 6.5000000000000009 26.500000000000004 12.500000000000002 28.500000000000004 5.5000000000000009 1.0000000180025095e-35
decision_type=2 2 2 2 2 2 2 2 2 2 2 2 2 2 2 2 2 2 2
left_child=-1 12 3 5 -5 -3 7 13 -7 10 -10 -12 -2 17 -15 16 -4 -6 -14
right_child=1 2 15 4 6 8 -8 -9 9 -11 11 -13 18 14 -16 -17 -18 -19 -20
leaf_value=-0.032494414123201386 -0.037452845306280562 -0.02442375498560477 -0.029612293986361022 0.051156619723444235 0.022331332355465267 0.086820483619788225 0.049954456876870036 -0.022032942196664677 -0.016946107119828305 0.058776380951279128 0.055052022009821504 0.013343120938985232 0.0032818712619414958 0.063490032787954356 -0.0098941038445394605 -0.022396157489702945 0.059670341089712843 -0.037158391064655259 -0.017184905864418547
leaf_weight=34.553463160991669 17.752986028790474 9.3928226456046087 6.0036212354898435 11.445447802543638 8.445750370621683 6.3312662020325652 7.3868651390075675 47.520230889320374 13.135841459035872 19.402485445141792 17.656439051032066 38.79325795173645 110.8242067694664 10.326649054884912 6.3308087587356559 35.304387994110584 7.3625079095363617 9.7477337419986707 52.190385274589062
leaf_count=215 101 39 24 40 32 21 25 170 59 61 57 145 448 35 20 139 25 38 203
internal_value=0.000435448 0.00304905 0.00991999 0.0148344 0.00323016 0.0260498 -0.00288116 -0.00761934 0.0310235 0.0270537 0.0182084 0.0263889 -0.00662771 0.012034 0.0355998 -0.0108719 0.0195675 -0.00954217 -0.00327073
internal_weight=469.907 435.354 254.586 205.916 101.203 104.712 89.758 82.3712 95.3193 88.988 69.5855 56.4497 180.768 34.8509 16.6575 48.6705 13.3661 18.1935 163.015
internal_count=1897 1682 930 742 360 382 320 295 343 322 261 202 752 125 55 188 49 70 651
is_linear=0
shrinkage=0.05


Tree=39
num_leaves=20
num_cat=0
split_feature=41 127 49 74 108 121 80 144 116 155 122 135 146 44 128 148 0 128 93
split_gain=99.7533 31.1585 22.9897 18.7977 15.93 11.1241 8.88486 8.68323 8.39471 9.59891 9.30903 8.16171 7.6258 8.75972 7.34512 5.94536 5.93056 8.51167 5.86855
threshold=2.5000000000000004 32.500000000000007 1.5000000000000002 12.500000000000002 22.500000000000004 32.500000000000007 11.500000000000002 23.500000000000004 23.500000000000004 4.5000000000000009 27.500000000000004 1.5000000000000002 14.500000000000002 1.5000000000000002 24.500000000000004 21.500000000000004 44.500000000000007 31.500000000000004 40.500000000000007
decision_type=2 2 2 2 2 2 2 2 2 2 2 2 2 2 2 2 2 2 2
left_child=1 4 15 16 8 7 -6 -4 -1 -10 -11 -12 -8 14 -14 -3 17 -2 -5
right_child=3 2 5 18 6 -7 12 -9 9 10 11 -13 13 -15 -16 -17 -18 -19 -20
leaf_value=-0.032839108728864856 0.0025647997920929828 0.0026634686367115598 0.039293851523589267 -0.039523110382754981 0.049135838941734074 0.067035034070448515 -0.030746904427069472 -0.026735444753680216 -0.034810920437033828 -0.02396826503669133 0.08324755833752974 0.0028780737883192195 0.02933665749699926 0.064603979827430671 -0.047879617456125373 -0.042344270601952616 0.053703941721395934 0.047569293652112134 0.021785027854551053
leaf_weight=171.23196924477816 17.008911430835724 15.73379520326853 13.370189368724825 9.1255537122488004 9.0384818464517576 19.406000867486 16.845641434192657 7.9335114210844031 17.320631086826324 8.9058232232928294 6.2731995210051519 6.3631285727024078 6.281535819172861 6.1335531920194617 6.0422798097133636 13.749456629157065 70.09343671053648 27.480285316705704 6.820829600095748
leaf_count=931 51 67 44 44 24 51 85 29 81 44 23 26 27 22 29 61 167 65 26
internal_value=0.000648828 -0.0141939 0.0152984 0.037563 -0.0223301 0.0396501 0.00490266 0.0147045 -0.0280777 -0.00709836 0.0151835 0.0427768 -0.00642218 0.0157785 -0.00852194 -0.0183258 0.0446415 0.0303634 -0.0132995
internal_weight=455.158 324.629 70.193 130.529 254.436 40.7097 44.3415 21.3037 210.095 38.8628 21.5422 12.6363 35.303 18.4574 12.3238 29.4833 114.583 44.4892 15.9464
internal_count=1897 1544 252 353 1292 124 187 73 1105 174 93 49 163 78 56 128 283 116 70
is_linear=0
shrinkage=0.05


Tree=40
num_leaves=20
num_cat=0
split_feature=47 121 76 143 62 4 108 4 155 95 9 45 44 7 120 87 92 72 65
split_gain=38.6492 29.2827 17.056 11.8402 8.21691 8.18966 7.3508 6.88812 9.83013 6.82101 6.58715 5.82965 4.98016 4.7959 4.70026 4.6754 5.6117 4.23511 4.12027
threshold=2.5000000000000004 15.500000000000002 11.500000000000002 21.500000000000004 1.0000000180025095e-35 5.7533275713051006 10.500000000000002 16.992957746478876 9.5000000000000018 40.500000000000007 23.500000000000004 1.0000000180025095e-35 2.5000000000000004 5.5485893416927912 16.500000000000004 16.500000000000004 32.500000000000007 15.500000000000002 1.5000000000000002
decision_type=2 2 2 2 2 2 2 2 2 2 2 2 2 2 2 2 2 2 2
left_child=1 4 11 5 -1 6 -4 8 9 12 -11 15 -7 -5 -9 -3 -17 -2 -10
right_child=17 2 3 13 -6 7 -8 14 18 10 -12 -13 -14 -15 -16 16 -18 -19 -20
leaf_value=0.06581865503141214 -0.03560200837172111 -0.030467711267349862 0.018792466451609473 -0.0097768726874257125 0.0035235369444111229 0.0093298551938720449 0.090064542863046368 0.066365409803254991 0.074590761509685938 0.031771112540086625 -0.020467323687721799 -0.036234202651525049 0.06141494257553453 0.035546857283620344 0.0069743122768986324 0.053689361512969463 -0.012136939627670332 0.0046772012856111309 0.016341321987087175
leaf_weight=24.760564863681797 72.530472055077553 9.3660954907536524 8.1962905675172788 93.150074318051338 6.7328631430864325 99.527194254100323 6.4762482196092597 9.0753250569105131 7.4461266845464689 7.2336696535348883 36.409464463591576 33.662510573863983 4.811260610818862 6.2267326116561881 5.2634159699082366 5.6058469265699369 7.6642107889056206 7.1711611449718466 5.1256290823221207
leaf_count=128 293 32 34 360 26 407 36 46 40 33 133 132 25 29 21 28 30 29 22
internal_value=-0.000345341 0.00634683 0.00213658 0.00704218 0.0525008 0.0143706 0.0502509 0.0113604 0.00839501 0.00478894 -0.011809 -0.0230404 0.0117316 -0.00693699 0.0445643 -0.00341972 0.0156709 -0.0319779 0.0508419
internal_weight=456.435 376.734 345.24 288.941 31.4934 189.565 14.6725 174.892 160.553 147.982 43.6431 56.2987 104.338 99.3768 14.3387 22.6362 13.2701 79.7016 12.5718
internal_count=1884 1562 1408 1186 154 797 70 727 660 598 166 222 432 389 67 90 58 322 62
is_linear=0
shrinkage=0.05


Tree=41
num_leaves=20
num_cat=0
split_feature=49 8 123 121 4 108 122 101 121 97 125 120 81 123 121 103 102 93 107
split_gain=25.8269 11.513 12.2548 14.2637 9.93293 9.98321 10.596 8.76847 8.2824 11.9961 8.17287 14.0455 8.47243 8.08983 8.94726 8.63798 8.18854 8.55857 7.79187
threshold=2.5000000000000004 0.013423423423423403 28.500000000000004 30.500000000000004 9.2743807586454476 21.500000000000004 32.500000000000007 8.5000000000000018 28.500000000000004 34.500000000000007 19.500000000000004 13.500000000000002 48.500000000000007 26.500000000000004 23.500000000000004 21.500000000000004 10.500000000000002 41.500000000000007 14.500000000000002
decision_type=2 2 2 2 2 2 2 2 2 2 2 2 2 2 2 2 2 2 2
left_child=1 7 10 8 -2 6 -6 -1 9 -4 11 -3 -12 14 -9 -16 17 -15 -5
right_child=4 2 3 18 5 -7 -8 13 -10 -11 12 -13 -14 16 15 -17 -18 -19 -20
leaf_value=-0.023416781498431481 -0.038241253152784115 -0.0019899252953777479 0.067148373974840442 -0.029412535684673526 -0.012555174391118563 -0.036879588562956409 0.056872868758150653 -0.0058637529625288507 0.097789696063260059 0.0016731956069695104 -0.0078620315969884832 0.077005176432273226 0.038331872757506893 -0.020275808469659432 0.044231194842447502 0.001387756136000653 -0.010066637669889883 0.049654856819367418 0.040746257064625251
leaf_weight=32.641552992165089 47.02374704927206 12.386252693831922 18.00323382019997 9.9250011742115039 12.838568955659868 13.798213690519331 9.6084256544709188 28.166529327630997 8.4786482006311399 11.441525354981421 61.673982836306095 10.311378628015516 11.830088168382643 6.6676561459898975 33.471482813358307 18.141146413981915 94.155813001096249 12.726028740406035 6.5819352418184272
leaf_count=191 183 65 60 39 55 56 34 131 25 41 254 33 46 30 123 73 379 43 23
internal_value=0.00211921 0.00769092 0.0183984 0.0373583 -0.02308 -0.00341022 0.0171635 0.000553268 0.054245 0.0417063 0.00767105 0.033897 -0.000427369 0.00460036 0.0168026 0.0291723 -0.00397285 0.0256123 -0.00143759
internal_weight=459.871 376.602 150.632 54.4303 83.269 36.2452 22.447 225.97 37.9234 29.4448 96.2017 22.6976 73.5041 193.329 79.7792 51.6126 113.549 19.3937 16.5069
internal_count=1884 1556 586 188 328 145 89 970 126 101 398 98 300 779 327 196 452 73 62
is_linear=0
shrinkage=0.05


Tree=42
num_leaves=20
num_cat=0
split_feature=112 7 83 66 126 85 98 125 10 6 6 130 119 14 100 100 156 106 145
