tree
version=v4
num_class=4
num_tree_per_iteration=4
label_index=0
max_feature_idx=163
objective=multiclass num_class:4
feature_names=number_of_vehicles_entry number_of_vehicles_exit number_of_vehicles_roundabout avg_time_spent_entry avg_time_spent_exit avg_time_spent_from_roundabout avg_idle_time_entry avg_idle_time_exit avg_idle_time_from_roundabout idle_0_entry idle_1_entry idle_2_entry idle_3_entry idle_4_entry idle_0_exit idle_1_exit idle_2_exit idle_3_exit idle_4_exit time_spent_0_entry time_spent_1_entry time_spent_2_entry time_spent_3_entry time_spent_4_entry time_spent_0_exit time_spent_1_exit time_spent_2_exit time_spent_3_exit time_spent_4_exit signaling congestion_enter_rating congestion_exit_rating hour minute day_of_week hour_sin hour_cos is_rush_hour is_morning_rush is_evening_rush hour_bin congestion_enter_rating_t_m_1 congestion_enter_rating_t_m_2 congestion_enter_rating_t_m_3 congestion_enter_rating_t_m_4 congestion_enter_rating_t_m_5 congestion_enter_rating_t_m_6 congestion_enter_rating_t_m_7 congestion_enter_rating_t_m_8 congestion_enter_rating_t_m_9 congestion_enter_rating_t_m_10 congestion_exit_rating_t_m_1 congestion_exit_rating_t_m_2 congestion_exit_rating_t_m_3 congestion_exit_rating_t_m_4 congestion_exit_rating_t_m_5 congestion_exit_rating_t_m_6 congestion_exit_rating_t_m_7 congestion_exit_rating_t_m_8 congestion_exit_rating_t_m_9 congestion_exit_rating_t_m_10 signaling_t_m_1 signaling_t_m_2 signaling_t_m_3 signaling_t_m_4 signaling_t_m_5 signaling_t_m_6 signaling_t_m_7 signaling_t_m_8 signaling_t_m_9 signaling_t_m_10 hour_t_m_1 hour_t_m_2 hour_t_m_3 hour_t_m_4 hour_t_m_5 hour_t_m_6 hour_t_m_7 hour_t_m_8 hour_t_m_9 hour_t_m_10 minute_t_m_1 minute_t_m_2 minute_t_m_3 minute_t_m_4 minute_t_m_5 minute_t_m_6 minute_t_m_7 minute_t_m_8 minute_t_m_9 minute_t_m_10 number_of_vehicles_entry_t_m_1 number_of_vehicles_entry_t_m_2 number_of_vehicles_entry_t_m_3 number_of_vehicles_entry_t_m_4 number_of_vehicles_entry_t_m_5 number_of_vehicles_entry_t_m_6 number_of_vehicles_entry_t_m_7 number_of_vehicles_entry_t_m_8 number_of_vehicles_entry_t_m_9 number_of_vehicles_entry_t_m_10 number_of_vehicles_exit_t_m_1 number_of_vehicles_exit_t_m_2 number_of_vehicles_exit_t_m_3 number_of_vehicles_exit_t_m_4 number_of_vehicles_exit_t_m_5 number_of_vehicles_exit_t_m_6 number_of_vehicles_exit_t_m_7 number_of_vehicles_exit_t_m_8 number_of_vehicles_exit_t_m_9 number_of_vehicles_exit_t_m_10 number_of_vehicles_roundabout_t_m_1 number_of_vehicles_roundabout_t_m_2 number_of_vehicles_roundabout_t_m_3 number_of_vehicles_roundabout_t_m_4 number_of_vehicles_roundabout_t_m_5 number_of_vehicles_roundabout_t_m_6 number_of_vehicles_roundabout_t_m_7 number_of_vehicles_roundabout_t_m_8 number_of_vehicles_roundabout_t_m_9 number_of_vehicles_roundabout_t_m_10 idle_0_entry_t_m_1 idle_0_entry_t_m_2 idle_0_entry_t_m_3 idle_0_entry_t_m_4 idle_0_entry_t_m_5 idle_0_entry_t_m_6 idle_0_entry_t_m_7 idle_0_entry_t_m_8 idle_0_entry_t_m_9 idle_0_entry_t_m_10 idle_4_entry_t_m_1 idle_4_entry_t_m_2 idle_4_entry_t_m_3 idle_4_entry_t_m_4 idle_4_entry_t_m_5 idle_4_entry_t_m_6 idle_4_entry_t_m_7 idle_4_entry_t_m_8 idle_4_entry_t_m_9 idle_4_entry_t_m_10 time_spent_0_entry_t_m_1 time_spent_0_entry_t_m_2 time_spent_0_entry_t_m_3 time_spent_0_entry_t_m_4 time_spent_0_entry_t_m_5 time_spent_0_entry_t_m_6 time_spent_0_entry_t_m_7 time_spent_0_entry_t_m_8 time_spent_0_entry_t_m_9 time_spent_0_entry_t_m_10 time_spent_4_entry_t_m_1 time_spent_4_entry_t_m_2 time_spent_4_entry_t_m_3 time_spent_4_entry_t_m_4 time_spent_4_entry_t_m_5 time_spent_4_entry_t_m_6 time_spent_4_entry_t_m_7 time_spent_4_entry_t_m_8 time_spent_4_entry_t_m_9 time_spent_4_entry_t_m_10 camera_normanniles2 camera_normanniles3 camera_normanniles4
feature_infos=[0:58] [0:43] [0:41] [0:110] [0:109.16666666666669] [0:30] [0:42.035714285714285] [0:48.5] [0:2.9750000000000001] [0:53] [0:22] [0:12] [0:7] [0:7] [0:42] [0:11] [0:2] none none [0:42] [0:24] [0:22] [0:15] [0:18] [0:35] [0:31] [0:8] [0:6] [0:5] [0:3] [0:3] [0:3] [6:17] [0:59] [0:1] [-0.96592582628906831:1] [-1:6.123233995736766e-17] [0:1] [0:1] [0:1] [1:4] [0:3] [0:3] [0:3] [0:3] [0:3] [0:3] [0:3] [0:3] [0:3] [0:3] [0:3] [0:3] [0:3] [0:3] [0:3] [0:3] [0:3] [0:3] [0:3] [0:3] [0:3] [0:3] [0:3] [0:3] [0:3] [0:3] [0:3] [0:3] [0:3] [0:3] [6:17] [6:17] [6:17] [6:17] [6:17] [6:17] [6:17] [6:17] [6:17] [6:17] [0:59] [0:59] [0:59] [0:59] [0:59] [0:59] [0:59] [0:59] [0:59] [0:59] [0:58] [0:58] [0:58] [0:58] [0:58] [0:58] [0:58] [0:58] [0:58] [0:57] [0:43] [0:40] [0:43] [0:40] [0:43] [0:43] [0:43] [0:43] [0:40] [0:40] [0:40] [0:41] [0:41] [0:40] [0:41] [0:41] [0:41] [0:41] [0:41] [0:41] [0:53] [0:53] [0:53] [0:53] [0:53] [0:53] [0:53] [0:53] [0:53] [0:48] [0:9] [0:9] [0:9] [0:9] [0:9] [0:9] [0:9] [0:9] [0:9] [0:9] [0:42] [0:42] [0:42] [0:42] [0:42] [0:42] [0:42] [0:42] [0:42] [0:42] [0:18] [0:18] [0:18] [0:18] [0:18] [0:18] [0:18] [0:18] [0:18] [0:18] [0:1] [0:1] [0:1]
tree_sizes=2180 2176 2183 2168 2244 2247 2246 2230 2255 2238 2251 2229 2248 2239 2243 2248 2245 2252 2240 2239 2248 2248 2255 2241 2249 2245 2251 2234 2245 2248 2264 2228 2250 2249 2247 2237 2239 2247 2256 2241 2252 2247 2258 2229 2242 2245 2250 2241 2243 2242 2244 2226 2255 2254 2260 2242 2237 2256 2255 2246

Tree=0
num_leaves=20
num_cat=0
split_feature=91 75 42 36 99 127 130 97 144 84 61 63 30 93 121 11 6 97 82
split_gain=117.546 75.8473 18.2153 15.8879 14.5264 9.79057 11.2553 8.2429 8.14987 8.06249 7.73206 6.59215 7.26782 7.42008 7.47591 8.80197 6.63833 8.18729 6.8818
threshold=16.500000000000004 12.500000000000002 1.0000000180025095e-35 -0.70710678118654757 25.500000000000004 25.500000000000004 16.500000000000004 25.500000000000004 20.500000000000004 17.500000000000004 1.0000000180025095e-35 2.5000000000000004 1.0000000180025095e-35 44.500000000000007 30.500000000000004 3.5000000000000004 8.6458955223880611 41.500000000000007 19.500000000000004
decision_type=2 2 2 2 2 2 2 2 2 2 2 2 2 2 2 2 2 2 2
left_child=3 2 7 -1 5 6 -3 9 11 -2 -10 12 13 14 15 16 -6 18 -18
right_child=1 4 -4 -5 8 -7 -8 -9 10 -11 -12 -13 -14 -15 -16 -17 17 -19 -20
leaf_value=-1.3566789130888255 -1.3891846994353119 -1.3688692822205397 -1.4233055118956657 -1.2448588991534328 -1.2913129774665106 -1.3771720577152256 -1.2851236835032696 -1.3978601897669987 -1.4069443018163974 -1.2963998757713564 -1.3775313634519506 -1.4099341266236263 -1.3787822360885849 -1.3979367698184362 -1.3787819073475198 -1.2758829475558571 -1.3969549332018236 -1.3017579465142308 -1.3450866311956748
leaf_weight=3.9618649482727077 4.869500666856764 6.3793164789676728 147.91397723555565 16.027494102716446 4.7468254268169394 10.670277446508406 10.812137275934218 32.08155557513237 37.126088321208954 4.5094787776470184 56.117494970560074 9.7903420627117139 69.304234057664871 8.9708667099475843 15.456251621246336 5.005264312028884 10.93371367454529 5.9679124951362601 15.40524962544441
leaf_count=18 19 28 474 109 28 45 65 121 134 26 236 35 290 34 64 31 42 34 75
internal_value=-1.3857 -1.3909 -1.4151 -1.26702 -1.37372 -1.33955 -1.3162 -1.38581 -1.3777 -1.34457 -1.38924 -1.37031 -1.36745 -1.35564 -1.34905 -1.33812 -1.34652 -1.35464 -1.36662
internal_weight=476.05 456.06 189.375 19.9894 266.686 27.8617 17.1915 41.4605 238.824 9.37898 93.2436 145.581 135.79 66.4861 57.5152 42.059 37.0537 32.3069 26.339
internal_count=1908 1781 640 127 1141 138 93 166 1003 45 370 633 598 308 274 210 179 151 117
is_linear=0
shrinkage=1


Tree=1
num_leaves=20
num_cat=0
split_feature=30 9 99 126 111 160 156 107 107 157 14 84 126 101 102 108 44 146 157
split_gain=50.229 18.028 20.0654 11.2781 11.1462 16.863 11.1593 10.7822 23.3297 15.1307 13.1274 10.4942 11.8164 10.9271 10.4731 10.2215 10.2066 10.1815 10.2167
threshold=2.5000000000000004 12.500000000000002 40.500000000000007 27.500000000000004 24.500000000000004 3.5000000000000004 5.5000000000000009 14.500000000000002 17.500000000000004 7.5000000000000009 21.500000000000004 17.500000000000004 24.500000000000004 18.500000000000004 17.500000000000004 14.500000000000002 1.5000000000000002 18.500000000000004 5.5000000000000009
decision_type=2 2 2 2 2 2 2 2 2 2 2 2 2 2 2 2 2 2 2
left_child=1 -1 4 11 7 -6 -7 14 10 15 -9 -4 13 -13 -3 -10 -2 18 -17
right_child=16 2 3 -5 5 6 -8 8 9 -11 -12 12 -14 -15 -16 17 -18 -19 -20
leaf_value=-1.4280763657685434 -1.387460919274611 -1.3894858661100666 -1.4074490032828717 -1.4044520989926808 -1.3745328131804964 -1.273857508048611 -1.3536832928242926 -1.310688396062168 -1.3196605429706523 -1.4256011728558919 -1.3873696807815037 -1.3423471572289571 -1.323128501038928 -1.4274799283414188 -1.3413795380071782 -1.374850243680531 -1.4257064147156211 -1.4217695385951639 -1.3056456582949041
leaf_weight=16.703391790390015 22.487622976303101 86.510382950305939 14.276316761970518 71.12968635559082 18.891727268695831 10.56322166323662 7.4773068428039542 27.321257561445236 10.003808557987211 12.836997032165526 7.0142769813537589 7.3056199848651904 14.555822670459746 7.7865705192089081 13.016055732965468 34.627592742443085 77.78756320476532 9.4506113231182081 6.3040128648281089
leaf_count=110 88 389 64 271 73 34 27 103 39 56 29 27 54 34 53 149 240 43 25
internal_value=-1.38569 -1.3773 -1.37494 -1.39215 -1.36682 -1.34152 -1.30694 -1.37133 -1.36036 -1.37631 -1.32635 -1.37223 -1.35527 -1.38627 -1.38319 -1.36583 -1.41713 -1.37499 -1.36419
internal_weight=476.05 375.775 359.071 115.054 244.017 36.9323 18.0405 207.085 107.559 73.223 34.3355 43.9243 29.648 15.0922 99.5264 60.386 100.275 50.3822 40.9316
internal_count=1908 1580 1470 450 1020 134 61 886 444 312 132 179 115 61 442 256 328 217 174
is_linear=0
shrinkage=1


Tree=2
num_leaves=20
num_cat=0
split_feature=141 130 109 120 75 148 29 121 9 44 140 88 126 79 83 13 6 81 70
split_gain=23.7248 14.2957 12.308 12.4837 11.8484 11.4431 12.1954 10.1511 11.2487 11.0476 10.8079 8.92289 14.0281 10.0532 8.7779 8.18089 9.04913 7.74997 7.65646
threshold=15.500000000000002 38.500000000000007 6.5000000000000009 22.500000000000004 11.500000000000002 29.500000000000004 1.0000000180025095e-35 29.500000000000004 35.500000000000007 1.5000000000000002 1.0000000180025095e-35 14.500000000000002 21.500000000000004 14.500000000000002 10.500000000000002 1.5000000000000002 10.978219696969699 21.500000000000004 1.0000000180025095e-35
decision_type=2 2 2 2 2 2 2 2 2 2 2 2 2 2 2 2 2 2 2
left_child=4 2 -2 11 -1 6 18 10 9 -9 -8 12 -4 14 -14 16 -13 -6 -5
right_child=1 -3 3 5 17 -7 7 8 -10 -11 -12 15 13 -15 -16 -17 -18 -19 -20
leaf_value=-1.4236892710732185 -1.4095514898212178 -1.4162363159226559 -1.2940635660269271 -1.4142228927963392 -1.3802261640629401 -1.3859353522634696 -1.3545012265053595 -1.3223763364460106 -1.2925302291970426 -1.410007289150869 -1.2758150356316562 -1.4083876577911218 -1.3545370520642264 -1.3441327258133262 -1.4167204788981358 -1.4163963069550247 -1.372599436955366 -1.4046517497988349 -1.3500265656880219
leaf_weight=48.300172537565231 25.042626112699509 24.282669365406036 6.420860916376113 8.2753264904022235 54.293633162975311 24.179553925991058 6.6991735100746181 5.8788970708847073 5.5053945481777182 9.264308035373686 12.519601404666899 23.998239874839783 8.9361453950405139 17.175870776176453 15.552064955234526 21.418175399303436 66.909646570682526 80.811333447694778 10.586152285337446
leaf_count=202 91 79 25 33 232 80 24 23 18 34 46 97 33 68 57 84 272 366 44
internal_value=-1.38833 -1.3795 -1.37617 -1.37274 -1.40243 -1.35699 -1.34507 -1.32939 -1.35374 -1.37599 -1.30324 -1.38088 -1.36286 -1.37346 -1.39403 -1.3886 -1.38205 -1.39484 -1.37819
internal_weight=476.05 292.645 268.362 243.319 183.405 82.9084 58.7289 39.8674 20.6486 15.1432 19.2188 160.411 48.0849 41.6641 24.4882 112.326 90.9079 135.105 18.8615
internal_count=1908 1108 1029 938 800 302 222 145 75 57 70 636 183 158 90 453 369 598 77
is_linear=0
shrinkage=1


Tree=3
num_leaves=20
num_cat=0
split_feature=41 73 0 71 95 160 9 151 123 44 14 49 94 73 42 114 92 127 91
split_gain=313.877 67.7896 56.3918 36.571 15.6536 14.778 14.5227 11.6093 10.5397 9.08059 8.88108 9.38836 10.2489 7.68475 7.30869 7.16825 6.39087 6.27643 5.84642
threshold=2.5000000000000004 12.500000000000002 43.500000000000007 12.500000000000002 40.500000000000007 11.500000000000002 34.500000000000007 9.5000000000000018 29.500000000000004 1.5000000000000002 24.500000000000004 2.5000000000000004 48.500000000000007 13.500000000000002 1.5000000000000002 19.500000000000004 42.500000000000007 32.500000000000007 45.500000000000007
decision_type=2 2 2 2 2 2 2 2 2 2 2 2 2 2 2 2 2 2 2
left_child=2 5 6 4 -4 7 10 9 -6 -2 11 12 -1 -12 -13 -5 -15 -10 -3
right_child=1 18 3 15 8 -7 -8 -9 17 -11 13 14 -14 16 -16 -17 -18 -19 -20
leaf_value=-1.424057668775863 -1.3233561645170222 -1.4180212454260346 -1.3860514991590547 -1.4175081870470008 -1.3612648546288806 -1.3603991829021207 -1.3544924956424396 -1.3290238878776102 -1.3225581456159341 -1.2669326793635429 -1.3528424762308813 -1.4091090951278551 -1.3607130747630682 -1.4300870169314881 -1.3458806930291407 -1.3670436798007632 -1.360694495208981 -1.2627078055503449 -1.3540822320840464
leaf_weight=248.6655013859272 8.145415246486662 11.617685794830324 8.4506023526191694 22.600803315639496 6.6020179390907314 6.526714324951171 9.5156885981559736 11.214488059282301 7.4660896062850979 57.242173939943314 9.3275433778762835 13.015093594789507 6.5538200139999381 11.400023043155672 7.0439969301223746 10.218489557504652 4.6801495254039756 10.599075138568876 5.1644740402698508
leaf_count=1100 26 52 30 94 24 21 34 37 23 169 33 58 22 54 25 37 20 31 18
internal_value=-1.38546 -1.30668 -1.40638 -1.36439 -1.32732 -1.28818 -1.41531 -1.28202 -1.3072 -1.27396 -1.41723 -1.41984 -1.42243 -1.38895 -1.38691 -1.4018 -1.40989 -1.28744 -1.39834
internal_weight=476.05 99.911 376.139 65.9371 33.1178 83.1288 310.202 76.6021 24.6672 65.3876 300.686 275.278 255.219 25.4077 20.0591 32.8193 16.0802 18.0652 16.7822
internal_count=1908 323 1585 239 108 253 1346 232 78 195 1312 1205 1122 107 83 131 74 54 70
is_linear=0
shrinkage=1


Tree=4
num_leaves=20
num_cat=0
split_feature=91 32 36 42 144 29 111 102 120 19 130 61 124 6 98 61 114 150 33
split_gain=100.95 64.2195 27.0583 16.9234 10.8503 7.9238 8.98257 11.8312 11.0165 7.39747 8.63839 7.28339 7.16987 6.92702 6.71748 6.44826 10.5258 10.123 7.06515
threshold=20.500000000000004 12.500000000000002 -0.78656609248549325 1.0000000180025095e-35 20.500000000000004 2.5000000000000004 23.500000000000004 17.500000000000004 6.5000000000000009 11.500000000000002 17.500000000000004 1.0000000180025095e-35 31.500000000000004 10.671904315196999 42.500000000000007 1.5000000000000002 8.5000000000000018 13.500000000000002 28.500000000000004
decision_type=2 2 2 2 2 2 2 2 2 2 2 2 2 2 2 2 2 2 2
left_child=2 3 -1 -2 5 6 7 14 -9 -4 -11 -6 13 -13 -3 18 -17 -18 -10
right_child=1 4 9 -5 11 -7 -8 8 15 10 -12 12 -14 -15 -16 16 17 -19 -20
leaf_value=0.00072767463678944256 0.0014145976957168217 0.029543476821343319 0.12501760384861846 -0.037139845554390878 -0.020478676254552148 0.067673223076182482 -0.024146876279457254 -0.030661034997227284 -0.0077050817030900323 0.017144779506740357 0.11413762675859607 0.069872026353182654 -0.014690621598294332 0.011380422845344245 0.081789976652736088 -0.0090256233413176581 0.13265837467927294 0.032461840056116235 0.031946650245520736
leaf_weight=7.8528395891189566 35.705479875206947 54.180756658315659 17.79040335118771 140.32094097137451 38.149394825100899 7.5339907705783835 13.288986831903456 16.103283166885376 31.706231191754341 4.2206132858991605 5.033059298992157 5.9602422267198554 23.466034516692162 33.57696433365345 6.9402872025966635 6.2547452449798611 4.230588421225546 6.2374308258295059 17.398744031786919
leaf_count=31 144 249 112 458 139 40 47 55 122 18 31 32 87 143 39 24 28 29 80
internal_value=0.000568524 -0.00590871 0.0824328 -0.0293194 0.00964023 0.0175886 0.0151751 0.0188279 0.00640829 0.106158 0.0698991 -0.00323675 0.0072035 0.020198 0.0354761 0.0154765 0.0422926 0.0729557 0.00634421
internal_weight=475.951 441.054 34.8969 176.026 265.028 163.875 156.341 143.052 81.931 27.0441 9.25367 101.153 63.0032 39.5372 61.121 65.8277 16.7228 10.468 49.105
internal_count=1908 1716 192 602 1114 713 673 626 338 161 49 401 262 175 288 283 81 57 202
is_linear=0
shrinkage=0.05


Tree=5
num_leaves=20
num_cat=0
split_feature=46 116 55 3 126 144 153 88 127 1 107 84 5 96 156 91 107 158 122
split_gain=37.4947 16.6161 14.8758 11.0485 16.1231 19.1568 13.5925 11.3348 11.6338 10.3847 11.4403 10.1968 14.8335 10.5468 9.70718 8.56089 8.53754 8.41887 16.6928
threshold=2.5000000000000004 3.5000000000000004 1.0000000180025095e-35 48.511969246898481 29.500000000000004 24.500000000000004 9.5000000000000018 7.5000000000000009 36.500000000000007 19.500000000000004 14.500000000000002 39.500000000000007 11.693920972644378 21.500000000000004 5.5000000000000009 39.500000000000007 17.500000000000004 5.5000000000000009 29.500000000000004
decision_type=2 2 2 2 2 2 2 2 2 2 2 2 2 2 2 2 2 2 2
left_child=1 -1 3 4 6 -6 7 -3 11 10 -5 13 -13 -9 17 -2 -11 18 -12
right_child=15 2 -4 9 5 -7 -8 8 -10 16 14 12 -14 -15 -16 -17 -18 -19 -20
leaf_value=-0.034142809948075503 0.0017150235783629137 -0.015768048016129851 -0.034242229634776189 -0.003199795269206638 -0.02283622706810037 0.044192023362522044 0.095924927322670661 -0.015929169980021661 0.10866393226411016 0.021372599068401096 0.03510104091211886 -0.014383607680307622 0.078225969951268889 0.044677251095208766 0.0034594315966798433 -0.033997166377459608 -0.040139999105503657 0.0029531547880024493 0.1348362854874218
leaf_weight=22.150246828794479 21.261884823441505 13.982986420392988 17.647429794073105 74.675541073083878 35.406371831893921 15.251457557082174 7.5038499683141699 8.0377110093831998 4.7402876019477835 7.6646315455436733 14.402144610881811 23.025515362620357 5.3235344588756552 67.135534405708313 23.067972242832184 79.63346266746521 21.363471493124962 7.7668413221836081 5.9198444336652747
leaf_count=122 81 65 67 315 153 54 27 41 17 33 58 107 20 268 86 256 91 29 18
internal_value=0.000586015 0.00786468 0.0105012 0.0128564 0.0212658 -0.00265616 0.0306057 0.0265961 0.0320678 0.00305963 0.00927848 0.0285605 0.00300711 0.0381971 0.0274935 -0.0264715 -0.0238981 0.0472315 0.0641542
internal_weight=475.961 375.065 352.915 335.268 180.407 50.6578 129.749 122.246 108.263 154.86 125.832 103.522 28.349 75.1732 51.1568 100.895 29.0281 28.0888 20.322
internal_count=1908 1571 1449 1382 752 207 545 518 453 630 506 436 127 309 191 337 124 105 76
is_linear=0
shrinkage=0.05


Tree=6
num_leaves=20
num_cat=0
split_feature=141 130 76 109 120 89 100 145 29 156 145 22 81 88 126 79 110 83 13
split_gain=21.7144 13.1255 11.0383 10.361 11.5666 9.73646 16.7428 11.1936 10.8217 9.10208 9.47974 11.0771 10.0133 8.31846 12.0363 9.61904 8.25146 8.10598 7.7938
threshold=15.500000000000002 37.500000000000007 11.500000000000002 6.5000000000000009 22.500000000000004 40.500000000000007 44.500000000000007 26.500000000000004 1.0000000180025095e-35 5.5000000000000009 15.500000000000002 4.5000000000000009 29.500000000000004 14.500000000000002 21.500000000000004 14.500000000000002 8.5000000000000018 10.500000000000002 1.5000000000000002
decision_type=2 2 2 2 2 2 2 2 2 2 2 2 2 2 2 2 2 2 2
left_child=2 3 -1 -2 13 7 -7 8 -6 -4 11 12 -11 14 -5 17 -9 -16 -15
right_child=1 -3 9 4 5 6 -8 16 -10 10 -12 -13 -14 18 15 -17 -18 -19 -20
leaf_value=-0.03640422208945001 -0.021425362651645435 -0.024224582692533199 -0.017388440701126048 0.084889321353853339 -0.0039864431226885703 0.08759233221333218 -0.010699801345474678 0.047953690054255413 0.057329890741979632 0.037662995963281459 -0.020064602281584923 0.074272219339365689 -0.03498888775806476 0.004326418908444366 0.029917921739498282 0.041341808488853854 -0.020632955645303999 -0.029697652553598915 -0.029451144127258251
leaf_weight=46.918002098798752 23.684429481625557 31.119296208024025 89.987301215529442 6.7105719000101081 10.570379495620726 14.526599422097208 6.1736733615398398 5.5733323395252254 22.540415436029434 11.1188464909792 16.33334019780159 8.815681263804434 8.2703398764133436 89.501807346940041 9.0910320132970828 17.215733781456947 20.570758789777756 15.295448884367941 21.104851454496384
leaf_count=201 88 101 413 25 39 53 21 21 80 47 70 34 35 364 33 67 75 57 84
internal_value=-0.00192274 0.00647913 -0.0155217 0.0101182 0.0132458 0.0287572 0.0582776 0.0184445 0.0377551 -0.0082386 0.0102482 0.0278023 0.00667378 0.0054417 0.0227503 0.0127271 -0.00601183 -0.00747357 -0.00211868
internal_weight=475.122 293.678 181.444 262.559 238.875 79.9552 20.7003 59.2549 33.1108 134.526 44.5382 28.2049 19.3892 158.919 48.3128 41.6022 26.1441 24.3865 110.607
internal_count=1908 1108 800 1007 919 289 74 215 119 599 186 116 82 630 182 157 96 90 448
is_linear=0
shrinkage=0.05


Tree=7
num_leaves=20
num_cat=0
split_feature=41 78 0 71 124 95 125 160 99 123 14 49 42 123 126 153 80 25 115
split_gain=274.94 56.224 51.9422 31.5951 16.6073 13.262 13.0953 18.9077 11.4109 10.6515 9.36889 8.85245 8.95156 8.82629 9.34538 8.68074 7.79782 7.2488 6.76432
threshold=2.5000000000000004 12.500000000000002 43.500000000000007 12.500000000000002 36.500000000000007 40.500000000000007 32.500000000000007 7.5000000000000009 43.500000000000007 34.500000000000007 24.500000000000004 2.5000000000000004 1.5000000000000002 34.500000000000007 29.500000000000004 4.5000000000000009 12.500000000000002 7.5000000000000009 13.500000000000002
decision_type=2 2 2 2 2 2 2 2 2 2 2 2 2 2 2 2 2 2 2
left_child=2 6 4 5 10 -4 7 8 -2 -6 11 -1 -13 14 -7 -5 -12 -3 -17
right_child=1 17 3 15 9 13 -8 -9 -10 -11 16 12 -14 -15 -16 18 -18 -19 -20
leaf_value=-0.036377882724710722 0.056859293723673855 -0.049621483074356883 -0.00026563903371022447 -0.040916450303134982 -0.0076746192779938716 0.10133469816296155 0.10288011937255848 0.015198191858424782 0.12763987392588463 0.076191324994310361 0.049967326089372488 -0.026182066613468138 0.046388747835497124 0.11314880304209039 0.024225451958354696 -0.036017019915894226 -0.01686648293197027 0.019774578080629227 0.032887467271747947
leaf_weight=243.50063106417656 11.761976763606073 7.9869486987590772 8.5074530094861966 16.120404332876205 11.751827776432039 6.0347592085599961 54.006972104310989 12.804161891341208 11.03780338168144 5.5854022800922385 5.6350158005952862 12.058118864893915 6.5615708082914344 8.5823436081409437 11.262972712516783 5.2432875186204937 19.354794099926949 7.1154263317584991 11.106528058648108
leaf_count=1100 37 39 30 67 48 18 149 41 31 16 19 54 23 23 37 23 86 26 41
internal_value=0.000764727 0.07232 -0.0194149 0.0204917 -0.0281785 0.0538917 0.0873608 0.0638199 0.0911255 0.0193438 -0.0310482 -0.033837 -0.000608142 0.0716947 0.051127 -0.0148805 -0.00179596 -0.0169258 0.0107902
internal_weight=476.018 104.713 371.305 66.8577 304.447 34.3875 89.6109 35.6039 22.7998 17.3372 287.11 262.12 18.6197 25.8801 17.2977 32.4702 24.9898 15.1024 16.3498
internal_count=1908 323 1585 239 1346 108 258 109 68 64 1282 1177 77 78 55 131 105 65 64
is_linear=0
shrinkage=0.05


Tree=8
num_leaves=20
num_cat=0
split_feature=91 75 36 42 146 124 97 108 152 11 143 101 34 94 146 3 143 125 90
split_gain=87.6634 59.0593 22.6367 14.3425 9.34536 7.22184 7.10926 6.45474 7.12435 7.40095 7.1129 6.04625 5.83701 7.63659 9.72683 6.35824 6.23759 5.66616 5.07144
threshold=20.500000000000004 12.500000000000002 -0.78656609248549325 1.0000000180025095e-35 17.500000000000004 31.500000000000004 25.500000000000004 20.500000000000004 4.5000000000000009 3.5000000000000004 18.500000000000004 18.500000000000004 1.0000000180025095e-35 34.500000000000007 22.500000000000004 51.709195742164404 21.500000000000004 32.500000000000007 22.500000000000004
decision_type=2 2 2 2 2 2 2 2 2 2 2 2 2 2 2 2 2 2 2
left_child=2 3 -1 6 7 12 -2 8 -3 18 -9 -4 13 15 -15 16 -6 -5 -10
right_child=1 4 11 17 5 -7 -8 10 9 -11 -12 -13 -14 14 -16 -17 -18 -19 -20
leaf_value=0.00018469827939896744 0.045500761868854323 0.016061817224473363 0.10421218710282394 -0.025576914745203794 0.065993406696747262 -0.018825432779598403 -0.010701732128072863 -0.0009686778995883522 0.067981132076493742 0.098062663771203137 0.063086598570266522 0.032921669200278503 -0.0023432281415383741 0.013747052128411694 0.097441168521815225 -0.026108577875387718 -0.0022274586809766395 -0.045680772365848797 0.019546194453825615
leaf_weight=7.906749188899993 6.8500420451164237 47.246340036392212 25.170452281832699 73.515706688165665 5.8863049447536486 36.076811924576759 31.506087869405746 45.1230638474226 7.9772048741579118 5.7678452730178824 4.7943574190139762 3.3726639151573172 59.236112132668495 7.572102412581442 6.4105284512042999 9.493719130754469 7.7779751121997833 66.982282862067223 16.757616117596626
leaf_count=31 33 202 146 263 31 132 120 179 42 34 25 15 237 32 38 33 31 211 73
internal_value=0.000540737 -0.00564608 0.07505 -0.0277634 0.0095614 0.000257017 -0.000664498 0.0192147 0.0282231 0.0470601 0.00518356 0.0957885 0.00740017 0.0229401 0.0521178 0.00532277 0.0271608 -0.0351614 0.0351669
internal_weight=475.424 438.974 36.4499 178.854 260.12 132.454 38.3561 127.666 77.749 30.5027 49.9174 28.5431 96.3767 37.1406 13.9826 23.158 13.6643 140.498 24.7348
internal_count=1908 1716 192 627 1089 534 153 555 351 149 204 161 402 165 70 95 62 474 115
is_linear=0
shrinkage=0.05


Tree=9
num_leaves=20
num_cat=0
split_feature=41 9 4 126 107 1 44 107 3 147 47 0 92 142 99 149 33 99 99
split_gain=34.9221 14.5788 16.6088 14.9441 10.9898 12.1878 10.5955 8.34955 12.2181 12.7788 12.0071 10.9033 9.30175 15.0822 12.1064 8.89739 8.76456 10.8477 9.46851
threshold=2.5000000000000004 12.500000000000002 18.285984848484848 30.500000000000004 17.500000000000004 10.500000000000002 1.5000000000000002 14.500000000000002 62.191247154060214 25.500000000000004 1.0000000180025095e-35 35.500000000000007 33.500000000000007 22.500000000000004 31.500000000000004 30.500000000000004 17.500000000000004 43.500000000000007 35.500000000000007
decision_type=2 2 2 2 2 2 2 2 2 2 2 2 2 2 2 2 2 2 2
left_child=1 -1 3 7 5 -5 -2 12 9 10 -9 -12 13 -3 -14 -16 -13 18 -18
right_child=6 2 -4 4 -6 -7 -8 8 -10 -11 11 16 14 -15 15 -17 17 -19 -20
leaf_value=-0.039903509819893934 0.0030393458341734449 0.0043345798426170203 0.061551505437124343 -0.026575761754144795 -0.030169524025418788 0.02125160600823954 -0.035710960077595784 0.040735093715165302 -0.010010617931076743 0.082615393031249262 -0.02113217662445414 -0.01641963551179251 0.022893894368641737 0.06373064813796428 -0.034507858123602395 0.039715578699459797 0.061765883060156124 0.0983958151139116 -0.027149792470257512
leaf_weight=15.620736584067343 23.270591929554939 47.771248787641525 14.666029021143911 20.665321126580238 38.56992281973362 37.476726844906807 72.913441389799118 50.975146368145943 23.995361745357513 10.224010661244391 20.984189078211784 8.0452905148267764 18.697289735078812 13.768140271306036 34.963586434721947 4.5647006332874289 6.0797443240880984 6.452041581273078 5.8993320167064667
leaf_count=109 89 211 58 84 161 143 234 202 95 33 92 31 77 49 155 17 21 21 26
internal_value=0.000573719 0.00739537 0.00942629 0.00723666 -0.00947548 0.00425241 -0.0263358 0.0136397 0.0222803 0.0294111 0.0238851 0.00578726 0.00406919 0.0176232 -0.0102562 -0.0259366 0.0271226 0.046129 0.0179776
internal_weight=475.603 379.419 363.798 349.132 96.712 58.142 96.184 252.42 132.655 108.66 98.4357 47.4606 119.765 61.5394 58.2256 39.5283 26.4764 18.4311 11.9791
internal_count=1908 1585 1476 1418 388 227 323 1030 521 426 393 191 509 260 249 172 99 68 47
is_linear=0
shrinkage=0.05


Tree=10
num_leaves=20
num_cat=0
split_feature=141 32 34 75 12 42 87 19 97 123 48 44 142 6 140 113 87 128 103
split_gain=19.8322 10.7053 12.0012 10.4738 10.185 13.2222 8.5999 7.96748 7.90101 8.27392 9.30851 11.2573 9.87998 7.61113 6.5754 6.50194 7.65218 11.2194 6.21939
threshold=15.500000000000002 11.500000000000002 1.0000000180025095e-35 11.500000000000002 2.5000000000000004 1.0000000180025095e-35 15.500000000000002 26.500000000000004 25.500000000000004 29.500000000000004 1.5000000000000002 1.5000000000000002 25.500000000000004 22.287220843672461 2.5000000000000004 8.5000000000000018 13.500000000000002 23.500000000000004 21.500000000000004
decision_type=2 2 2 2 2 2 2 2 2 2 2 2 2 2 2 2 2 2 2
left_child=3 -2 6 -1 8 -6 7 -3 -4 10 11 12 18 -11 15 -5 17 -17 -10
right_child=1 2 4 14 5 -7 -8 -9 9 13 -12 -13 -14 -15 -16 16 -18 -19 -20
leaf_value=-0.035530375707533715 -0.009794589308382548 0.036362314688573032 0.062285463700908039 0.0045286743071354628 3.2810611311773764e-05 0.093768324121603977 -0.013203065810974232 -0.021280756923630604 0.019249342321708513 -0.014950452090575803 0.0013521681296973015 0.0035901501259645026 0.11392294562288133 0.034487793193671117 0.048803819429239004 0.057131374293989526 -0.027505243566611465 -0.020698117496320428 0.087797320920384531
leaf_weight=45.836715340614319 77.338817000389099 20.958846315741543 8.6273457109928113 48.158669352531433 5.9964588880538967 10.096838936209677 59.43045911192894 8.3961762189865095 10.446082577109339 34.486668065190315 24.74163444340229 12.452571019530295 6.6619850546121588 10.054888635873793 4.9356712549924842 7.3775539100170162 60.689305528998375 12.435215160250662 4.8431906700134268
leaf_count=202 254 85 34 201 21 34 243 32 45 134 96 50 24 38 20 31 290 56 18
internal_value=-0.00180311 0.00617991 0.0118682 -0.0149069 0.0216413 0.0588419 -0.00226646 0.0198751 0.0163109 0.0124856 0.0247426 0.0415639 0.0631058 -0.00379018 -0.00783101 -0.0100036 -0.0186973 0.00828275 0.0409633
internal_weight=473.965 294.532 217.193 179.433 128.408 16.0933 88.7855 29.355 112.314 103.687 59.1455 34.4038 21.9513 44.5416 133.596 128.661 80.5021 19.8128 15.2893
internal_count=1908 1108 854 800 494 55 360 117 439 405 233 137 87 172 598 578 377 87 63
is_linear=0
shrinkage=0.05


Tree=11
num_leaves=20
num_cat=0
split_feature=41 0 74 71 124 42 150 136 123 128 97 101 5 91 157 58 4 4 152
split_gain=242.78 47.7786 46.775 27.3825 15.4018 11.1596 13.5272 13.4053 10.8439 9.77369 9.52795 9.11278 8.58199 8.00913 8.59345 7.03289 6.78195 6.77224 6.40325
threshold=2.5000000000000004 43.500000000000007 12.500000000000002 12.500000000000002 36.500000000000007 2.5000000000000004 16.500000000000004 1.0000000180025095e-35 36.500000000000007 32.500000000000007 43.500000000000007 28.500000000000004 9.6841269841269852 48.500000000000007 6.5000000000000009 1.5000000000000002 11.039581205311544 5.6291005291005307 4.5000000000000009
decision_type=2 2 2 2 2 2 2 2 2 2 2 2 2 2 2 2 2 2 2
left_child=1 4 5 8 11 6 -2 -8 10 -6 -3 15 -12 -7 -15 -1 17 -5 -4
right_child=2 3 18 16 9 13 7 -9 -10 -11 12 -13 -14 14 -16 -17 -18 -19 -20
leaf_value=-0.032756853411898282 0.096825713529822319 -0.0035289627543703748 -0.049158420975543488 0.017193025199939854 -0.011113419621233592 0.099943713232063469 -0.024344832897734335 0.069371495795977678 0.099268906247610811 0.065761873753547792 0.08860052128196283 0.029343345121610454 0.01645784024685323 0.099614182649462465 0.026664756225988209 0.022650139859227598 0.041585133724900636 -0.03878836134908116 0.01505830315162052
leaf_weight=269.08210135996342 9.9034230411052722 10.392173796892168 6.9903539121150962 7.3885130137205151 10.899355694651605 51.599113553762436 7.7507481724023801 7.5160558372735977 8.341869115829466 6.6614495664834967 9.5271253585815447 6.2786246240138999 7.2665236443281165 7.3838653564453152 8.9066809713840467 5.8517852276563636 4.6445652991533271 20.097065389156342 8.7296775281429273
leaf_count=1237 29 35 33 28 44 134 25 21 22 20 28 23 23 19 27 22 18 85 35
internal_value=0.000683209 -0.0187888 0.0662758 0.0191516 -0.0273805 0.0797514 0.0513152 0.021793 0.0494013 0.0180482 0.0340996 -0.0302174 0.0573848 0.0902942 0.0597299 -0.0315776 -0.0142967 -0.0237398 -0.0134975
internal_weight=475.211 366.431 108.78 67.6578 298.773 93.0599 25.1702 15.2668 35.5277 17.5608 27.1858 281.213 16.7936 67.8897 16.2905 274.934 32.1301 27.4856 15.72
internal_count=1908 1585 323 239 1346 255 75 46 108 64 86 1282 51 180 46 1259 131 113 68
is_linear=0
shrinkage=0.05


Tree=12
num_leaves=20
num_cat=0
split_feature=91 75 36 0 144 61 3 111 102 120 98 122 159 107 4 22 45 95 98
split_gain=76.9282 54.1956 19.2632 13.8187 7.75683 7.35488 6.72687 6.15682 9.77359 8.72868 6.2414 10.7206 6.39581 8.06548 6.19027 7.16912 5.89166 5.78595 5.86628
threshold=20.500000000000004 12.500000000000002 -0.78656609248549325 34.500000000000007 20.500000000000004 1.0000000180025095e-35 37.213203463203477 23.500000000000004 17.500000000000004 6.5000000000000009 41.500000000000007 28.500000000000004 3.5000000000000004 16.500000000000004 7.4583950617283961 2.5000000000000004 1.5000000000000002 29.500000000000004 38.500000000000007
decision_type=2 2 2 2 2 2 2 2 2 2 2 2 2 2 2 2 2 2 2
left_child=2 3 -1 6 7 -6 -2 8 10 -10 12 -12 14 -14 -3 -16 -5 -11 -19
right_child=1 4 -4 16 5 -7 -8 -9 9 17 11 -13 13 -15 15 -17 -18 18 -20
leaf_value=-0.00016469235859028396 -0.012728258268425274 0.0077359298778679753 0.087484679152872988 -0.017933430914446838 -0.019592876369679407 0.0085799820386200636 0.035696364338937629 -0.016359053591150367 -0.025448388860539736 0.051602138348263132 0.13243471503854462 0.019639261651697063 0.032146675288952806 -0.020889925782676622 0.041923112393065315 0.11261706623388168 -0.040517651956750611 0.02520704439111221 -0.0060145395978647744
leaf_weight=7.9404254555702201 25.070677429437637 7.3157682865858105 29.773332133889198 40.710369095206261 37.234514027833939 61.313335061073303 10.045188263058661 13.714939564466475 16.174504011869431 9.4929132312536222 4.0345639586448652 4.4082747250795364 18.91904224455357 11.541281238198279 12.273240357637407 5.0667725950479499 99.35768173635006 30.098773404955864 30.081303894519806
leaf_count=31 96 30 161 153 137 256 48 51 57 47 26 19 87 41 58 31 330 134 115
internal_value=0.000516168 -0.00539872 0.0690306 -0.0269223 0.00901099 -0.00206462 0.00112401 0.0157022 0.0186453 0.00764164 0.0335077 0.0735406 0.0273753 0.0120513 0.0463069 0.06258 -0.0339536 0.0153234 0.00960078
internal_weight=474.567 436.853 37.7138 175.184 261.669 98.5478 35.1159 163.121 149.406 85.8475 63.5589 8.44284 55.1161 30.4603 24.6558 17.34 140.068 69.673 60.1801
internal_count=1908 1716 192 627 1089 393 144 696 645 353 292 45 247 128 119 89 483 296 249
is_linear=0
shrinkage=0.05


Tree=13
num_leaves=20
num_cat=0
split_feature=30 92 99 115 126 44 126 126 85 81 78 99 99 9 43 96 71 78 94
split_gain=39.9803 14.1833 16.5543 11.1607 9.21072 8.83467 8.82122 7.95953 9.39278 7.266 7.18058 8.35936 9.79542 7.13405 7.0884 11.0635 12.3749 8.88419 9.78205
threshold=2.5000000000000004 15.500000000000002 40.500000000000007 23.500000000000004 27.500000000000004 1.5000000000000002 23.500000000000004 24.500000000000004 16.500000000000004 9.5000000000000018 16.500000000000004 25.500000000000004 27.500000000000004 21.500000000000004 1.5000000000000002 27.500000000000004 13.500000000000002 14.500000000000002 43.500000000000007
decision_type=2 2 2 2 2 2 2 2 2 2 2 2 2 2 2 2 2 2 2
left_child=1 -1 3 10 7 9 -5 13 -9 -2 11 -3 -13 -4 15 -14 -17 -16 -19
right_child=5 2 4 6 -6 -7 -8 8 -10 -11 -12 12 14 -15 17 16 -18 18 -20
leaf_value=-0.036565491510842686 0.048423966099100928 -0.006325488799480067 0.043820932511693472 -0.0052063912506511833 -0.017171263335897188 -0.037012241827904413 0.050084610229254034 -0.017520107955958757 0.054507361242748797 -0.01743990267736284 -0.011340948547115953 0.058577449520931704 0.04462498692572052 -0.023399590543104577 0.011677385211222448 0.028775362368798199 -0.015539095937232862 0.037976547014477335 0.12165321041704109
leaf_weight=17.196061059832573 5.5685226321220425 34.074092924594879 5.0564114600420025 8.9505943953990919 69.787593141198158 72.260992109775543 37.17456279695034 6.3957360833883312 15.484756425023077 16.882588773965836 28.126894667744637 15.644466027617453 17.206233471632004 17.990429937839508 19.866026148200035 24.130100250244141 45.384070247411728 13.113290444016458 4.7607049643993369
leaf_count=118 19 151 19 35 271 240 131 30 54 69 129 61 65 76 79 93 200 53 15
internal_value=0.000567084 0.00780539 0.00990648 0.0171607 -0.00580355 -0.0285003 0.0393554 0.0118544 0.0334535 -0.00110377 0.0121004 0.0158858 0.0212876 -0.0086516 0.0166004 0.00872866 -0.000156444 0.0346883 0.0602637
internal_weight=475.054 380.342 363.146 248.431 114.715 94.7121 46.1252 44.9273 21.8805 22.4511 202.306 174.179 140.105 23.0468 124.46 86.7204 69.5142 37.74 17.874
internal_count=1908 1580 1462 1012 450 328 166 179 84 88 846 717 566 95 505 358 293 147 68
is_linear=0
shrinkage=0.05


Tree=14
num_leaves=20
num_cat=0
split_feature=141 130 109 120 156 95 148 109 19 107 152 19 157 128 148 21 67 64 6
split_gain=18.0332 11.587 10.2014 10.1794 10.0595 10.6512 8.91134 10.0599 10.8559 12.0503 9.2328 8.81189 8.04784 7.92856 7.72087 7.56976 7.4336 9.5969 11.7858
threshold=15.500000000000002 38.500000000000007 6.5000000000000009 22.500000000000004 5.5000000000000009 45.500000000000007 29.500000000000004 9.5000000000000018 24.500000000000004 15.500000000000002 5.5000000000000009 20.500000000000004 6.5000000000000009 38.500000000000007 22.500000000000004 11.500000000000002 1.0000000180025095e-35 1.0000000180025095e-35 20.247558655675338
decision_type=2 2 2 2 2 2 2 2 2 2 2 2 2 2 2 2 2 2 2
left_child=4 2 -2 13 -1 -6 7 14 11 10 -10 12 -9 15 -5 16 -4 -18 -19
right_child=1 -3 3 6 5 -7 -8 8 9 -11 -12 -13 -14 -15 -16 -17 17 18 -20
leaf_value=-0.021938373111574164 -0.022045502448052642 -0.028017570529226033 -0.012995977986221766 0.1127143905489795 0.016241133470056096 -0.038534656566968604 9.4349457637700726e-05 -0.0078144686969717943 0.059543687190869492 0.10112041378625217 -0.013399204457639062 -0.033185191893568909 0.071195339554109255 -0.049629667733333584 0.035552202062859549 0.055923389127809565 0.036136854999432942 0.016126144551421164 -0.025782707113794236
leaf_weight=125.50095255672932 24.4335106164217 23.220651060342789 43.979359522461891 6.632660046219824 40.502787351608276 11.365100324153898 24.23885615170002 7.0128172636032122 9.2944907248020225 7.549606889486312 8.1353235691785795 10.455127373337744 5.963879406452179 6.5049187988042823 6.3414067029953003 7.4410136789083472 28.686422556638718 50.359132990241051 25.156241238117218
leaf_count=589 91 79 188 21 170 41 80 30 32 25 28 41 22 23 23 28 109 192 96
internal_value=-0.00168107 0.00588567 0.00877802 0.0118179 -0.0142834 0.00423886 0.025764 0.0359 0.0254215 0.0483534 0.0254978 0.000974895 0.0284972 0.00445252 0.0749994 0.00671313 0.004242 0.0115175 0.00216516
internal_weight=472.774 295.405 272.185 247.751 177.369 51.8679 85.6242 61.3853 48.4112 24.9794 17.4298 23.4318 12.9767 162.127 12.9741 155.622 148.181 104.202 75.5154
internal_count=1908 1108 1029 938 800 211 302 222 178 85 60 93 52 636 44 613 585 397 288
is_linear=0
shrinkage=0.05


Tree=15
num_leaves=20
num_cat=0
split_feature=42 79 30 76 159 127 45 47 114 11 76 20 116 101 11 127 130 14 156
split_gain=204.273 55.6728 50.8614 16.389 14.2631 13.9201 13.5515 12.3569 12.1652 9.38768 7.8476 12.6467 7.06734 7.15908 6.96837 8.09527 6.8285 6.80496 8.16037
threshold=2.5000000000000004 12.500000000000002 2.5000000000000004 11.500000000000002 6.5000000000000009 34.500000000000007 1.5000000000000002 2.5000000000000004 19.500000000000004 1.5000000000000002 11.500000000000002 4.5000000000000009 3.5000000000000004 28.500000000000004 3.5000000000000004 33.500000000000007 27.500000000000004 20.500000000000004 5.5000000000000009
decision_type=2 2 2 2 2 2 2 2 2 2 2 2 2 2 2 2 2 2 2
left_child=2 6 4 -4 10 16 7 -2 -7 -5 11 -1 -12 -14 -8 -16 -6 -18 -19
right_child=1 -3 3 9 5 8 14 -9 -10 -11 12 -13 13 -15 15 -17 17 18 -20
leaf_value=-0.026284813912676265 -0.015135957171513507 -0.034102160164032697 0.067724339937609707 0.045737902378737774 -0.034609972962913051 -0.0045886699562135841 0.087266639534156476 0.072129678122940077 0.087686831935227139 -0.020134171243119049 0.024403275490105906 0.038704320356352948 -0.038786210762634277 0.022414445446825818 0.022574916638527533 0.089046996107443932 -0.016213088603429484 0.071170752427946626 -0.012926716033538545
leaf_weight=34.485212966799736 7.8770370334386834 14.202104002237318 19.191536739468575 8.7625253796577471 29.494013741612434 7.8034977912902814 66.063757762312889 8.3640391975641251 6.5865821987390518 14.131539717316626 4.7824451178312293 9.5612319409847242 179.84403369575739 4.9088557511568061 10.157886385917665 8.3416015654802305 27.678580775856972 5.8203831464052183 5.7188748717308044
leaf_count=172 28 65 54 32 128 30 169 22 21 60 21 37 842 16 28 22 117 22 22
internal_value=0.000591876 0.0585795 -0.0179965 0.0336454 -0.0248595 -0.00706937 0.0716372 0.0298052 0.0376474 0.00507785 -0.0311887 -0.0121775 -0.0356067 -0.0371601 0.0796714 0.0525478 -0.0164342 -0.00276508 0.0294919
internal_weight=473.776 115.006 358.769 42.0856 316.684 83.1019 100.804 16.2411 14.3901 22.8941 233.582 44.0464 189.535 184.753 84.5632 18.4995 68.7119 39.2178 11.5393
internal_count=1908 334 1574 146 1428 340 269 50 51 92 1088 209 879 858 219 50 289 161 44
is_linear=0
shrinkage=0.05


Tree=16
num_leaves=20
num_cat=0
split_feature=91 32 0 156 120 81 63 95 97 1 95 95 91 9 113 139 6 102 6
split_gain=67.8917 49.5821 15.0764 12.3392 8.03259 8.5051 7.50028 7.74353 7.40803 7.79844 7.12254 7.11291 6.14358 5.62647 5.50295 6.21317 6.52545 13.4325 7.40461
threshold=20.500000000000004 12.500000000000002 34.500000000000007 5.5000000000000009 21.500000000000004 17.500000000000004 2.5000000000000004 25.500000000000004 30.500000000000004 18.500000000000004 49.500000000000007 36.500000000000007 16.500000000000004 25.500000000000004 7.5000000000000009 1.0000000180025095e-35 17.303695324283563 12.500000000000002 18.720054945054947
decision_type=2 2 2 2 2 2 2 2 2 2 2 2 2 2 2 2 2 2 2
left_child=3 2 8 12 5 6 7 -3 9 -2 14 -6 -1 -9 -7 16 17 -16 -18
right_child=1 4 -4 -5 11 10 -8 13 -10 -11 -12 -13 -14 -15 15 -17 18 -19 -20
leaf_value=0.089504611813208082 0.063199965664975363 0.063132278109817766 -0.034299125778857104 -0.013969222038288759 -0.02179245590024223 0.0025901754153939433 -0.050139227887009599 0.018758901894927592 -0.015811048469863059 -0.015754711029989248 -0.039035739727930355 0.011348797727667073 0.045008356422246487 -0.011636151040217382 0.10131842003801608 0.006849396781616595 -0.02694531442456698 0.033725300513239034 0.032004496931903985
leaf_weight=22.41231070458889 8.0566465109586698 5.2428267896175376 132.06341469287872 4.4988800585269919 36.662023276090622 25.583376377820969 6.8483449816703788 24.600744098424911 19.860888808965683 5.1117679476737967 4.7741603404283515 28.993935734033585 11.863620877265928 39.951510891318321 9.3478093445301038 24.415184020996094 7.0671228021383312 34.39263841509819 21.633407279849052
leaf_count=121 42 27 465 16 133 102 21 106 76 19 15 124 55 151 55 100 24 157 99
internal_value=0.000491102 -0.00516478 -0.0267428 0.0638848 0.00805301 0.0129517 -0.000205862 0.00469364 0.00347037 0.032551 0.0208789 -0.00715714 0.0741035 -5.2653e-05 0.0232151 0.0286629 0.0360148 0.0481707 0.0174889
internal_weight=473.381 434.606 165.093 38.7748 269.513 203.857 76.6434 69.7951 33.0293 13.1684 127.214 65.656 34.2759 64.5523 122.44 96.8562 72.441 43.7404 28.7005
internal_count=1908 1716 602 192 1114 857 305 284 137 61 552 257 176 257 537 435 335 212 123
is_linear=0
shrinkage=0.05


Tree=17
num_leaves=20
num_cat=0
split_feature=46 99 55 99 88 115 103 95 152 43 152 130 146 5 108 97 92 92 137
split_gain=29.5575 13.3186 13.7179 9.81977 11.8029 11.0418 8.64447 10.3372 8.20932 11.3048 9.28046 7.88406 11.7936 10.1196 11.1061 7.77399 10.4355 7.68867 9.37007
threshold=2.5000000000000004 12.500000000000002 1.0000000180025095e-35 41.500000000000007 15.500000000000002 22.500000000000004 16.500000000000004 32.500000000000007 4.5000000000000009 1.0000000180025095e-35 3.5000000000000004 26.500000000000004 21.500000000000004 9.2273249138920796 11.500000000000002 39.500000000000007 43.500000000000007 41.500000000000007 1.0000000180025095e-35
decision_type=2 2 2 2 2 2 2 2 2 2 2 2 2 2 2 2 2 2 2
left_child=1 -1 3 5 -5 -3 7 -7 9 -6 -11 12 -9 14 -13 16 -10 18 -2
right_child=17 2 -4 4 8 6 -8 11 15 10 -12 13 -14 -15 -16 -17 -18 -19 -20
leaf_value=-0.036282330925537974 -0.023305229439690968 0.010593061677335482 -0.033730970013151854 -0.03437732984611052 -0.012049084748290704 0.092484287655826114 0.076405035610862732 -0.014655450940547713 -0.012878586706520404 0.025372897005504609 0.10207206545670802 0.074589107950930572 0.074502807267542034 -0.037440263451343811 -0.018795382431949007 -0.028862493790372923 0.067287318015191402 -0.034235382288200417 0.034306985270689254
leaf_weight=17.092605948448181 21.231550395488743 199.97142340987921 17.945506080985069 22.673426404595375 10.716325283050539 5.2032976299524298 10.601107552647589 5.6376471072435406 10.988977760076525 10.737359881401064 6.233562543988227 6.4917853027582186 10.842289969325064 10.538671880960463 6.2482095807790756 20.160820111632347 6.4377530217170706 63.972313858568668 10.571657627820967
leaf_count=110 81 838 70 94 47 17 33 24 44 39 19 22 39 46 26 79 24 217 39
internal_value=0.000567282 0.00684586 0.00888547 0.011112 -0.00329851 0.0160717 0.0357894 0.0262131 0.00749682 0.028157 0.0535451 0.01754 0.0440025 -0.00119387 0.0287896 -0.00772157 0.0167362 -0.0242467 -0.00415444
internal_weight=474.296 378.521 361.428 343.483 87.9482 255.534 55.563 44.9619 65.2748 27.6872 16.9709 39.7586 16.4799 23.2787 12.74 37.5876 17.4267 95.7755 31.8032
internal_count=1908 1571 1461 1391 346 1045 207 174 252 105 58 157 63 94 48 147 68 337 120
is_linear=0
shrinkage=0.05


Tree=18
num_leaves=20
num_cat=0
split_feature=141 130 75 109 120 95 158 79 84 9 153 32 120 114 157 45 102 46 85
split_gain=16.4524 10.6015 9.6265 9.35543 9.25548 8.15229 10.0338 8.86113 8.13824 7.09943 6.78855 10.0703 7.8922 9.31758 9.66844 7.51913 7.73055 9.13254 7.04056
threshold=15.500000000000002 38.500000000000007 11.500000000000002 6.5000000000000009 22.500000000000004 34.500000000000007 8.5000000000000018 15.500000000000002 41.500000000000007 24.500000000000004 2.5000000000000004 11.500000000000002 10.500000000000002 8.5000000000000018 3.5000000000000004 1.5000000000000002 13.500000000000002 1.0000000180025095e-35 21.500000000000004
decision_type=2 2 2 2 2 2 2 2 2 2 2 2 2 2 2 2 2 2 2
left_child=2 3 -1 -2 10 9 7 -7 -8 -6 11 -5 13 -12 -15 16 17 -13 -17
right_child=1 -3 -4 4 5 6 8 -9 -10 -11 12 15 -14 14 -16 18 -18 -19 -20
leaf_value=-0.034007642216200291 -0.02137915193049722 -0.027161146158070804 -0.0069373915364219817 -0.028163345417901772 0.0071480812199769114 -0.012185141131582379 0.014883412801930311 0.040818819792950316 0.088207407240445221 0.061711981162990696 -0.022639748448545827 0.088076797772889029 -0.0079625670783018947 -0.0042136047294297927 0.081640597207504995 0.1043946810402142 -0.010941696730255936 0.00080767278940347277 0.025765809686012355
leaf_weight=43.754672646522522 24.103146553039551 22.747106522321701 131.6741236448288 8.4468494653701764 8.3689436316490191 31.745954006910324 8.3065924197435361 10.490987375378607 6.9508218467235556 20.723306834697723 6.6474468857049969 6.133850112557413 97.74564217031002 5.2629886716604224 8.6999970078468305 5.8396531790494901 12.338631391525267 5.8636476546525955 5.5553211867809296
leaf_count=202 91 79 598 29 29 115 26 41 22 69 27 23 387 23 31 20 48 24 24
internal_value=-0.00155626 0.00563518 -0.0136891 0.00836562 0.0112435 0.0244477 0.0135343 0.000980203 0.0482876 0.0460156 0.00420927 0.0209348 -0.00203374 0.0260839 0.0492801 0.0325416 0.0168466 0.045425 0.0660612
internal_weight=471.4 295.971 175.429 273.224 249.121 86.5866 57.4944 42.2369 15.2574 29.0923 162.534 44.178 118.356 20.6104 13.963 35.7311 24.3361 11.9975 11.395
internal_count=1908 1108 800 1029 938 302 204 156 48 98 636 168 468 81 54 139 95 47 44
is_linear=0
shrinkage=0.05


Tree=19
num_leaves=20
num_cat=0
split_feature=30 45 124 79 159 97 95 127 76 25 11 149 43 91 151 25 155 120 121
split_gain=180.38 44.4268 26.1556 26.1225 12.9518 16.5623 12.506 12.4615 11.0484 14.0298 8.25638 7.99696 12.3054 9.60584 7.9443 7.69542 7.00914 10.0113 6.58386
threshold=2.5000000000000004 2.5000000000000004 31.500000000000004 12.500000000000002 6.5000000000000009 44.500000000000007 41.500000000000007 32.500000000000007 11.500000000000002 6.5000000000000009 1.5000000000000002 14.500000000000002 1.5000000000000002 48.500000000000007 8.5000000000000018 6.5000000000000009 1.5000000000000002 11.500000000000002 32.500000000000007
decision_type=2 2 2 2 2 2 2 2 2 2 2 2 2 2 2 2 2 2 2
left_child=1 4 18 11 8 15 -7 -4 9 16 -5 -2 -13 -14 -15 -6 -1 -18 -3
right_child=3 2 7 10 5 6 -8 -9 -10 -11 -12 12 13 14 -16 -17 17 -19 -20
leaf_value=-0.039391975412415653 0.084638938556481857 -0.038368981651372085 0.01782182842192678 0.038280646350426745 -0.035892497565240933 -0.015096116181881053 0.065276970535066134 0.085864286394853287 -0.03547033425049835 0.042013128159727145 -0.040155971648141053 0.00083531550410458056 0.076278222568292448 0.059795681706252303 -0.0070306191053681258 -6.3325892364869682e-05 0.06191643900855405 -0.029606094188404975 0.02356844029017191
leaf_weight=23.300825975835323 31.980004027485847 12.478012293577196 11.15860775113106 5.576329678297042 33.166412532329559 8.1382858157157916 11.941905885934828 16.950949043035507 183.07140973210335 10.715927094221113 8.4222231954336149 9.2836623042821866 40.831613913178444 11.021036654710771 7.4561428129672995 27.340392351150513 4.987887501716612 7.4520706608891487 6.5390037298202506
leaf_count=134 79 56 39 23 145 35 36 44 869 37 40 32 103 28 23 119 17 28 21
internal_value=0.000491891 -0.0170161 0.0282154 0.0550831 -0.0238896 -0.00664477 0.0327026 0.0588536 -0.0299443 -0.00816783 -0.00891071 0.0639903 0.0543632 0.062742 0.0328291 -0.0197029 -0.0232133 0.0070905 -0.0170718
internal_weight=471.813 357.242 47.1266 114.571 310.115 80.587 20.0802 28.1096 229.528 46.4567 13.9986 100.572 68.5925 59.3088 18.4772 60.5068 35.7408 12.44 19.017
internal_count=1908 1580 160 328 1420 335 71 83 1085 216 63 265 186 154 51 264 179 45 77
is_linear=0
shrinkage=0.05


Tree=20
num_leaves=20
num_cat=0
split_feature=9 74 123 98 45 87 85 130 81 5 6 33 33 109 34 48 158 144 67
split_gain=66.8371 42.233 24.1434 11.3405 8.70604 7.53367 7.78917 8.63654 7.19943 7.08408 7.58592 6.57235 14.6189 6.67634 7.04194 6.96627 7.79959 6.26459 6.22784
threshold=13.500000000000002 13.500000000000002 31.500000000000004 24.500000000000004 1.5000000000000002 3.5000000000000004 2.5000000000000004 24.500000000000004 27.500000000000004 7.2080994386527673 16.864021571648696 18.500000000000004 23.500000000000004 11.500000000000002 1.0000000180025095e-35 1.0000000180025095e-35 5.5000000000000009 23.500000000000004 1.5000000000000002
decision_type=2 2 2 2 2 2 2 2 2 2 2 2 2 2 2 2 2 2 2
left_child=-1 2 4 -3 11 -5 -7 8 17 10 -10 -2 -13 -14 15 -15 -17 18 -8
right_child=1 3 -4 5 -6 6 7 -9 9 -11 -12 12 13 14 -16 16 -18 -19 -20
leaf_value=0.08116264040890564 -0.014575946878333646 0.042197899350006014 -0.03974201395600839 -0.024847642055392905 -0.021513500082746814 0.069288587953254308 0.043269631260893303 0.00049234347143504466 0.055672769017273339 0.07586259789789089 -0.022142379545615556 0.089617325039835605 -0.023081042288157983 0.0027088349885073318 -0.0051214678357242365 0.033768095199251912 0.1356477314114837 -0.029067475984646169 -0.016400622479308048
leaf_weight=23.636923000216484 27.520383045077324 24.640643641352654 94.294840507209301 17.748484790325165 54.932792104780674 5.2512558102607718 12.925162509083753 126.28035213053226 6.8849795460701007 10.492570862174032 5.7457296401262283 5.9251855462789527 13.55758875608444 5.4205205738544464 13.686326801776886 4.4591511785984039 3.2462272718548775 8.1663054823875409 6.6086464822292319
leaf_count=124 104 115 328 62 206 28 61 504 34 56 20 34 48 22 56 21 22 28 24
internal_value=-0.000780603 -0.00510606 -0.0205199 0.0101911 -0.00644162 0.00624977 0.00927646 0.00749705 0.0249016 0.0454985 0.0202745 0.00477475 0.0162779 0.00551368 0.0199726 0.0461381 0.0766893 0.00770781 0.0230821
internal_weight=471.424 447.787 223.043 224.744 128.748 200.103 182.355 177.104 50.8234 23.1233 12.6307 73.8154 46.295 40.3698 26.8122 13.1259 7.70538 27.7001 19.5338
internal_count=1897 1773 841 932 513 817 755 727 223 110 54 307 203 169 121 65 43 113 85
is_linear=0
shrinkage=0.05


Tree=21
num_leaves=20
num_cat=0
split_feature=46 99 30 33 105 159 155 102 45 53 152 99 160 30 78 122 23 145 0
split_gain=29.5437 13.5871 11.8542 12.5343 7.60628 6.88787 7.30532 8.31672 6.71073 8.22013 8.64861 8.14528 12.5612 10.5143 12.5779 8.95732 10.0104 11.0741 7.90841
threshold=2.5000000000000004 12.500000000000002 2.5000000000000004 8.5000000000000018 28.500000000000004 11.500000000000002 10.500000000000002 19.500000000000004 2.5000000000000004 1.5000000000000002 10.500000000000002 25.500000000000004 1.5000000000000002 1.5000000000000002 15.500000000000002 21.500000000000004 6.5000000000000009 22.500000000000004 35.500000000000007
decision_type=2 2 2 2 2 2 2 2 2 2 2 2 2 2 2 2 2 2 2
left_child=1 -1 4 -4 5 6 8 -8 9 10 11 -3 15 -14 18 -13 17 -17 -15
right_child=-2 2 3 -5 -6 -7 7 -9 -10 -11 -12 12 13 14 -16 16 -18 -19 -20
leaf_value=-0.039015305814251409 -0.025039669930690085 -0.0057755897751212513 0.03546738714454787 -0.031667988909245742 -0.04042700335761517 -0.038830456087974252 0.0071813173146491093 0.087844279008803705 -0.016961341252301265 0.075071999271002485 -0.04085216830318919 0.086448933337698541 0.0050964826709178996 0.016615075998560835 -0.010035123470317035 -0.013491938797403277 0.081252867803337958 0.048433371146716392 0.069362318146072799
leaf_weight=15.917059406638144 94.626454830169678 42.590755648910999 8.8729483932256681 32.120583154261112 6.9231726676225653 6.3888170272111884 5.9474916905164701 6.9061560332775116 18.715033546090126 5.3979589045047751 7.3195092976093283 8.9181872904300672 132.87156990170479 11.084570020437242 11.920603871345518 14.631119608879091 7.6915697902441016 14.252172186970709 19.798363670706749
leaf_count=109 339 193 29 129 29 28 26 22 71 18 33 32 541 43 48 61 26 50 70
internal_value=-5.26822e-05 0.006198 0.00818409 -0.0171367 0.0114141 0.0125555 0.0136213 0.0505208 0.0120145 0.013976 0.0127594 0.0142471 0.0181029 0.0120392 0.0335908 0.0415186 0.0305631 0.0170645 0.0504302
internal_weight=472.894 378.268 362.351 40.9935 321.357 314.434 308.045 12.8536 295.191 276.476 271.078 263.759 221.168 175.675 42.8035 45.493 36.5749 28.8833 30.8829
internal_count=1897 1558 1449 158 1291 1262 1234 48 1186 1115 1097 1064 871 702 161 169 137 111 113
is_linear=0
shrinkage=0.05


Tree=22
num_leaves=20
num_cat=0
split_feature=141 68 161 122 109 104 84 128 73 9 88 94 64 88 157 130 61 93 122
split_gain=16.562 12.6899 12.3271 13.1883 10.1411 10.3616 13.1532 12.3684 9.98659 9.4242 15.3597 8.18869 7.14823 7.04752 7.02143 6.75746 6.72537 6.71522 6.82197
threshold=7.5000000000000009 2.5000000000000004 1.0000000180025095e-35 19.500000000000004 5.5000000000000009 16.500000000000004 33.500000000000007 25.500000000000004 11.500000000000002 35.500000000000007 33.500000000000007 32.500000000000007 1.0000000180025095e-35 16.500000000000004 2.5000000000000004 25.500000000000004 1.0000000180025095e-35 26.500000000000004 21.500000000000004
decision_type=2 2 2 2 2 2 2 2 2 2 2 2 2 2 2 2 2 2 2
left_child=-1 2 8 -4 -5 6 7 16 -2 17 -11 -3 -13 -9 -7 -8 -6 -10 -19
right_child=1 11 3 4 5 14 15 13 9 10 -12 12 -14 -15 -16 -17 -18 18 -20
leaf_value=-0.037015681169327845 -0.019268589828538241 -0.0091810241292526081 -0.024748573685121046 -0.032655677086298449 0.093282169340320631 -0.043092825897753345 0.034511125131444199 0.02477438157149886 -0.032354687371409389 0.055084319345472567 -0.01620610086877727 0.10258094763679282 0.032709701372809555 -0.030966087402676687 0.029205182403978583 0.086605446343008166 0.029272704868612942 0.02796835102070282 -0.003305391718110005
leaf_weight=27.785544402897358 80.662245884537697 6.0346884876489666 16.985488042235374 7.4136478304862967 5.8794870823621777 7.6489409655332548 10.729053527116777 10.399455919861795 17.579544954001904 18.896137416362766 12.589136645197867 5.9338202178478232 9.5547126531600934 12.470864981412886 5.9866956323385239 14.828770056366919 13.586226612329481 19.483929097652435 166.0422001183033
leaf_count=165 268 26 78 32 22 31 44 40 83 66 45 20 38 56 19 51 51 81 681
internal_value=0.000429689 0.00277988 0.000866232 0.0156229 0.0233326 0.0284238 0.0364119 0.0193127 -0.00409217 0.00112612 0.0265794 0.0402274 0.0594781 -0.00562011 -0.0113505 0.0647365 0.0486063 -0.00281962 -2.10275e-05
internal_weight=470.491 442.705 421.182 105.929 88.9431 81.5295 67.8939 42.336 315.253 234.591 31.4853 21.5232 15.4885 22.8703 13.6356 25.5578 19.4657 203.106 185.526
internal_count=1897 1732 1648 424 346 314 264 169 1224 956 111 84 58 96 50 95 73 845 762
is_linear=0
shrinkage=0.05


Tree=23
num_leaves=20
num_cat=0
split_feature=41 0 78 76 45 78 125 120 23 4 150 100 91 102 128 88 25 159 130
split_gain=162.054 42.3992 30.5562 19.8018 14.1494 12.9565 10.0511 8.75715 9.72728 8.25547 6.85537 6.29947 6.193 6.45909 5.6683 5.63904 5.53209 7.07297 9.64165
threshold=2.5000000000000004 43.500000000000007 12.500000000000002 11.500000000000002 2.5000000000000004 12.500000000000002 32.500000000000007 9.5000000000000018 7.5000000000000009 11.673273155416014 15.500000000000002 44.500000000000007 38.500000000000007 12.500000000000002 38.500000000000007 1.0000000180025095e-35 6.5000000000000009 6.5000000000000009 25.500000000000004
decision_type=2 2 2 2 2 2 2 2 2 2 2 2 2 2 2 2 2 2 2
left_child=1 4 6 -3 14 10 7 -2 -9 11 -6 12 13 -5 15 -1 -17 -18 -19
right_child=2 3 -4 9 5 -7 -8 8 -10 -11 -12 -13 -14 -15 -16 16 17 18 -20
leaf_value=0.033152758627664057 0.075698196273521798 0.05392783179207692 -0.018598829116035095 0.039806659767631453 0.086844742692206989 -0.03311658696790095 0.071751196511223803 -0.02056489749746216 0.043764997695901871 0.058728504015870681 0.013623299727209779 0.021313859191940024 -0.044515674246876788 -0.025966754776138697 0.012792327461873724 -0.037053754335419062 -0.030519392639407561 -0.041016851366195602 0.021349313477095799
leaf_weight=3.4531085342168799 12.078997060656546 24.496374234557152 14.123808994889258 6.3230509012937572 5.5203652530908602 9.1348508670926076 65.713308289647102 8.3244446218013781 19.981515556573868 5.0907119065523139 7.5941399335861206 12.395446628332136 14.514724738895891 9.1108860075473768 7.8749851882457724 152.12235194444656 65.041516415774822 9.4756795614957827 17.911291673779488
leaf_count=14 30 67 62 24 16 41 158 26 56 18 26 39 59 40 30 762 314 40 75
internal_value=0.000405594 -0.016795 0.0504897 0.017422 -0.0256444 0.0126007 0.0596868 0.040056 0.0248463 -0.00143036 0.0444448 -0.0086628 -0.0210698 0.00097962 -0.0289699 -0.030296 -0.0311919 -0.0215442 -0.000228896
internal_weight=470.282 350.059 120.222 71.9312 278.128 22.2494 106.098 40.385 28.306 47.4348 13.1145 42.3441 29.9487 15.4339 255.879 248.004 244.551 92.4285 27.387
internal_count=1897 1565 332 247 1318 83 270 112 82 180 42 162 123 64 1235 1205 1191 429 115
is_linear=0
shrinkage=0.05


Tree=24
num_leaves=20
num_cat=0
split_feature=9 72 123 122 99 8 124 8 97 33 7 7 62 61 163 83 33 125 6
split_gain=58.8233 39.3169 21.9306 10.698 9.21534 9.45244 8.04495 8.61813 7.96771 7.159 6.61435 6.60305 5.95129 7.19856 10.4849 5.82124 7.14725 5.2788 6.05604
threshold=13.500000000000002 13.500000000000002 31.500000000000004 29.500000000000004 23.500000000000004 0.082272360999194175 18.500000000000004 0.021054964539007053 47.500000000000007 45.500000000000007 2.8835271317829458 2.5886381950040298 1.5000000000000002 1.0000000180025095e-35 1.0000000180025095e-35 38.500000000000007 34.500000000000007 34.500000000000007 15.791125541125544
decision_type=2 2 2 2 2 2 2 2 2 2 2 2 2 2 2 2 2 2 2
left_child=-1 2 8 4 -3 6 -6 9 11 15 -9 -2 -5 -14 -15 16 -8 18 -13
right_child=1 3 -4 12 5 -7 7 10 -10 -11 -12 17 13 14 -16 -17 -18 -19 -20
leaf_value=0.075190687374478538 -0.019250003798063839 0.051539842041152063 -0.03888314309420636 -0.014209599530448798 0.083259019731177192 -0.010649626718352193 0.0046416764740839006 0.019699405201177748 -0.036050231003352633 0.049654798813048441 0.091515424690271185 0.0008998870738301791 -0.015664738955930547 0.090487738218899438 -0.014576731834605106 -0.030522022265671862 0.051690617154706499 -0.032553626462697868 0.033159668772238207
leaf_weight=24.184136554598808 34.547122031450272 17.219038069248199 90.684567429125309 55.527953654527664 4.8076456934213629 32.87496691942215 57.480109557509422 6.4660395085811597 19.480930969119072 10.729243785142897 6.3594723492860794 42.579100847244263 8.2352323383092898 5.8304823487997037 4.0062373429536819 9.5294604599475843 9.3907101899385435 7.4389013648033133 22.098516941070557
leaf_count=124 130 82 326 206 26 125 232 28 69 52 36 173 31 33 15 31 46 27 105
internal_value=-0.000753597 -0.00487825 -0.0201287 0.00959604 0.0170553 0.0127411 0.0200812 0.0170425 -0.00664628 0.0114096 0.0553091 -0.00127597 -0.00609842 0.018824 0.0476977 0.00603869 0.0112488 0.00733442 0.0119221
internal_weight=469.47 445.286 216.829 228.457 154.857 137.638 104.763 99.955 126.145 87.1295 12.8255 106.664 73.5999 18.072 9.83672 76.4003 66.8708 72.1165 64.6776
internal_count=1897 1773 830 943 658 576 451 425 504 361 64 435 285 79 48 309 278 305 278
is_linear=0
shrinkage=0.05


Tree=25
num_leaves=20
num_cat=0
split_feature=46 105 30 81 105 99 160 122 146 7 153 7 119 110 74 102 58 104 6
split_gain=27.0284 12.6296 9.3765 13.6721 7.39396 7.60812 9.26938 9.73051 10.1146 10.3462 9.00692 8.4379 6.83882 6.56778 6.43157 7.26631 8.61649 9.1617 6.54062
threshold=2.5000000000000004 6.5000000000000009 2.5000000000000004 7.5000000000000009 28.500000000000004 25.500000000000004 1.5000000000000002 21.500000000000004 25.500000000000004 3.3355855855855858 2.5000000000000004 5.1558704453441306 14.500000000000002 20.500000000000004 13.500000000000002 19.500000000000004 1.0000000180025095e-35 19.500000000000004 15.263470319634704
decision_type=2 2 2 2 2 2 2 2 2 2 2 2 2 2 2 2 2 2 2
left_child=1 -1 4 -4 5 13 7 -7 9 10 -9 -11 -12 -3 15 -2 17 -17 -16
right_child=14 2 3 -5 -6 6 -8 8 -10 11 12 -13 -14 -15 18 16 -18 -19 -20
leaf_value=-0.022314885502488644 -0.042921302223659939 -0.015297421679463444 0.043198156729806182 -0.030075858025455312 -0.039787584194859116 0.081933942498060269 0.011378555620089119 0.088330147174874141 0.071015246666126478 -0.044629494675885985 -0.020624502977949974 0.036942696751411541 0.053196364720144163 0.04189042752481606 -0.027695159053363456 0.049460778212238071 -0.047696727667446509 -0.016991667713680599 0.043195733825052832
leaf_weight=35.892586641013622 44.616564087569714 34.990412957966328 8.0801315158605558 30.010982200503349 6.7968542948365203 9.1197891980409604 205.69153165817261 5.8485318124294308 9.3328543007373792 10.13820521533489 6.8309386521577817 4.6125853806734076 5.8022302538156509 5.8615848422050467 6.3952370285987836 7.7409924417734173 11.6318182349205 15.719068914651869 6.6235746592283249
leaf_count=194 159 164 26 124 29 31 809 19 31 43 26 16 21 25 28 28 41 58 25
internal_value=-1.46101e-05 0.00590522 0.00885726 -0.0145325 0.0117781 0.0129534 0.016135 0.0350644 0.0250224 0.012106 0.0370298 -0.0191218 0.0132803 -0.00709191 -0.0242111 -0.0295329 -0.0125105 0.00493529 0.00837197
internal_weight=471.736 379.009 343.117 38.0911 305.026 298.229 257.377 51.6851 42.5653 33.2325 18.4817 14.7508 12.6332 40.852 92.7273 79.7084 35.0919 23.4601 13.0188
internal_count=1897 1558 1364 150 1214 1185 996 187 156 125 66 59 47 189 339 286 127 86 53
is_linear=0
shrinkage=0.05


Tree=26
num_leaves=20
num_cat=0
split_feature=141 109 68 109 8 0 104 122 84 128 29 156 43 93 107 122 136 19 144
split_gain=15.4125 11.8301 10.247 10.5527 8.91882 10.6643 8.55619 16.1131 11.198 10.8212 10.5195 9.11193 8.55177 9.35587 7.90053 7.74856 8.60654 8.6678 7.72615
threshold=7.5000000000000009 23.500000000000004 2.5000000000000004 6.5000000000000009 0.05298245614035086 25.500000000000004 16.500000000000004 19.500000000000004 33.500000000000007 25.500000000000004 1.5000000000000002 6.5000000000000009 2.5000000000000004 26.500000000000004 10.500000000000002 21.500000000000004 1.0000000180025095e-35 26.500000000000004 28.500000000000004
decision_type=2 2 2 2 2 2 2 2 2 2 2 2 2 2 2 2 2 2 2
left_child=-1 2 3 -2 5 -5 7 -6 9 -9 -8 -11 13 -7 18 -16 -17 -18 -15
right_child=1 -3 -4 4 6 12 10 8 -10 11 -12 -13 -14 14 15 16 17 -19 -20
leaf_value=-0.036213684709018298 -0.022937039026472324 -0.019074338824438136 0.041502282194523836 -0.037986830327046306 -0.031808609037647172 -0.033671939908794912 -0.031276920612005266 0.047769349975955583 0.060550504916733694 -0.018668289152851902 0.038918539011800792 0.056637640997643936 -0.012876463234104272 -0.020729903984764236 0.061026567102213637 0.0061198758384422881 0.057790128282305113 0.002824091774230892 0.03383277223014252
leaf_weight=26.997990600764751 33.274572364985943 54.675215646624565 19.075647592544556 16.21016289293766 10.296974107623099 11.427861906588076 15.782597422599792 18.845357373356819 26.813026368618011 19.050204649567608 8.0644320100545883 5.0902305692434302 55.344208925962448 26.60487587749958 10.309208706021307 72.254281654953957 19.57555623352528 11.319824516773222 8.5805033296346647
leaf_count=165 137 217 73 79 47 50 62 68 95 79 28 19 186 108 41 296 78 39 30
internal_value=0.000462408 0.00269963 0.00576855 0.0039205 0.00658365 0.00112311 0.0187519 0.0265795 0.0351931 0.019376 -0.00753868 -0.00278935 0.00406615 0.00992398 0.0132757 0.0196949 0.0155641 0.037651 -0.00742394
internal_weight=469.593 442.595 387.92 368.844 335.569 231.626 103.943 80.0958 69.7988 42.9858 23.847 24.1404 215.416 160.072 148.644 113.459 103.15 30.8954 35.1854
internal_count=1897 1732 1515 1442 1305 907 398 308 261 166 90 98 828 642 592 454 413 117 138
is_linear=0
shrinkage=0.05


Tree=27
num_leaves=20
num_cat=0
split_feature=41 0 78 76 46 44 4 42 63 44 91 126 121 101 76 128 10 151 100
split_gain=145.356 39.2413 26.736 17.138 11.7562 11.6439 8.68331 8.3762 10.4261 8.40373 7.13704 10.7688 6.40369 5.75983 5.66357 8.44642 7.65916 6.5707 5.37361
threshold=2.5000000000000004 43.500000000000007 12.500000000000002 11.500000000000002 2.5000000000000004 2.5000000000000004 11.901174317523258 2.5000000000000004 1.5000000000000002 2.5000000000000004 47.500000000000007 33.500000000000007 33.500000000000007 28.500000000000004 11.500000000000002 33.500000000000007 5.5000000000000009 5.5000000000000009 44.500000000000007
decision_type=2 2 2 2 2 2 2 2 2 2 2 2 2 2 2 2 2 2 2
left_child=1 4 7 -3 13 -6 18 8 9 -2 -9 -12 -4 14 15 16 17 -1 -5
right_child=2 3 12 6 5 -7 -8 10 -10 -11 11 -13 -14 -15 -16 -17 -18 -19 -20
leaf_value=-0.035829984959539929 -0.024041638320182218 0.049855015475621739 -0.040721720099659207 -0.020336386177465957 -0.019512840450002782 0.047789708053386469 0.061605532249570175 0.07439074374478552 0.070171061371912355 0.04570930365791441 -0.0022675667664771569 0.065390819966528457 0.032506526963653019 0.019198006545295479 -0.033200038953599791 0.05635328196170164 0.049864139447583056 0.028347259248854079 0.018438865588517109
leaf_weight=30.207598648965359 9.3638165444135701 25.098464205861092 9.6135654449462873 29.485344082117081 16.801677346229553 10.407234609127046 4.9183368086814871 53.425042077898979 11.092556342482565 8.0141737461090088 8.872723728418352 17.443107783794403 4.3302074968814841 6.1935536712408057 197.22318284958601 3.973275050520896 3.5374813601374617 4.5949957445263854 12.819910347461699
leaf_count=171 31 67 45 123 74 32 16 122 30 20 25 42 17 23 975 13 14 16 41
internal_value=0.000307092 -0.016278 0.0471833 0.0164686 -0.024955 0.00622995 -0.00127572 0.0555801 0.0322992 0.00812527 0.0638923 0.0425789 -0.0179809 -0.028408 -0.0296389 -0.0130404 -0.0202318 -0.0273566 -0.00858618
internal_weight=467.416 345.261 122.155 72.3221 272.939 27.2089 47.2236 108.211 28.4705 17.378 79.7409 26.3158 13.9438 245.73 239.537 42.3134 38.3401 34.8026 42.3053
internal_count=1897 1565 332 247 1318 106 180 270 81 51 189 67 62 1212 1189 214 201 187 164
is_linear=0
shrinkage=0.05


Tree=28
num_leaves=20
num_cat=0
split_feature=122 9 74 77 99 33 87 43 8 82 110 158 96 97 128 96 116 93 104
split_gain=53.4206 39.1478 12.7053 12.2629 15.0372 6.53026 7.11024 5.34312 6.77646 8.59321 10.5807 6.72172 7.83697 6.52656 7.89896 6.31426 10.4327 5.28895 6.90545
threshold=29.500000000000004 12.500000000000002 13.500000000000002 11.500000000000002 23.500000000000004 3.5000000000000004 55.500000000000007 1.0000000180025095e-35 0.078278186274509817 32.500000000000007 20.500000000000004 2.5000000000000004 36.500000000000007 27.500000000000004 22.500000000000004 39.500000000000007 11.500000000000002 38.500000000000007 19.500000000000004
decision_type=2 2 2 2 2 2 2 2 2 2 2 2 2 2 2 2 2 2 2
left_child=1 -1 -2 -3 -5 -6 7 8 9 11 15 -7 -13 14 -9 16 -11 18 -14
right_child=2 3 -4 4 5 6 -8 13 -10 10 -12 12 17 -15 -16 -17 -18 -19 -20
leaf_value=0.076466028810280973 -0.032306820566196007 -0.016925456815122725 -0.0053417649288860052 0.052971258338372254 -0.027158365638286136 0.047243013296818931 0.065848357915113925 -0.012368076004393741 -0.0071795380002927321 0.0057046147957431096 0.11353471333427533 -0.023503009900440734 0.094417238447727481 -0.0051839267864244656 0.071175403570041346 0.000108820468689136 0.10092039151464736 -0.014609084467451986 0.013195605712072206
leaf_weight=22.293329671025276 111.6624907925725 43.118292331695557 71.755836486816406 20.541302263736725 12.363880440592764 10.052854478359221 5.6011032164096823 4.978519529104231 21.620843857526779 5.4055239111185127 4.9629967957735053 16.761165156960487 4.3168301731348055 78.132797867059708 6.5540825426578522 8.7685602605342847 6.1498471945524216 5.58249707520008 6.6454498767852783
leaf_count=115 419 167 279 98 43 48 29 18 83 21 30 59 25 309 35 34 36 21 28
internal_value=-0.000726498 0.0128635 -0.0217577 0.00744241 0.0122525 0.00802594 0.0103706 0.00864365 0.0172311 0.0249195 0.0480845 0.0114096 0.000593916 -1.33766e-06 0.0351104 0.0321018 0.0563791 0.025006 0.0451798
internal_weight=467.268 283.85 183.418 261.557 218.438 197.897 185.533 179.932 90.2666 68.6457 25.2869 43.3588 33.3059 89.6654 11.5326 20.3239 11.5554 16.5448 10.9623
internal_count=1897 1199 698 1084 917 819 776 747 385 302 121 181 133 362 53 91 57 74 53
is_linear=0
shrinkage=0.05


Tree=29
num_leaves=20
num_cat=0
split_feature=47 127 11 124 139 129 95 94 146 150 3 64 5 117 4 128 82 152 61
split_gain=24.3286 12.9439 9.03871 8.88598 8.50329 17.9641 7.96829 6.96353 6.89351 9.84692 10.5056 7.67915 7.41684 7.2301 6.97715 7.54186 10.3 10.3274 7.46922
threshold=2.5000000000000004 14.500000000000002 4.5000000000000009 35.500000000000007 2.5000000000000004 32.500000000000007 49.500000000000007 35.500000000000007 8.5000000000000018 9.5000000000000018 36.800677436164676 2.5000000000000004 13.798803827751197 10.500000000000002 18.991228070175442 31.500000000000004 15.500000000000002 1.5000000000000002 1.0000000180025095e-35
decision_type=2 2 2 2 2 2 2 2 2 2 2 2 2 2 2 2 2 2 2
left_child=1 -1 3 6 7 -6 8 -2 -3 10 -10 12 14 -12 15 16 -11 18 -18
right_child=4 2 -4 -5 5 -7 -8 -9 9 11 13 -13 -14 -15 -16 -17 17 -19 -20
leaf_value=-0.030495237361395412 0.0090393185683705964 -0.016506391667604148 -0.0157197028652949 -0.015330902570787178 0.064558521981900804 -0.031175479550511861 0.058664075759579305 -0.037585356870090299 -0.0057371204271729941 0.023377937606137447 0.095224007663894189 -0.030936111742905004 0.062930482360357753 0.03088838915009683 0.054153697932705497 0.026143306270028845 0.058447497247570271 -0.01198347294619744 -0.0002159302905295359
leaf_weight=23.308965601027012 9.2157309204339963 19.971003845334053 36.186423271894455 29.849068999290466 7.8585136458277729 13.016995988786219 9.3753040879964811 61.120478190481663 7.4988331943750408 47.569927297532558 9.2888868004083651 10.525707654654978 7.1326006650924674 8.2415945976972562 9.027055621147154 50.217911027371883 9.9128073826432246 89.169173449277878 11.987813815474508
leaf_count=148 38 88 144 111 28 48 32 226 28 187 30 46 26 33 36 183 38 376 51
internal_value=2.55243e-05 0.00560143 0.00796515 0.0106454 -0.0231594 0.00486326 0.0133199 -0.0314764 0.0118046 0.0139744 0.0437916 0.0108059 0.0127585 0.0649779 0.0111161 0.00925598 0.00391025 -0.00442754 0.0263367
internal_weight=470.475 379.263 355.954 319.768 91.2117 20.8755 289.919 70.3362 280.543 260.572 25.0293 235.543 225.017 17.5305 217.885 208.858 158.64 111.07 21.9006
internal_count=1897 1557 1409 1265 340 76 1154 264 1122 1034 91 943 897 63 871 835 652 465 89
is_linear=0
shrinkage=0.05


Tree=30
num_leaves=20
num_cat=0
split_feature=141 109 87 66 125 68 148 83 34 30 36 104 146 83 81 33 81 69 100
split_gain=14.3361 10.8706 9.32351 11.9166 11.6721 8.64858 9.32309 8.68212 8.52734 12.7401 11.1525 12.4105 9.30545 8.22152 8.04681 7.53761 8.29225 7.5322 7.51329
threshold=7.5000000000000009 23.500000000000004 14.500000000000002 1.0000000180025095e-35 17.500000000000004 2.5000000000000004 32.500000000000007 1.0000000180025095e-35 1.0000000180025095e-35 1.5000000000000002 -0.9159756150367534 16.500000000000004 15.500000000000002 28.500000000000004 19.500000000000004 10.500000000000002 12.500000000000002 1.5000000000000002 29.500000000000004
decision_type=2 2 2 2 2 2 2 2 2 2 2 2 2 2 2 2 2 2 2
left_child=-1 2 3 15 -4 6 7 -6 -9 10 11 -10 -11 -12 17 -2 -17 -5 -15
right_child=1 -3 4 14 5 -7 -8 8 9 12 13 -13 -14 18 -16 16 -18 -19 -20
leaf_value=-0.03542771785138684 -0.0032927846928858051 -0.018403974861139125 -0.040979474039913866 -0.010886273983648439 0.061113932333029843 0.044576388234911682 -0.034380336041019859 -0.0090203817328548281 0.090526638793239578 -0.040792147841189709 -0.020095769545707402 0.013313003333125076 0.0046712877081957335 -0.028406016989916447 0.055166772938573229 0.09510656586142606 0.035965877715647514 0.027747448580657343 0.034741483734402903
leaf_weight=26.212918512523174 7.5488316416740409 53.941154129803181 15.781902343034742 44.336762756109238 6.4455994665622702 12.099703729152678 17.06952278316021 96.893023431301117 11.489227071404452 14.66823750734329 14.176570206880575 9.5129681527614576 48.371374443173409 5.5805851072072974 7.4316344410181037 8.2794707268476504 20.860777124762535 17.634049341082573 30.208162620663643
leaf_count=165 31 217 78 167 22 45 58 409 37 53 62 37 170 24 29 28 80 66 119
internal_value=0.000499737 0.00262884 0.00554997 0.0181868 0.000800842 0.0032749 0.00131064 0.00387748 0.00227972 0.0104502 0.0249803 0.0555526 -0.00590727 0.0121297 0.00600292 0.0412344 0.0527692 0.000107111 0.0248948
internal_weight=468.542 442.33 388.388 106.092 282.297 266.515 254.415 237.346 230.9 134.007 70.9675 21.0022 63.0396 49.9653 69.4024 36.6891 29.1402 61.9708 35.7887
internal_count=1897 1732 1515 401 1114 1036 991 933 911 502 279 74 223 205 262 139 108 233 143
is_linear=0
shrinkage=0.05


Tree=31
num_leaves=20
num_cat=0
split_feature=41 0 78 76 45 78 4 42 63 44 91 126 121 1 47 65 76 3 95
split_gain=130.492 36.1489 23.5001 15.1402 12.4497 11.0147 7.83015 7.40566 9.30084 7.56678 6.37369 9.58219 6.044 5.53151 7.18613 10.4921 5.85325 8.82879 8.85604
threshold=2.5000000000000004 43.500000000000007 12.500000000000002 11.500000000000002 2.5000000000000004 12.500000000000002 11.901174317523258 2.5000000000000004 1.5000000000000002 2.5000000000000004 47.500000000000007 33.500000000000007 33.500000000000007 21.500000000000004 1.5000000000000002 1.5000000000000002 11.500000000000002 48.826293103448286 30.500000000000004
decision_type=2 2 2 2 2 2 2 2 2 2 2 2 2 2 2 2 2 2 2
left_child=1 4 7 -3 13 -6 -5 8 9 -2 -9 -12 -4 16 -15 -16 17 -1 -19
right_child=2 3 12 6 5 -7 -8 10 -10 -11 11 -13 -14 14 15 -17 -18 18 -20
leaf_value=-0.027823349842989026 -0.023620794611235906 0.046451944117727732 -0.040084502693023431 -0.0083802537214241659 0.039788619204983694 -0.031983226821205434 0.05754004104325823 0.069464203979768088 0.065331949754364738 0.042389797444199136 -0.0027190782245244452 0.060823814496167861 0.030989041235447091 -0.024847845410585413 -0.01500788679556362 0.076438721583876074 -0.035238102776537057 0.070882614129689617 -0.021891921687163769
leaf_weight=29.138946898281574 9.2986431717872655 25.585897073149681 9.3701634481549245 42.082083076238632 13.534902632236482 8.8352425396442396 5.0447899103164664 54.393550664186478 11.362333253026007 8.1432480663061142 8.9015329182147997 17.79045769572258 4.3938633799552909 30.586587652564049 8.4254297763109189 4.9969534948468199 161.93796020001173 5.3207361474633199 4.9797591716051102
leaf_count=162 31 67 45 164 42 41 16 122 30 20 25 42 17 151 37 20 821 23 21
internal_value=0.000201052 -0.0157765 0.0441937 0.0154874 -0.0242666 0.0114418 -0.00132368 0.051908 0.03013 0.00719815 0.0596442 0.0396328 -0.0173958 -0.0275219 -0.0114635 0.0190363 -0.0310313 -0.0137581 0.0260309
internal_weight=464.123 340.469 123.654 72.7128 267.757 22.3701 47.1269 109.89 28.8042 17.4419 81.0855 26.692 13.764 245.386 44.009 13.4224 201.377 39.4394 10.3005
internal_count=1897 1565 332 247 1318 83 180 270 81 51 189 67 62 1235 208 57 1027 206 44
is_linear=0
shrinkage=0.05


Tree=32
num_leaves=20
num_cat=0
split_feature=122 9 75 77 99 63 105 114 24 104 45 24 21 146 123 62 1 32 159
split_gain=48.9595 34.939 11.8987 11.0623 13.371 5.87664 7.03664 11.0006 7.00305 8.59167 6.44977 9.2464 10.1797 6.58072 6.03693 5.13644 6.82763 6.33105 5.04951
threshold=29.500000000000004 12.500000000000002 13.500000000000002 11.500000000000002 23.500000000000004 2.5000000000000004 24.500000000000004 10.500000000000002 3.5000000000000004 12.500000000000002 1.5000000000000002 8.5000000000000018 2.5000000000000004 18.500000000000004 26.500000000000004 1.0000000180025095e-35 22.500000000000004 14.500000000000002 1.0000000180025095e-35
decision_type=2 2 2 2 2 2 2 2 2 2 2 2 2 2 2 2 2 2 2
left_child=1 -1 -2 18 -5 6 8 -8 9 -6 11 -10 13 -13 -12 -4 17 -17 -3
right_child=2 3 15 4 5 -7 7 -9 10 -11 14 12 -14 -15 -16 16 -18 -19 -20
leaf_value=0.072031405904192852 -0.031509221212631069 0.017735632871527376 -0.022018310011796775 0.04958525683675645 0.013036658254016974 -0.027365184047276184 -0.020656862865326739 0.073238339531409832 -0.0041478504167957184 0.082270600335181091 0.007636412211027007 0.10290345191942037 0.012804190299281652 0.030033974967427962 -0.026473614661696072 0.04873786191727799 0.054164328844842569 -0.010786678561288454 -0.024990625044589578
leaf_weight=22.485817402601242 108.68121505528688 8.6919253319501859 27.923252508044243 20.963056609034538 15.022447213530542 11.332393929362295 4.5772793740034095 9.7937783151864988 51.17407700419426 6.3858990371227256 23.670009851455688 6.0216022431850416 35.562410518527031 6.3820407837629318 28.699186593294144 5.1817811876535407 6.1727994978427878 32.387556359171867 33.827863097190857
leaf_count=115 419 38 100 98 62 40 16 52 200 35 97 35 149 29 104 26 30 123 129
internal_value=-0.000698167 0.0122181 -0.0210802 0.00708671 0.0116068 0.00759848 0.00971405 0.0433321 0.00692008 0.0336885 0.00313769 0.0106355 0.0264076 0.06541 -0.0110564 -0.0052645 0.00543047 -0.00257671 -0.0162565
internal_weight=464.936 284.59 180.347 262.104 219.584 198.621 187.289 14.3711 172.918 21.4083 151.509 99.1401 47.9661 12.4036 52.3692 71.6654 43.7421 37.5693 42.5198
internal_count=1897 1199 698 1084 917 819 779 68 711 97 614 413 213 64 201 279 179 149 167
is_linear=0
shrinkage=0.05


Tree=33
num_leaves=20
num_cat=0
split_feature=46 99 30 33 20 3 115 157 147 153 102 94 110 93 113 89 6 147 121
split_gain=23.1328 11.1045 9.04148 11.1447 6.38308 6.4447 9.18432 6.44855 10.1736 9.18242 8.24482 7.46307 7.2614 7.14692 7.98755 10.2065 7.4451 7.02312 7.7061
threshold=2.5000000000000004 12.500000000000002 2.5000000000000004 10.500000000000002 12.500000000000002 61.596293949952489 26.500000000000004 7.5000000000000009 17.500000000000004 9.5000000000000018 17.500000000000004 33.500000000000007 17.500000000000004 47.500000000000007 8.5000000000000018 35.500000000000007 14.591985723556133 14.500000000000002 18.500000000000004
decision_type=2 2 2 2 2 2 2 2 2 2 2 2 2 2 2 2 2 2 2
left_child=1 -1 4 -4 5 7 -7 9 -9 13 11 -10 -11 14 15 16 -3 -16 -19
right_child=-2 2 3 -5 -6 6 -8 8 10 12 -12 -13 -14 -15 17 -17 -18 18 -20
leaf_value=-0.037203295660837299 -0.022839523306307792 0.031422523698221252 0.028950103198665422 -0.031328470624826292 -0.024382445805532647 -0.013527911997567511 0.053838760787768281 -0.044133473653013365 0.041777498532986818 0.023237845339040473 0.045094313740180671 -0.029393307390506843 0.092652025907328822 0.061794427161014409 -0.0091369259024984811 -0.0047333011901873889 0.086911951683002309 0.063072243118990387 0.011191683208291297
leaf_weight=14.677863858640192 89.329492188990116 17.193507499992851 10.412905827164648 29.088804133236408 13.040603950619696 42.440929174423218 5.7441321909427634 11.341396778821943 5.1348109245300355 8.1585891097784025 11.315480574965475 13.031654149293898 7.0002899765968314 7.8486242443323126 42.584931142628193 11.944224186241625 9.3225458562374097 7.6463078930973998 111.97950068116188
leaf_count=109 339 67 34 124 54 177 19 53 17 31 38 55 20 28 200 54 32 28 418
internal_value=5.49063e-05 0.00543819 0.00715187 -0.0154386 0.00989147 0.0113209 -0.00549714 0.0143847 -0.00388982 0.0177199 0.0115915 -0.00927665 0.0552929 0.0149884 0.0131578 0.0336443 0.0509316 0.0083004 0.0145078
internal_weight=469.237 379.907 365.229 39.5017 325.728 312.687 48.1851 264.502 40.8233 223.679 29.4819 18.1665 15.1589 208.52 200.671 38.4603 26.5161 162.211 119.626
internal_count=1897 1558 1449 158 1291 1237 196 1041 163 878 110 72 51 827 799 153 99 646 446
is_linear=0
shrinkage=0.05


Tree=34
num_leaves=20
num_cat=0
split_feature=141 68 100 112 3 47 69 112 123 30 7 97 141 97 120 21 94 124 141
split_gain=13.2917 10.7315 11.0065 10.9077 8.21251 8.17292 7.95214 7.84504 7.71636 7.52967 10.4583 9.04691 9.86739 9.34284 9.02936 8.55791 7.19877 6.74578 6.31285
threshold=15.500000000000002 2.5000000000000004 41.500000000000007 24.500000000000004 45.101572095308292 1.5000000000000002 1.0000000180025095e-35 18.500000000000004 29.500000000000004 1.5000000000000002 5.4295326645461222 34.500000000000007 18.500000000000004 27.500000000000004 18.500000000000004 3.5000000000000004 30.500000000000004 14.500000000000002 13.500000000000002
decision_type=2 2 2 2 2 2 2 2 2 2 2 2 2 2 2 2 2 2 2
left_child=17 2 3 9 5 -4 8 -3 -5 10 11 13 -13 -2 -14 16 -15 -1 -19
right_child=1 7 4 6 -6 -7 -8 -9 -10 -11 -12 12 14 15 -16 -17 -18 18 -20
leaf_value=-0.039535031223608533 0.0035277994341082978 0.083691613005007728 -0.0071795687918137455 0.042594813244756988 -0.014415300548203417 0.053564566068292331 0.049487443329851492 0.013542310245803452 -0.032876327886321735 -0.011420477043157747 -0.041987888849280793 0.046387940603767837 -0.045225587337499769 0.066548443090507087 0.010494912031471919 0.094457828398497201 0.005712650579874393 -0.00087126472158016288 -0.02437261316079771
leaf_weight=18.488263890147209 15.570477701723574 7.5166018307209042 12.697383970022203 6.4530864506959897 90.967844471335411 9.8200274705886823 28.456278800964355 8.4840988814830762 7.12766133248806 44.941861435770988 7.7328485101461402 9.314646437764166 12.38959611952305 9.045416280627256 17.596839725971222 8.2914157658815366 10.516074299812315 102.42624524235725 39.630591534078121
leaf_count=133 72 25 52 23 317 32 94 33 27 177 34 37 49 33 69 30 37 445 178
internal_value=0.000532276 0.00663001 0.00443737 0.0122152 -0.00772334 0.0193114 0.034464 0.0464961 0.00298486 0.00530761 0.0136186 0.0188166 0.00143604 0.0345471 -0.0125273 0.0518877 0.0338437 -0.0111251 -0.0074276
internal_weight=467.467 306.922 290.921 177.436 113.485 22.5174 42.037 16.0007 13.5807 135.399 90.4573 82.7245 39.3011 43.4234 29.9864 27.8529 19.5615 160.545 142.057
internal_count=1897 1141 1083 682 401 84 144 58 50 538 361 327 155 172 118 100 70 756 623
is_linear=0
shrinkage=0.05


Tree=35
num_leaves=20
num_cat=0
split_feature=41 0 78 93 45 124 146 136 160 125 90 94 142 32 1 47 65 78 3
split_gain=117.839 33.4125 20.8443 13.31 11.6343 10.4711 10.2095 10.7593 12.7404 7.53281 6.98232 8.41174 6.18465 5.31194 5.28478 6.56136 9.33037 5.60914 8.14724
threshold=2.5000000000000004 43.500000000000007 12.500000000000002 48.500000000000007 2.5000000000000004 35.500000000000007 31.500000000000004 1.0000000180025095e-35 6.5000000000000009 32.500000000000007 30.500000000000004 43.500000000000007 14.500000000000002 12.500000000000002 21.500000000000004 1.5000000000000002 1.5000000000000002 11.500000000000002 48.826293103448286
decision_type=2 2 2 2 2 2 2 2 2 2 2 2 2 2 2 2 2 2 2
left_child=1 4 9 6 14 -6 7 8 12 10 -2 -12 -3 -10 17 -16 -17 18 -1
right_child=2 3 -4 -5 5 -7 -8 -9 13 -11 11 -13 -14 -15 15 16 -18 -19 -20
leaf_value=-0.027173928192024629 0.052276755764680917 0.019622232129170906 -0.016845273771798907 0.057765870610508058 -0.01090125152997581 0.064561370283663433 0.064058548329547424 -0.041159967602050151 0.075366920013254748 0.058936600873862321 -0.025566291748258058 0.038702039056576001 -0.031319663131696214 0.012373557178272133 -0.024126195728136346 -0.014843680839464114 0.07042595017991303 -0.034526631510118803 0.02435344917933471
leaf_weight=28.646697647869587 21.249938637018204 9.9042605087161082 13.586018048226832 14.356115259230135 15.961264707148077 6.4564209505915633 6.3250784724950782 13.757272988557814 7.9845714122056943 68.990630701184273 8.8136140108108538 12.055269092321394 14.953704394400118 5.7613898143172264 30.039858683943748 8.3935873955488187 5.1928978562355033 157.63219440728426 10.477096445858477
leaf_count=162 55 37 62 37 64 19 16 53 22 158 26 31 58 24 151 37 20 821 44
internal_value=0.000108607 -0.0153027 0.041616 0.0146118 -0.0236171 0.0108324 0.00405523 -0.00319299 0.0103373 0.0487644 0.0321023 0.0115594 -0.0110227 0.0489643 -0.0268299 -0.0110856 0.0177473 -0.0303208 -0.0133752
internal_weight=460.538 335.842 124.695 73.0424 262.8 22.4177 58.6863 52.3612 38.6039 111.109 42.1188 20.8689 24.858 13.746 240.382 43.6263 13.5865 196.756 39.1238
internal_count=1897 1565 332 247 1318 83 210 194 141 270 112 57 95 46 1235 208 57 1027 206
is_linear=0
shrinkage=0.05


Tree=36
num_leaves=20
num_cat=0
split_feature=9 80 92 99 84 72 96 95 157 87 81 92 45 103 130 126 4 150 4
split_gain=41.9133 31.4908 14.2161 9.23793 7.75817 6.5279 6.41083 6.18126 7.76328 6.4931 8.06583 6.82361 7.23059 6.721 6.01666 8.17496 5.83279 6.55485 5.38272
threshold=13.500000000000002 11.500000000000002 36.500000000000007 23.500000000000004 54.500000000000007 13.500000000000002 32.500000000000007 34.500000000000007 4.5000000000000009 38.500000000000007 40.500000000000007 32.500000000000007 1.5000000000000002 15.500000000000002 28.500000000000004 26.500000000000004 9.2642857142857178 24.500000000000004 10.718844984802432
decision_type=2 2 2 2 2 2 2 2 2 2 2 2 2 2 2 2 2 2 2
left_child=-1 6 3 -3 7 -4 -2 8 14 10 11 16 -13 -11 15 -5 17 -9 -7
right_child=1 2 5 4 -6 18 -8 9 -10 13 -12 12 -14 -15 -16 -17 -18 -19 -20
leaf_value=0.062497765691217323 -0.0049950722843316586 0.045568036973814174 -0.020514239862318151 0.013179455842522454 -0.025998750085538331 -0.0082320209742776044 -0.034536711970105723 0.069449748813980541 -0.019854449743754683 0.026171335864414405 -0.031761126976471231 0.077632215821008335 0.015951380426045565 0.10293684695708355 -0.014375878952111346 0.076455055667644434 -0.0087738147877315115 -0.0058432494864311055 0.015265748736084498
leaf_weight=24.845536157488823 23.621086739003658 19.887384578585625 58.590717926621437 21.593986839056019 14.10490235686302 67.084608688950539 82.527969434857368 6.5931312292814273 25.060035675764084 7.0630890280008298 7.522037908434867 9.6545507609844226 9.3553999811410886 4.7815508097410202 11.793432503938673 6.6846514642238608 18.178010508418083 5.1474356949329376 38.27839595079422
leaf_count=124 96 91 233 89 50 257 324 35 91 32 25 52 40 28 44 36 69 20 161
internal_value=-0.000674754 -0.00426213 0.00332996 0.0135784 0.00926623 -0.00713517 -0.0279629 0.0129942 0.00197411 0.0235038 0.0164418 0.0238523 0.0472771 0.0571607 0.0156251 0.0281369 0.00896844 0.0364389 0.000304722
internal_weight=462.368 437.522 331.373 167.42 147.532 163.954 106.149 133.427 65.1321 68.2952 56.4506 48.9285 19.01 11.8446 40.0721 28.2786 29.9186 11.7406 105.363
internal_count=1897 1773 1353 702 611 651 420 561 260 301 241 216 92 60 169 125 124 55 418
is_linear=0
shrinkage=0.05


Tree=37
num_leaves=20
num_cat=0
split_feature=46 116 30 81 105 105 125 130 88 119 86 70 107 107 7 142 98 107 87
split_gain=21.1078 10.3301 7.51721 12.4381 6.16949 5.97979 6.34335 7.44004 8.9507 10.6624 8.40685 11.9382 8.19359 10.3213 9.35983 10.0221 9.12003 9.27372 7.48897
threshold=2.5000000000000004 3.5000000000000004 2.5000000000000004 7.5000000000000009 28.500000000000004 9.5000000000000018 34.500000000000007 28.500000000000004 15.500000000000002 26.500000000000004 11.500000000000002 1.0000000180025095e-35 19.500000000000004 6.5000000000000009 5.0079365079365088 15.500000000000002 43.500000000000007 11.500000000000002 7.5000000000000009
decision_type=2 2 2 2 2 2 2 2 2 2 2 2 2 2 2 2 2 2 2
left_child=1 -1 4 -4 5 -3 7 10 -9 -10 11 18 13 -12 15 -15 17 -17 -7
right_child=-2 2 3 -5 -6 6 -8 8 9 -11 12 -13 -14 14 -16 16 -18 -19 -20
leaf_value=-0.030049857545221242 -0.022046761989122379 -0.0032566484851255131 0.040278160716520267 -0.02909397224528236 -0.039032187789374166 -0.022519598463092351 0.040606011683741436 -0.028394528394346571 0.0020187707859708323 0.068590900642268249 -0.050865729900518242 0.061821328186854096 -0.01073447678750996 -0.013622442404154667 0.058326115697265195 -0.022407274923774152 0.087513423760292336 0.035913900386113085 0.048204534677225575
leaf_weight=19.721323378384113 87.53041535615921 62.689717620611191 8.2645604163408262 29.613701842725277 6.3954086229205123 9.5916849523782712 20.568887375295162 21.184697210788727 55.522636733949184 6.74532327055931 4.8704485297203055 22.571163043379784 30.472618900239468 20.088810592889786 15.901825100183485 9.4181765764951688 5.8221188485622397 24.671901270747185 6.138579085469245
leaf_count=125 339 264 26 128 28 41 69 86 215 21 21 73 136 97 58 43 16 90 21
internal_value=9.06215e-05 0.00518642 0.00711386 -0.0139578 0.00958759 0.0105708 0.0139893 0.0116397 -0.000320831 0.00923035 0.018314 0.0385178 0.011358 0.0196926 0.0242201 0.0151811 0.0296787 0.0198013 0.00507979
internal_weight=467.784 380.254 360.532 37.8783 322.654 316.259 253.569 233 83.4527 62.268 149.547 38.3014 111.246 80.7733 75.9028 60.001 39.9122 34.0901 15.7303
internal_count=1897 1558 1433 154 1279 1251 987 918 322 236 596 135 461 325 304 246 149 133 62
is_linear=0
shrinkage=0.05


Tree=38
num_leaves=20
num_cat=0
split_feature=141 68 14 87 70 61 41 100 58 84 147 34 84 9 112 99 14 21 80
split_gain=12.6012 8.8794 8.79249 8.40458 10.0195 11.0301 9.24078 10.4808 11.0964 10.1606 8.38971 8.09225 9.63775 12.4931 7.94999 7.61085 9.07362 7.34898 7.34451
threshold=7.5000000000000009 2.5000000000000004 28.500000000000004 14.500000000000002 1.0000000180025095e-35 1.5000000000000002 2.5000000000000004 29.500000000000004 1.5000000000000002 56.500000000000007 13.500000000000002 1.0000000180025095e-35 29.500000000000004 30.500000000000004 18.500000000000004 37.500000000000007 15.500000000000002 1.5000000000000002 14.500000000000002
decision_type=2 2 2 2 2 2 2 2 2 2 2 2 2 2 2 2 2 2 2
left_child=-1 2 3 4 5 -2 7 -5 9 11 -3 17 -13 15 -12 -14 -17 -9 -6
right_child=1 10 -4 6 18 -7 -8 8 -10 -11 14 12 13 -15 -16 16 -18 -19 -20
leaf_value=-0.034098158199255137 0.017759913734348376 -0.019461206411376799 -0.04286902056715472 -0.017787269879486974 -0.0086981176504946269 0.076529038432611288 -0.0198985788294955 -0.040308482686009034 -0.043057021035301263 0.054152612001150985 0.085815606775594994 -0.0035082733498078274 0.070249225425783754 -0.00066764431980313309 0.017548487938576867 0.06271413325419721 -0.0080835386293190963 0.0020167692512432218 0.025412646060369738
leaf_weight=24.825078152120113 29.809041246771812 5.730218872427943 11.189141765236853 51.709059439599514 48.302705578505993 10.90473724901676 59.946851529181004 12.670669279992579 10.170300289988516 12.473658129572867 8.2332727909088153 36.210978850722313 18.107788398861885 21.682927399873734 8.8474051058292371 8.3795072138309497 9.8402875512838346 53.810357011854649 23.437498353421688
leaf_count=165 110 23 44 242 185 41 215 58 36 40 27 145 66 75 34 27 45 230 89
internal_value=0.000563582 0.00251277 0.000857509 0.00205828 0.0136892 0.0335006 -0.00237538 0.00209361 0.0077006 0.0106815 0.0328915 0.00730729 0.016732 0.0293662 0.0504548 0.0472926 0.0244772 -0.00605003 0.00244586
internal_weight=466.281 441.456 418.646 407.456 112.454 40.7138 295.002 235.056 183.346 173.176 22.8109 160.703 94.2215 58.0105 17.0807 36.3276 18.2198 66.481 71.7402
internal_count=1897 1732 1648 1604 425 151 1179 964 722 686 84 646 358 213 61 138 72 288 274
is_linear=0
shrinkage=0.05


Tree=39
num_leaves=20
num_cat=0
split_feature=41 0 44 76 124 129 54 62 100 101 93 141 117 151 159 92 91 105 127
split_gain=106.497 30.681 19.3003 12.2766 10.2501 9.97435 8.60065 7.12317 10.7571 6.7559 6.38194 6.30919 12.2878 6.34163 5.91711 5.3792 4.66757 4.51513 7.42085
threshold=2.5000000000000004 43.500000000000007 1.0000000180025095e-35 11.500000000000002 35.500000000000007 37.500000000000007 1.5000000000000002 1.5000000000000002 44.500000000000007 28.500000000000004 38.500000000000007 17.500000000000004 23.500000000000004 6.5000000000000009 3.5000000000000004 43.500000000000007 46.500000000000007 23.500000000000004 29.500000000000004
decision_type=2 2 2 2 2 2 2 2 2 2 2 2 2 2 2 2 2 2 2
left_child=1 4 15 16 6 11 9 14 -9 17 -6 -4 13 -13 -5 -2 -3 -1 -19
right_child=2 3 5 7 10 -7 -8 8 -10 -11 -12 12 -14 -15 -16 -17 -18 18 -20
leaf_value=-0.031084182855452915 -0.042564060556406616 0.015230235053976013 0.054715271634194609 0.018506395137374999 -0.02741708151459802 0.070147634979671636 0.035618328803399886 -0.0097962835960370993 0.075978698262522612 0.021370556354252588 0.031555086161453035 0.039661616717753027 0.050745369620120009 -0.015233868674015591 -0.028674875876518235 0.020890946438271375 0.05828201318882649 -0.03023429674194919 0.031700544173813829
leaf_weight=204.66715336591005 8.1464767605066282 10.480967298150064 30.596256442368031 9.3953333199024183 7.0140213072299984 31.137196585536003 5.5522388815879813 8.5342388376593572 6.3936478793621054 6.9030819088220587 13.262475214898584 7.5066652297973659 24.942058496177197 17.586013920605183 22.70257942378521 5.6604980230331412 15.766465246677397 12.588966041803362 7.8536129593849173
leaf_count=1094 34 29 75 39 35 71 19 34 17 25 42 19 59 54 90 20 38 71 32
internal_value=1.49022e-05 -0.0148544 0.039222 0.0136965 -0.0229679 0.0461115 -0.0258804 -0.00159365 0.0269413 -0.0273521 0.0111555 0.0368295 0.0258924 0.00118853 -0.0148645 -0.0165492 0.0410908 -0.0288462 -0.00644022
internal_weight=456.69 331.115 125.575 73.2732 257.842 111.768 237.565 47.0258 14.9279 232.013 20.2765 80.631 50.0347 25.0927 32.0979 13.807 26.2474 225.11 20.4426
internal_count=1897 1565 332 247 1318 278 1241 180 51 1222 77 207 132 73 129 54 67 1197 103
is_linear=0
shrinkage=0.05


Tree=40
num_leaves=20
num_cat=0
split_feature=122 9 77 77 145 45 157 132 92 109 5 119 33 127 159 96 127 128 111
split_gain=35.9814 21.4167 13.7801 9.88155 11.1745 6.97745 6.47056 6.05356 5.70195 5.55254 9.92044 9.77935 7.55206 5.83549 4.97626 4.56592 4.47496 4.4576 4.39522
threshold=29.500000000000004 12.500000000000002 12.500000000000002 14.500000000000002 18.500000000000004 1.5000000000000002 10.500000000000002 1.5000000000000002 49.500000000000007 10.500000000000002 6.5674044265593574 13.500000000000002 51.500000000000007 24.500000000000004 3.5000000000000004 39.500000000000007 22.500000000000004 26.500000000000004 24.500000000000004
decision_type=2 2 2 2 2 2 2 2 2 2 2 2 2 2 2 2 2 2 2
left_child=1 -1 -2 5 9 6 -3 18 14 11 -11 -5 13 -12 15 17 -7 -4 -6
right_child=2 3 8 4 7 16 -8 -9 -10 10 12 -13 -14 -15 -16 -17 -18 -19 -20
leaf_value=0.059299244432504596 -0.030934010250176093 0.0035322247179421918 0.0018617584168172038 0.095744513626507433 0.0011004999709379596 0.019003424634469215 0.063677916086878616 0.044528335326130625 0.048414066975631664 0.0082847868818593014 0.082422391572225293 0.002550438641543233 -0.010727201203384934 0.027225705730277879 -0.014543492259242785 -0.018257023774111102 -0.023291380282324303 0.054322439470356032 -0.037712755048028235
leaf_weight=21.804892525076866 89.224500760436058 81.607158817350864 8.1031271815300041 7.5666549503803235 35.530570030212402 7.3742600828409186 4.7309366539120665 6.5713477581739417 5.1444668620824805 38.829366058111191 12.689095973968511 4.482596218585968 4.3868458271026602 7.6905527114868155 52.853341042995453 7.9154298752546302 41.166239030659199 8.0938109904527646 9.1780404001474363
leaf_count=109 367 332 33 42 143 32 25 32 25 155 67 17 15 33 199 29 159 40 30
internal_value=0.00076004 0.0116894 -0.0173312 0.00772408 0.0177377 -0.00169909 0.00682794 -0.000281136 -0.00254972 0.0299527 0.0240563 0.0610742 0.0487832 0.0615931 -0.00595619 0.0128668 -0.016866 0.028077 -0.00686731
internal_weight=454.943 283.609 171.335 261.804 126.925 134.879 86.3381 51.28 82.1102 75.6451 63.5959 12.0493 24.7665 20.3796 76.9657 24.1124 48.5405 16.1969 44.7086
internal_count=1884 1191 693 1082 534 548 357 205 326 329 270 59 115 100 301 102 191 73 173
is_linear=0
shrinkage=0.05


Tree=41
num_leaves=20
num_cat=0
split_feature=30 47 117 91 81 94 68 0 81 152 43 75 89 68 10 80 70 128 125
split_gain=27.3676 9.52369 9.31548 9.14611 8.6788 7.73515 8.71495 10.4627 7.65566 6.87201 6.86552 9.14023 8.05328 7.84903 11.135 7.06276 8.21185 7.70774 7.43824
threshold=2.5000000000000004 2.5000000000000004 21.500000000000004 43.500000000000007 3.5000000000000004 29.500000000000004 2.5000000000000004 24.500000000000004 55.500000000000007 10.500000000000002 1.5000000000000002 14.500000000000002 15.500000000000002 1.0000000180025095e-35 5.5000000000000009 12.500000000000002 1.5000000000000002 31.500000000000004 25.500000000000004
decision_type=2 2 2 2 2 2 2 2 2 2 2 2 2 2 2 2 2 2 2
left_child=1 2 4 -4 -1 8 7 -7 -6 10 11 12 -9 -14 -15 -12 17 18 -17
right_child=-2 -3 3 -5 5 6 -8 9 -10 -11 15 -13 13 14 -16 16 -18 -19 -20
leaf_value=-0.035940231879097277 -0.027031358517554002 -0.019419156911430278 0.028832488961798654 -0.013983255165377909 -0.0150144868447111 0.058352810789698201 -0.041774848630628164 -0.010286898466628145 0.046149382825572537 -0.030031932582026234 -0.0049354316821621268 -0.010744153282852295 -0.0061623923829391795 0.088768567787926023 0.011995485554612217 0.064912313305692887 -0.0029091135486828735 0.094453939193546957 0.0071544308224713062
leaf_weight=13.920769363641737 83.099595330655575 36.973875544965267 71.933187939226627 15.089413687586783 60.572774097323418 11.663230597972868 7.6829084604978553 13.316850692033766 5.5879931449890128 10.39181189984083 13.423205852508543 49.373489730060101 7.451388135552409 10.533054605126383 8.5621599555015546 10.934376701712614 9.6860490143299085 7.3673981726169577 11.371246352791784
leaf_count=63 332 148 260 56 318 40 31 57 24 47 49 221 30 32 35 36 40 23 42
internal_value=-0.00106492 0.00467642 0.00730554 0.0214084 0.00243232 0.00467753 0.010273 0.0127101 -0.00984854 0.00921734 0.0120893 0.00363445 0.0214433 0.0373605 0.0543441 0.0263835 0.0370647 0.0501132 0.0354678
internal_weight=458.935 375.835 338.861 87.0226 251.839 237.918 171.757 164.074 66.1608 152.411 142.019 89.2369 39.8635 26.5466 19.0952 52.7823 39.3591 29.673 22.3056
internal_count=1884 1552 1404 316 1088 1025 683 652 342 612 565 375 154 97 67 190 141 101 78
is_linear=0
shrinkage=0.05


Tree=42
num_leaves=20
num_cat=0
split_feature=68 109 81 83 61 94 106 94 91 100 64 1 12 63 89 107 154 106 105
split_gain=11.2378 12.664 10.1688 10.2085 9.87854 8.84094 8.55128 7.66344 7.23403 7.34831 10.075 7.18449 6.99786 12.423 9.75507 6.92536 7.40136 7.68772 9.70715
threshold=2.5000000000000004 6.5000000000000009 27.500000000000004 30.500000000000004 1.5000000000000002 32.500000000000007 21.500000000000004 50.500000000000007 24.500000000000004 41.500000000000007 1.5000000000000002 13.500000000000002 1.0000000180025095e-35 2.5000000000000004 57.500000000000007 21.500000000000004 4.5000000000000009 11.500000000000002 15.500000000000002
decision_type=2 2 2 2 2 2 2 2 2 2 2 2 2 2 2 2 2 2 2
