tree
version=v4
num_class=4
num_tree_per_iteration=4
label_index=0
max_feature_idx=163
objective=multiclass num_class:4
feature_names=number_of_vehicles_entry number_of_vehicles_exit number_of_vehicles_roundabout avg_time_spent_entry avg_time_spent_exit avg_time_spent_from_roundabout avg_idle_time_entry avg_idle_time_exit avg_idle_time_from_roundabout idle_0_entry idle_1_entry idle_2_entry idle_3_entry idle_4_entry idle_0_exit idle_1_exit idle_2_exit idle_3_exit idle_4_exit time_spent_0_entry time_spent_1_entry time_spent_2_entry time_spent_3_entry time_spent_4_entry time_spent_0_exit time_spent_1_exit time_spent_2_exit time_spent_3_exit time_spent_4_exit signaling congestion_enter_rating congestion_exit_rating hour minute day_of_week hour_sin hour_cos is_rush_hour is_morning_rush is_evening_rush hour_bin congestion_enter_rating_t_m_1 congestion_enter_rating_t_m_2 congestion_enter_rating_t_m_3 congestion_enter_rating_t_m_4 congestion_enter_rating_t_m_5 congestion_enter_rating_t_m_6 congestion_enter_rating_t_m_7 congestion_enter_rating_t_m_8 congestion_enter_rating_t_m_9 congestion_enter_rating_t_m_10 congestion_exit_rating_t_m_1 congestion_exit_rating_t_m_2 congestion_exit_rating_t_m_3 congestion_exit_rating_t_m_4 congestion_exit_rating_t_m_5 congestion_exit_rating_t_m_6 congestion_exit_rating_t_m_7 congestion_exit_rating_t_m_8 congestion_exit_rating_t_m_9 congestion_exit_rating_t_m_10 signaling_t_m_1 signaling_t_m_2 signaling_t_m_3 signaling_t_m_4 signaling_t_m_5 signaling_t_m_6 signaling_t_m_7 signaling_t_m_8 signaling_t_m_9 signaling_t_m_10 hour_t_m_1 hour_t_m_2 hour_t_m_3 hour_t_m_4 hour_t_m_5 hour_t_m_6 hour_t_m_7 hour_t_m_8 hour_t_m_9 hour_t_m_10 minute_t_m_1 minute_t_m_2 minute_t_m_3 minute_t_m_4 minute_t_m_5 minute_t_m_6 minute_t_m_7 minute_t_m_8 minute_t_m_9 minute_t_m_10 number_of_vehicles_entry_t_m_1 number_of_vehicles_entry_t_m_2 number_of_vehicles_entry_t_m_3 number_of_vehicles_entry_t_m_4 number_of_vehicles_entry_t_m_5 number_of_vehicles_entry_t_m_6 number_of_vehicles_entry_t_m_7 number_of_vehicles_entry_t_m_8 number_of_vehicles_entry_t_m_9 number_of_vehicles_entry_t_m_10 number_of_vehicles_exit_t_m_1 number_of_vehicles_exit_t_m_2 number_of_vehicles_exit_t_m_3 number_of_vehicles_exit_t_m_4 number_of_vehicles_exit_t_m_5 number_of_vehicles_exit_t_m_6 number_of_vehicles_exit_t_m_7 number_of_vehicles_exit_t_m_8 number_of_vehicles_exit_t_m_9 number_of_vehicles_exit_t_m_10 number_of_vehicles_roundabout_t_m_1 number_of_vehicles_roundabout_t_m_2 number_of_vehicles_roundabout_t_m_3 number_of_vehicles_roundabout_t_m_4 number_of_vehicles_roundabout_t_m_5 number_of_vehicles_roundabout_t_m_6 number_of_vehicles_roundabout_t_m_7 number_of_vehicles_roundabout_t_m_8 number_of_vehicles_roundabout_t_m_9 number_of_vehicles_roundabout_t_m_10 idle_0_entry_t_m_1 idle_0_entry_t_m_2 idle_0_entry_t_m_3 idle_0_entry_t_m_4 idle_0_entry_t_m_5 idle_0_entry_t_m_6 idle_0_entry_t_m_7 idle_0_entry_t_m_8 idle_0_entry_t_m_9 idle_0_entry_t_m_10 idle_4_entry_t_m_1 idle_4_entry_t_m_2 idle_4_entry_t_m_3 idle_4_entry_t_m_4 idle_4_entry_t_m_5 idle_4_entry_t_m_6 idle_4_entry_t_m_7 idle_4_entry_t_m_8 idle_4_entry_t_m_9 idle_4_entry_t_m_10 time_spent_0_entry_t_m_1 time_spent_0_entry_t_m_2 time_spent_0_entry_t_m_3 time_spent_0_entry_t_m_4 time_spent_0_entry_t_m_5 time_spent_0_entry_t_m_6 time_spent_0_entry_t_m_7 time_spent_0_entry_t_m_8 time_spent_0_entry_t_m_9 time_spent_0_entry_t_m_10 time_spent_4_entry_t_m_1 time_spent_4_entry_t_m_2 time_spent_4_entry_t_m_3 time_spent_4_entry_t_m_4 time_spent_4_entry_t_m_5 time_spent_4_entry_t_m_6 time_spent_4_entry_t_m_7 time_spent_4_entry_t_m_8 time_spent_4_entry_t_m_9 time_spent_4_entry_t_m_10 camera_normanniles2 camera_normanniles3 camera_normanniles4
feature_infos=[0:58] [0:43] [0:40] [0:110] [0:109.16666666666669] [0:30] [0:41.666666666666657] [0:48.5] [0:2.9750000000000001] [0:53] [0:22] [0:13] [0:7] [0:9] [0:42] [0:11] [0:2] none none [0:42] [0:24] [0:20] [0:15] [0:18] [0:35] [0:31] [0:8] [0:7] [0:5] [0:3] [0:3] [0:3] [6:17] [0:59] [0:1] [-0.96592582628906831:1] [-1:6.123233995736766e-17] [0:1] [0:1] [0:1] [1:4] [0:3] [0:3] [0:3] [0:3] [0:3] [0:3] [0:3] [0:3] [0:3] [0:3] [0:3] [0:3] [0:3] [0:3] [0:3] [0:3] [0:3] [0:3] [0:3] [0:3] [0:3] [0:3] [0:3] [0:3] [0:3] [0:3] [0:3] [0:3] [0:3] [0:3] [6:17] [6:17] [6:17] [6:17] [6:17] [6:17] [6:17] [6:17] [6:17] [6:17] [0:59] [0:59] [0:59] [0:59] [0:59] [0:59] [0:59] [0:59] [0:59] [0:59] [0:58] [0:58] [0:58] [0:58] [0:58] [0:58] [0:58] [0:58] [0:58] [0:58] [0:40] [0:43] [0:43] [0:43] [0:43] [0:43] [0:43] [0:43] [0:43] [0:43] [0:41] [0:41] [0:41] [0:41] [0:41] [0:40] [0:41] [0:40] [0:41] [0:41] [0:53] [0:53] [0:53] [0:48] [0:53] [0:53] [0:53] [0:53] [0:53] [0:53] [0:9] [0:9] [0:9] [0:7] [0:9] [0:9] [0:9] [0:9] [0:9] [0:9] [0:42] [0:42] [0:42] [0:42] [0:42] [0:42] [0:42] [0:42] [0:42] [0:42] [0:18] [0:18] [0:18] [0:18] [0:18] [0:18] [0:18] [0:18] [0:18] [0:18] [0:1] [0:1] [0:1]
tree_sizes=2222 2184 2182 2172 2253 2233 2251 2221 2257 2234 2259 2233 2246 2249 2247 2223 2255 2244 2254 2224 2256 2241 2246 2228 2258 2239 2252 2240 2249 2236 2245 2235 2259 2262 2253 2247 2249 2247 2250 2233 2257 2250 2259 2240 2252 2240 2267 2236 2257 2264 2248 2240 2254 2237 2258 2240 2254 2245 2271 2240 2261 2262 2258 2240 2266 2238 2255 2239 2265 2249 2264 2234 2257 2236 2243 2243 2248 2248 2261 2241 2259 2246 2250 2245 2257 2256 2246 2252 2263 2256 2261 2247 2260 2240 2262 2240 2259 2248 2256 2249 2266 2254 2269 2245 2263 2249 2262 2254 2252 2252 2264 2256 2261 2252 2252 2238 2258 2248 2254 2247 2274 2254 2255 2242 2266 2249 2258 2264 2269 2247 2281 2258 2257 2251 2261 2243 2267 2267 2237 2257 2255 2259 2254 2253 2249 2260 2263 2256 2263 2250 2256 2252 2269 2243 2260 2253 2262 2251 2261 2256 2263 2262 2257 2249 2256 2256 2264 2257 2266 2243 2264 2242 2258 2263 2240 2256 2257 2253 2251 2252 2268 2271 2261 2254 2258 2265 2256 2263 2271 2269 2256 2252 2271 2257 2255 2261 2264 2255 2266 2253 2254 2259 2262 2256 2262 2259 2258 2260 2253 2254 2256 2254 2260 2248 2256 2261 2261 2265 2267 2258 2261 2248 2261 2255 2290 2251 2242 2250 2271 2256 2254 2250 2273 2248 2268 2249 2273 2259 2257 2266 2248 2269 2259 2253 2268 2272 2254 2250 2270 2271 2259 2255 2278 2269 2258 2247 2273 2261 2261 2266 2277 2256 2259 2249 2268 2257 2255 2255 2270 2254 2273 2269 2275 2253 2253 2252 2265 2265 2261 2271 2263 2264 2271 2256 2253 2256 2258 2257 2271 2264 2255 2250 2254 2269 2264 2250 2283 2263 2262 2285 2278 2267 2268 2267 2261 2259 2267 2257 2267 2255 2263 2266 2262 2265 2266 2270 2247 2271 2263 2264 2256 2252 2267 2264 2281 2259 2262 2258 2275 2259 2276 2262 2266 2255 2262 2261 2265 2258 2253 2261 2265 2254 2266 2264 2265 2252 2256 2266 2261 2245 2258 2266 2273 2261 2247 2266 2268 2255 2277 2253 2258 2260 2256 2259 2261 2246 2267 2256 2274 2255 2250 2252 2263 2264 2257 2249 2259 2258 2260 2271 2265 2270 2252 2250 2251 2251 2262 2257 2275 2251 2262 2249 2260 2251 2235 2247 2277 2251 2267 2263 2256 2266 2253 2280 2265 2252 2270 2254 2262 2259 2262 2250 2263 2261 2264 2277 2268 2250 2259 2265 2255 2260 2267 2263 2274 2265 2272 2263 2258 2267 2265 2263 2272 2263 2262 2265 2259 2268 2277 2258 2281 2276 2269 2265 2250 2283 2262 2253 2260 2261 2253 2255 2263 2254 2249 2245 2260 2256 2268 2255 2263 2260 2263 2255 2253 2260 2261 2247 2266 2260 2255 2265 2278 2270 2267 2253 2261 2265 2258 2266 2263 2274 2273 2271 2268 2263 2272 2264 2258 2256 2268 2273 2283 2261 2258 2270 2253 2247 2270 2280 2268 2265 2271 2275 2272 2274 2253 2264 2256 2268 2267 2274 2264 2262 2259 2258 2271 2272 2255 2270 2257 2257 2262 2269 2257 2271 2278 2268 2256 2278 2264 2262 2268 2272 2273 2257 2273 2257 2270 2267 2267 2267 2264 2267 2259 2262 2258 2265 2282 2252 2257 2268 2259 2257 2260 2258 2276 2263 2273 2254 2265 2257 2264 2266 2257 2248 2252 2258 2273 2272 2257 2256 2273 2272 2262 2261 2292 2271 2256 2263 2260 2261 2260 2251 2263 2258 2264 2263 2266 2262 2270 2260 2259 2270 2256 2265 2273 2249 2261 2250 2262 2261 2268 2266 2263 2260 2271 2247 2274 2261 2266 2261 2268 2264 2265 2266 2270 2266 2274 2267 2276 2256 2264 2270 2275 2255 2273 2258 2271 2257 2265 2272 2267 2273 2265 2243 2279 2265 2264 2275 2252 2273 2258 2270 2249 2275 2266 2285

Tree=0
num_leaves=20
num_cat=0
split_feature=45 121 73 91 125 42 121 123 97 158 129 109 7 76 107 30 114 141 4
split_gain=111.511 84.6067 36.9352 21.1717 19.6442 15.7909 11.5996 9.63343 7.93718 7.64811 9.65062 7.49344 8.56379 7.86978 7.22635 7.04889 6.95239 6.90615 9.55282
threshold=2.5000000000000004 12.500000000000002 11.500000000000002 35.500000000000007 30.500000000000004 1.5000000000000002 25.500000000000004 29.500000000000004 32.500000000000007 8.5000000000000018 30.500000000000004 14.500000000000002 1.5963995354239258 14.500000000000002 7.5000000000000009 1.5000000000000002 23.500000000000004 21.500000000000004 10.208711433756809
decision_type=2 2 2 2 2 2 2 2 2 2 2 2 2 2 2 2 2 2 2
left_child=1 -1 5 -2 6 15 7 16 -5 10 17 12 -6 -13 -14 -3 -4 18 -8
right_child=3 2 4 8 11 -7 9 -9 -10 -11 -12 13 14 -15 -16 -17 -18 -19 -20
leaf_value=-0.75483314067995333 -0.83071147089634589 -0.82368172996816291 -0.79166977615998291 -0.84872985795890832 -0.81788447266750164 -0.88325316302832979 -0.82603856874112103 -0.82590667966579234 -0.88817172352195273 -0.79875335986543927 -0.84686098157251521 -0.84349727932022145 -0.82852964340475044 -0.80941043708375704 -0.87123932798801706 -0.86151942606557885 -0.82756808523817527 -0.83099505318913547 -0.7881136013146367
leaf_weight=40.335386753082275 17.052358627319336 24.922677993774414 99.690711975097656 8.1982493400573713 8.1982493400573713 30.497487545013428 25.250607967376709 27.546117782592773 86.573513031005859 23.938888072967529 36.072297096252441 25.906467914581299 6.5585994720458975 28.857837677001953 33.776787281036377 13.773058891296385 8.8541092872619611 51.485005855560303 28.201977729797363
leaf_count=123 52 76 304 25 25 93 77 84 264 73 110 79 20 88 103 42 27 157 86
internal_value=-0.829135 -0.819348 -0.825182 -0.87311 -0.819487 -0.857478 -0.813052 -0.80243 -0.883372 -0.821727 -0.826258 -0.837684 -0.851649 -0.826245 -0.861584 -0.83926 -0.795647 -0.818903 -0.806805
internal_weight=625.69 513.866 473.531 111.824 404.338 69.1932 301.04 136.091 94.7718 164.949 141.01 103.298 48.5336 54.7643 40.3354 38.6957 108.545 104.938 53.4526
internal_count=1908 1567 1444 341 1233 211 918 415 289 503 430 315 148 167 123 118 331 320 163
is_linear=0
shrinkage=1


Tree=1
num_leaves=20
num_cat=0
split_feature=48 121 0 104 118 136 146 20 113 85 85 69 5 141 116 105 107 92 21
split_gain=20.2286 22.8035 8.91774 12.9483 9.59016 9.69342 11.8644 8.99953 8.92643 7.92124 14.1202 9.25261 7.91075 16.8774 19.7674 8.38341 8.08421 7.10494 10.6396
threshold=2.5000000000000004 12.500000000000002 43.500000000000007 17.500000000000004 19.500000000000004 1.5000000000000002 28.500000000000004 9.5000000000000018 18.500000000000004 28.500000000000004 21.500000000000004 1.5000000000000002 2.3951219512195125 14.500000000000002 7.5000000000000009 22.500000000000004 11.500000000000002 34.500000000000007 2.5000000000000004
decision_type=2 2 2 2 2 2 2 2 2 2 2 2 2 2 2 2 2 2 2
left_child=1 -1 4 -4 12 6 9 8 -5 10 11 -6 13 14 -3 16 -14 18 -2
right_child=17 2 3 7 5 -7 -8 -9 -10 -11 -12 -13 15 -15 -16 -17 -18 -19 -20
leaf_value=-1.7436081047453458 -1.6490831162078001 -1.6852446440988202 -1.7370620935355239 -1.7340836594800841 -1.6976202033093384 -1.705611661346045 -1.6173179345006357 -1.6587553748840276 -1.6720216897805951 -1.6962916927365701 -1.6112820294574661 -1.6382808707469969 -1.7163306411153112 -1.7183443976457382 -1.5863017868397014 -1.7285000814268254 -1.6890402214168054 -1.7380996732339447 -1.7285256552505142
leaf_weight=24.384692654013634 3.9649906754493696 5.9474860131740588 27.953184261918068 11.498472958803182 15.661713168025022 19.824953377246857 6.3439850807189933 10.110726222395895 5.3527374118566504 22.600446850061417 7.5334822833538047 5.9474860131740561 36.874413281679153 7.3352327495813361 6.3439850807189941 24.186443120241165 76.920819103717804 54.518621787428856 4.9562383443117142
leaf_count=123 20 30 141 58 79 100 32 51 27 114 38 30 186 37 32 122 388 275 25
internal_value=-1.70574 -1.70058 -1.69666 -1.71416 -1.69244 -1.67841 -1.66807 -1.69166 -1.71043 -1.67555 -1.65964 -1.67781 -1.69941 -1.67241 -1.63868 -1.70368 -1.69814 -1.73072 -1.69704
internal_weight=378.26 314.82 290.436 54.9151 235.52 77.9121 58.0871 26.9619 16.8512 51.7431 29.1427 21.6092 157.608 19.6267 12.2915 137.982 113.795 63.4399 8.92123
internal_count=1908 1588 1465 277 1188 393 293 136 85 261 147 109 795 99 62 696 574 320 45
is_linear=0
shrinkage=1


Tree=2
num_leaves=20
num_cat=0
split_feature=142 110 70 68 102 148 123 83 106 120 19 7 125 105 92 112 6 150 4
split_gain=32.6509 11.6885 9.90896 11.066 11.4036 13.3226 12.4697 9.44389 9.14613 7.76246 10.9917 9.58819 7.7159 9.88537 7.37426 6.7485 6.5604 8.27646 8.05309
threshold=15.500000000000002 10.500000000000002 1.0000000180025095e-35 1.0000000180025095e-35 21.500000000000004 33.500000000000007 29.500000000000004 14.500000000000002 7.5000000000000009 19.500000000000004 20.500000000000004 3.4189797449362342 36.500000000000007 12.500000000000002 37.500000000000007 24.500000000000004 11.914597949271453 8.5000000000000018 6.2409888357256786
decision_type=2 2 2 2 2 2 2 2 2 2 2 2 2 2 2 2 2 2 2
left_child=1 -1 -2 -4 5 6 9 -8 -9 10 -5 -11 13 -10 -12 -15 -3 -18 -19
right_child=2 16 3 4 -6 -7 7 8 12 11 14 -13 -14 15 -16 -17 17 18 -20
leaf_value=-1.6195124878567506 -1.5828650033099814 -1.6046254307328496 -1.5841220842088442 -1.5650470926611058 -1.5855663933114676 -1.5920304438043063 -1.4855126306979074 -1.5815176854620965 -1.5012883695745707 -1.592225085744889 -1.5290589021871943 -1.5401081853014909 -1.4846921319720456 -1.5422046014627744 -1.4683694495872641 -1.5975566084867103 -1.6146477336326615 -1.5301012860482055 -1.5800645251287639
leaf_weight=39.435618430376053 76.474597066640854 45.536156088113785 37.256854981184006 11.983198970556261 20.262500077486038 10.893817245960234 9.5865591764450055 4.3575268983840934 8.0614247620105797 20.480376422405246 6.5362903475761396 9.3686828315258008 5.6647849678993216 10.022311866283415 4.7932795882225037 4.3575268983840934 12.418951660394667 4.5754032433032981 73.642204582691193
leaf_count=181 351 209 171 55 93 50 44 20 37 94 30 43 26 46 22 20 57 21 338
internal_value=-1.5804 -1.59658 -1.56852 -1.56156 -1.55452 -1.54794 -1.54188 -1.52238 -1.53368 -1.55722 -1.53796 -1.57359 -1.52416 -1.5359 -1.50646 -1.55885 -1.58994 -1.58223 -1.57614
internal_weight=415.708 175.608 240.1 163.625 126.368 106.106 95.212 42.0501 32.4636 53.1618 23.3128 29.8491 28.106 22.4413 11.3296 14.3798 136.173 90.6366 78.2176
internal_count=1908 806 1102 751 580 487 437 193 149 244 107 137 129 103 52 66 625 416 359
is_linear=0
shrinkage=1


Tree=3
num_leaves=20
num_cat=0
split_feature=30 71 45 48 49 9 152 81 95 20 93 107 92 31 47 93 5 49 96
split_gain=267.295 94.0442 47.8258 45.4515 22.2001 15.2626 12.0083 12.8794 11.6979 12.2801 9.03394 10.565 8.24113 7.8698 7.18318 5.66976 9.04975 6.06137 5.47504
threshold=2.5000000000000004 12.500000000000002 2.5000000000000004 2.5000000000000004 1.0000000180025095e-35 33.500000000000007 8.5000000000000018 30.500000000000004 48.500000000000007 13.500000000000002 43.500000000000007 23.500000000000004 39.500000000000007 1.0000000180025095e-35 1.5000000000000002 41.500000000000007 11.929788961038961 2.5000000000000004 45.500000000000007
decision_type=2 2 2 2 2 2 2 2 2 2 2 2 2 2 2 2 2 2 2
left_child=2 4 8 12 -2 -5 10 -8 9 15 11 -6 -4 -12 -10 -1 17 -17 -14
right_child=1 -3 3 5 6 -7 7 -9 14 -11 13 -13 18 -15 -16 16 -18 -19 -20
leaf_value=-1.7704527873497506 -1.6773555665732207 -1.7456699054066438 -1.7674225907000749 -1.6624942983636162 -1.6435831689227074 -1.5728274982016202 -1.6812727673830812 -1.6015393699875644 -1.7385126543491183 -1.713510859414163 -1.5360769105480361 -1.5679352726070297 -1.7347674331054366 -1.5915662516185931 -1.6739434423019588 -1.7647555708191771 -1.7021420557942992 -1.7177899950780802 -1.6797916765515557
leaf_weight=208.2679671049118 6.9680732488632193 13.742588907480238 11.032782644033434 6.0002852976322156 7.3551884293556231 5.2260549366474152 5.4196125268936139 7.1616308391094208 5.6131701171398145 7.3551884293556204 11.419897824525835 4.0647093951702118 6.1938428878784162 7.1616308391094199 3.8711518049240112 39.485748410224915 4.451824575662612 4.2582669854164115 4.2582669854164124
leaf_count=1076 36 71 57 31 38 27 28 37 29 38 59 21 32 37 20 204 23 22 22
internal_value=-1.73685 -1.64606 -1.75608 -1.70218 -1.61232 -1.6293 -1.59784 -1.63304 -1.763 -1.76503 -1.58096 -1.6102 -1.73868 -1.56034 -1.71709 -1.76689 -1.75204 -1.75839 -1.71429
internal_weight=369.308 63.2933 306.015 32.7112 49.5507 11.2263 42.5827 12.5812 273.303 263.819 30.0014 11.4199 21.4849 18.5815 9.48432 256.464 48.1958 43.744 10.4521
internal_count=1908 327 1581 169 256 58 220 65 1412 1363 155 59 111 96 49 1325 249 226 54
is_linear=0
shrinkage=1


Tree=4
num_leaves=20
num_cat=0
split_feature=36 121 124 9 73 44 81 145 121 32 95 105 73 94 122 114 103 111 93
split_gain=99.4649 61.9132 35.8235 20.1241 17.4766 16.2043 13.0528 12.1024 10.5109 9.64126 7.89263 8.24754 7.7222 7.02954 7.90796 6.14064 6.11506 6.01334 5.86971
threshold=-0.9159756150367534 12.500000000000002 31.500000000000004 27.500000000000004 11.500000000000002 1.0000000180025095e-35 6.5000000000000009 25.500000000000004 24.500000000000004 13.500000000000002 22.500000000000004 11.500000000000002 13.500000000000002 39.500000000000007 30.500000000000004 7.5000000000000009 22.500000000000004 13.500000000000002 29.500000000000004
decision_type=2 2 2 2 2 2 2 2 2 2 2 2 2 2 2 2 2 2 2
left_child=2 -2 4 7 -1 6 -5 10 -6 -7 11 -3 -12 14 18 -14 -10 -17 -8
right_child=1 3 -4 5 8 9 13 -9 16 -11 12 -13 15 -15 -16 17 -18 -19 -20
leaf_value=-0.035380617048901657 0.07018072689340013 0.024506967360559198 -0.048500007239192081 -0.029948472016424667 0.022968877465182395 -0.051953591498317298 0.014848731445052086 -0.0077211243030553449 -0.016762594659972856 -0.012287993373039964 -0.015466522220302779 0.066102534348534733 0.0012508347605356294 -0.0044797203051721345 0.0065469672233040262 0.039667630904593597 0.014948133108722495 0.016475917368114087 0.053734429299776613
leaf_weight=39.998243600130081 40.116854637861252 16.462937355041504 94.451450645923615 9.186574459075926 32.527355343103409 12.347431510686873 7.2241783440113059 27.172777712345123 54.017848372459412 72.444776475429535 8.1789559721946699 18.129446744918823 20.719460994005203 15.058500200510023 18.04786679148674 49.058189243078232 13.76524832844734 49.591715574264526 26.609493017196655
leaf_count=123 121 50 291 28 99 38 22 83 165 221 25 55 63 46 55 149 42 151 81
internal_value=0.000233219 0.0155728 -0.0251331 0.00900593 -0.00981175 -0.00379698 0.0120188 0.0198088 0.00134746 -0.0185343 0.0250902 0.0445884 0.0195767 0.0202089 0.0289004 0.0227004 -0.00903489 0.0278529 0.0425142
internal_weight=625.109 390.349 234.76 350.232 140.309 160.919 76.1266 189.313 100.31 84.7922 162.141 34.5924 127.548 66.94 51.8815 119.369 67.7831 98.6499 33.8337
internal_count=1908 1188 720 1067 429 491 232 576 306 259 493 105 388 204 158 363 207 300 103
is_linear=0
shrinkage=0.05


Tree=5
num_leaves=20
num_cat=0
split_feature=48 121 0 104 118 94 92 88 98 156 20 113 146 33 97 92 118 98 45
split_gain=18.8594 20.9601 8.17514 12.2714 8.60839 8.27229 13.0813 8.38432 10.0884 8.17513 8.06607 8.42353 7.96029 7.3091 6.86547 6.7892 10.1582 5.98292 6.56195
threshold=2.5000000000000004 12.500000000000002 43.500000000000007 17.500000000000004 19.500000000000004 39.500000000000007 28.500000000000004 43.500000000000007 38.500000000000007 1.5000000000000002 9.5000000000000018 18.500000000000004 12.500000000000002 33.500000000000007 39.500000000000007 34.500000000000007 21.500000000000004 33.500000000000007 1.5000000000000002
decision_type=2 2 2 2 2 2 2 2 2 2 2 2 2 2 2 2 2 2 2
left_child=1 -1 4 -4 5 -3 -7 8 12 13 11 -5 -8 -6 -12 16 -2 18 -14
right_child=15 2 3 10 9 6 7 -9 -10 -11 14 -13 17 -15 -16 -17 -18 -19 -20
leaf_value=-0.037526951573928602 -0.023167617175130672 -0.0015523949437801397 -0.031218206793558641 -0.028318504741389267 0.078480348620632731 0.079733431751504533 0.0099736451629258861 -0.026433617340758817 -0.0062200149634808986 0.018095006378902542 0.077011245078561594 0.031763960858489822 0.012158103910732089 0.020476257182181504 0.016141818384745706 -0.032113057716411278 0.054089270460954589 0.097756709858531299 0.075027133307812063
leaf_weight=23.39758026599884 4.9314415752887708 113.13778112828732 27.427730873227119 11.309632807970052 10.435036808252333 5.0479775667190543 6.5825261622667339 6.7257972657680503 12.8222249597311 64.128209173679352 5.5286451280117017 5.4667629003524771 4.5849235206842405 4.8004096299409857 4.906632661819458 53.245816737413406 4.0555617064237595 5.4458421915769568 4.0452978014945984
leaf_count=123 25 569 141 58 51 25 33 34 64 318 27 27 23 24 24 275 20 27 20
internal_value=-0.000334518 0.00459426 0.00825416 -0.00855831 0.0122554 0.0056363 0.0228698 0.0141661 0.0236338 0.0253992 0.0130825 -0.00491582 0.044 0.0549131 0.0435896 -0.0247252 0.00798927 0.0646813 0.0453861
internal_weight=378.026 315.793 292.395 54.6394 237.756 158.392 45.2546 40.2066 33.4808 79.3637 27.2117 16.7764 20.6586 15.2354 10.4353 62.2328 8.987 14.0761 8.63022
internal_count=1908 1588 1465 277 1188 795 226 201 167 393 136 85 103 75 51 320 45 70 43
is_linear=0
shrinkage=0.05


Tree=6
num_leaves=20
num_cat=0
split_feature=142 110 70 68 49 137 127 85 109 126 151 90 130 155 104 7 87 107 6
split_gain=29.3851 11.1744 8.86087 9.82032 9.46354 12.6195 9.83582 15.4033 11.9118 11.8402 9.6707 10.994 8.79207 7.78121 7.77431 7.40276 6.1835 6.40966 6.13956
threshold=15.500000000000002 10.500000000000002 1.0000000180025095e-35 1.0000000180025095e-35 2.5000000000000004 1.0000000180025095e-35 27.500000000000004 36.500000000000007 10.500000000000002 28.500000000000004 6.5000000000000009 19.500000000000004 30.500000000000004 4.5000000000000009 11.500000000000002 1.646700143472023 22.500000000000004 12.500000000000002 11.914597949271453
decision_type=2 2 2 2 2 2 2 2 2 2 2 2 2 2 2 2 2 2 2
left_child=1 -1 -2 16 6 -6 9 8 -8 13 11 -10 -11 14 -5 -7 17 -4 -3
right_child=2 18 3 4 5 15 7 -9 10 12 -12 -13 -14 -15 -16 -17 -18 -19 -20
leaf_value=-0.037622437629552828 -0.0017301166625369605 -0.022721019967023803 -0.0048874899472547764 -0.010794670129683792 -0.032579944726576875 0.056583806209083369 -0.0083743024721174963 0.080251871346247436 0.043634987790865228 0.083584702865683938 0.015011451442925445 0.11016535982190245 0.01872172283099106 -0.030134537613271173 0.046437547796422257 0.0060779379021254788 -0.020848409392003414 0.045364033397112133 -0.00091444562267997828
leaf_weight=38.241007193922997 76.4978117197752 44.679349303245544 9.3485259562730807 7.0963684767484683 12.101536631584166 7.4264307171106365 11.072773709893225 18.151945292949677 10.449561595916753 6.6564489156007749 10.654912099242209 6.0464003235101691 5.5354938358068466 12.100248128175734 7.7982123196125031 13.767287209630011 20.456390097737312 7.409269541501998 90.427675753831863
leaf_count=181 351 209 43 32 55 33 50 81 47 30 48 27 25 55 35 62 94 34 416
internal_value=0.000726997 -0.0148007 0.0118623 0.0183643 0.0248808 0.00343207 0.0328182 0.0458757 0.0292626 0.0147611 0.0450295 0.0675426 0.0488091 -0.00340425 0.0165784 0.0233866 -0.00293495 0.0159858 -0.00833737
internal_weight=415.918 173.348 242.57 166.072 128.858 33.2953 95.5624 56.3756 38.2236 39.1868 27.1509 16.496 12.1919 26.9948 14.8946 21.1937 37.2142 16.7578 135.107
internal_count=1908 806 1102 751 580 150 430 253 172 177 122 74 55 122 67 95 171 77 625
is_linear=0
shrinkage=0.05


Tree=7
num_leaves=20
num_cat=0
split_feature=44 76 42 40 128 20 149 106 25 91 94 43 110 147 45 111 103 121 10
split_gain=222.507 85.1438 49.0455 38.5806 18.5238 18.7213 17.0945 19.2566 13.3118 12.9994 16.3938 10.8314 8.63132 12.2435 6.78315 5.49526 5.22062 10.0233 5.20242
threshold=2.5000000000000004 12.500000000000002 2.5000000000000004 2.5000000000000004 32.500000000000007 4.5000000000000009 14.500000000000002 13.500000000000002 8.5000000000000018 43.500000000000007 47.500000000000007 2.5000000000000004 10.500000000000002 20.500000000000004 1.5000000000000002 21.500000000000004 24.500000000000004 27.500000000000004 6.5000000000000009
decision_type=2 2 2 2 2 2 2 2 2 2 2 2 2 2 2 2 2 2 2
left_child=2 4 9 6 5 -2 -4 -8 12 16 14 -7 -6 -14 -11 -16 -1 -18 -13
right_child=1 -3 3 -5 8 11 7 -9 -10 10 -12 18 13 -15 15 -17 17 -19 -20
leaf_value=-0.032530627608702456 0.013821625561978957 -0.016634052277458646 0.13766846452252685 -0.021845598872607758 0.14583905282937956 0.056728127520436739 0.10951178940998524 0.013656032431322665 0.17175965906343704 -0.026033918826892391 0.062487932573030119 0.15887526620031633 0.12130497661826074 0.047941854424361344 -0.0067135903265241369 0.05193232629035173 -0.029168997850231838 0.033899180547314813 0.1070911745294684
leaf_weight=216.54284554719925 5.4429945051670101 13.766475126147268 5.8604687303304734 11.440240874886511 7.3960446566343334 5.2256393134593973 5.0434556454420081 8.1219260692596418 10.571634098887442 22.114428952336315 5.2824558764696112 4.266981452703476 8.2460459321737272 6.2407472282648078 3.8663307875394803 4.4727886021137238 11.915667504072191 6.5590591430664054 6.7485571205615997
leaf_count=1145 27 72 28 60 34 26 24 40 49 116 26 20 39 30 20 23 63 34 32
internal_value=-0.000871526 0.0786498 -0.0191914 0.0373939 0.108208 0.0764721 0.0804 0.0561362 0.131764 -0.0260391 0.000614608 0.0983985 0.112653 0.0910552 -0.0117929 0.0191765 -0.0303298 -0.00713894 0.125167
internal_weight=369.125 67.9051 301.22 30.4661 54.1386 21.6842 19.0259 13.1654 32.4545 270.754 35.736 16.2412 21.8828 14.4868 30.4535 8.33912 235.018 18.4747 11.0155
internal_count=1908 329 1579 152 257 105 92 64 152 1427 185 78 103 69 159 43 1242 97 52
is_linear=0
shrinkage=0.05


Tree=8
num_leaves=20
num_cat=0
split_feature=123 92 80 80 125 97 93 48 36 91 100 13 137 158 137 117 152 140 87
split_gain=92.3835 55.6989 39.5875 20.4712 11.8654 9.60015 9.03082 8.75711 7.93961 7.92999 7.39404 7.86196 8.1514 7.36261 10.0311 9.52997 7.33439 8.70382 6.93598
threshold=29.500000000000004 20.500000000000004 12.500000000000002 11.500000000000002 34.500000000000007 25.500000000000004 49.500000000000007 1.5000000000000002 -0.78656609248549325 43.500000000000007 23.500000000000004 1.5000000000000002 1.5000000000000002 6.5000000000000009 1.0000000180025095e-35 16.500000000000004 8.5000000000000018 1.5000000000000002 43.500000000000007
decision_type=2 2 2 2 2 2 2 2 2 2 2 2 2 2 2 2 2 2 2
left_child=1 8 7 5 10 -3 9 -2 -1 16 -5 13 -13 14 15 -12 17 18 -4
right_child=2 3 6 4 -6 -7 -8 -9 -10 -11 11 12 -14 -15 -16 -17 -18 -19 -20
leaf_value=0.026883054236418371 -0.025962142820380257 0.008886670302859381 -0.0054229858493176977 0.038306992386126733 -0.019906642205578778 -0.035762198328803084 0.036124780071341872 -0.053195267467361695 0.065397111406695366 -0.033066525456314028 0.0048421306848551483 0.0464282262376009 -2.5919740892178802e-05 0.02325866328870442 0.02653168610468927 -0.024048890341118109 0.03217916805573106 -0.036992788186640257 0.030228111941246295
leaf_weight=10.901991069316862 37.54155233502388 10.498686462640761 54.817752748727798 23.467327803373337 20.860281527042389 35.477266788482666 6.9153068959712973 83.749690175056458 52.863978385925293 17.663677245378494 87.199967414140701 25.97194042801857 6.8792760074138632 54.336320608854294 28.938927203416824 34.417511403560638 8.520991384983061 12.105093896389006 10.834340542554854
leaf_count=33 116 32 167 71 64 110 21 262 159 54 265 79 21 165 88 105 26 37 33
internal_value=0.000211251 0.0148988 -0.0244384 0.00678252 0.0116966 -0.0222243 -0.00378373 -0.0440086 0.0557 -0.00695893 0.0146394 0.0120507 0.0327354 0.0084194 0.00278303 -0.00349287 -0.000972423 -0.0055566 0.00123745
internal_weight=623.962 391.813 232.148 328.048 282.072 45.976 110.857 121.291 63.766 103.942 261.211 237.744 32.8512 204.893 150.556 121.617 86.2782 77.7572 65.6521
internal_count=1908 1192 716 1000 858 142 338 378 192 317 794 723 100 623 458 370 263 237 200
is_linear=0
shrinkage=0.05


Tree=9
num_leaves=20
num_cat=0
split_feature=48 98 6 6 145 98 92 148 97 92 29 83 123 154 107 103 94 144 141
split_gain=17.5759 17.985 8.70824 12.593 7.76959 6.4555 6.41015 9.3828 5.64353 5.57985 6.3195 8.92096 7.01541 8.532 8.14634 9.51717 11.3888 13.8587 6.3155
threshold=2.5000000000000004 14.500000000000002 9.912878787878789 9.3017045454545482 24.500000000000004 33.500000000000007 34.500000000000007 24.500000000000004 32.500000000000007 43.500000000000007 1.0000000180025095e-35 54.500000000000007 29.500000000000004 5.5000000000000009 21.500000000000004 13.500000000000002 43.500000000000007 14.500000000000002 23.500000000000004
decision_type=2 2 2 2 2 2 2 2 2 2 2 2 2 2 2 2 2 2 2
left_child=1 -1 3 4 -3 -5 7 -2 -6 10 11 -4 13 18 15 -14 17 -17 -12
right_child=6 2 9 5 8 -7 -8 -9 -10 -11 12 -13 14 -15 -16 16 -18 -19 -20
leaf_value=-0.035019400837220244 -0.023158359147701167 0.0034884339381914399 -0.0090113170012748288 0.043461276519633343 0.079540220871081133 0.10387854192705259 -0.031476709404537548 0.050582214743697 0.026513200768389769 -0.010473811430079468 0.027787789259341528 0.045575935439338799 0.016507694919229189 -0.014742303373443528 -0.010175503367921329 0.050470207082854546 0.02214083213945317 0.13489364305867985 -0.0079749012869836447
leaf_weight=22.74948924779892 4.878965884447096 35.832709059119225 65.245976567268372 4.4753913134336454 4.5796627253293973 5.1698923110961914 51.920710042119026 4.2067999988794327 7.3777581304311752 51.567606240510941 39.733827084302902 4.3851095139980307 13.64271727204323 26.988192707300186 5.1693565994501105 5.0322899818420428 4.9726742506027213 6.4158633053302765 13.162508547306059
leaf_count=122 25 179 327 22 22 25 275 20 36 259 199 22 68 135 26 25 25 31 65
internal_value=-0.000287066 0.00442207 0.00775603 0.0246542 0.0149969 0.0686956 -0.0240977 0.00741071 0.0446667 0.00356792 0.00755079 -0.00396883 0.0146643 0.00677983 0.0323875 0.0429896 0.066613 0.0931089 0.0178553
internal_weight=377.508 316.501 293.752 57.4354 47.7901 9.64528 61.0065 9.08577 11.9574 236.316 184.749 69.6311 115.117 79.8845 35.2329 30.0635 16.4208 11.4482 52.8963
internal_count=1908 1588 1466 284 237 47 320 45 58 1182 923 349 574 399 175 149 81 56 264
is_linear=0
shrinkage=0.05


Tree=10
num_leaves=20
num_cat=0
split_feature=142 110 84 94 148 145 118 129 154 127 131 142 88 47 121 50 0 70 129
split_gain=26.3723 10.6595 8.46717 8.66795 6.74815 9.07295 8.14579 7.99031 10.5551 13.398 9.8854 9.62364 8.01742 7.07743 6.90391 12.1093 6.15724 6.07272 6.03243
threshold=15.500000000000002 10.500000000000002 1.5000000000000002 24.500000000000004 33.500000000000007 33.500000000000007 22.500000000000004 25.500000000000004 2.5000000000000004 25.500000000000004 1.0000000180025095e-35 25.500000000000004 19.500000000000004 1.0000000180025095e-35 25.500000000000004 1.0000000180025095e-35 41.500000000000007 1.0000000180025095e-35 35.500000000000007
decision_type=2 2 2 2 2 2 2 2 2 2 2 2 2 2 2 2 2 2 2
left_child=1 -1 -2 -4 5 7 -7 8 12 -10 16 17 -5 -14 -13 -16 -11 -9 -17
right_child=2 -3 3 4 -6 6 -8 11 9 10 -12 14 13 -15 15 18 -18 -19 -20
leaf_value=-0.036854599908928497 0.054738998124595685 -0.0078811183516830485 -0.020582761278034947 0.089213216970517123 -0.016205337994006277 0.092720881488770529 0.028611998755093727 -0.021456320982430541 -0.015072463990395019 0.043657269400568063 0.0043375827271466549 -0.006177276979262067 0.065981451870845517 0.0065125550933484797 0.075391439266896898 -0.0001563793390937894 0.094799669179708015 0.0046907966602064951 0.045289535374665117
leaf_weight=36.991288721561432 6.3405198305845252 133.97760854661465 17.484558314085007 7.4566428214311626 14.873762488365172 4.6484530419111234 5.9216509908437729 28.727529957890511 19.044870629906654 11.319647550582891 9.9880639612674695 8.8912134170532209 4.676533177495001 6.7145937383174896 9.4157768785953539 14.525184497237207 4.6936096400022498 62.679923117160797 7.3495071381330481
leaf_count=181 28 625 80 33 68 20 26 132 87 51 45 40 21 30 42 65 21 281 32
internal_value=0.000719565 -0.0141598 0.0111526 0.00968856 0.0123461 0.0147132 0.0523716 0.0122888 0.0262867 0.0141649 0.0352131 0.00533163 0.0549224 0.0351843 0.0245559 0.036026 0.0584453 -0.00354523 0.0179713
internal_weight=415.721 170.969 244.752 238.412 220.927 206.053 10.5701 195.483 63.894 45.0462 26.0013 131.589 18.8478 11.3911 40.1817 31.2905 16.0133 91.4075 21.8747
internal_count=1908 806 1102 1074 994 926 46 880 288 204 117 592 84 51 179 139 72 413 97
is_linear=0
shrinkage=0.05


Tree=11
num_leaves=20
num_cat=0
split_feature=48 76 41 40 45 80 91 161 64 6 129 152 150 160 112 100 20 0 124
split_gain=190.664 58.7206 43.9702 23.1882 15.9526 15.6555 22.9882 17.5904 14.2678 13.0091 10.1455 8.09339 7.52399 6.27371 9.98276 5.7107 5.14844 4.89287 4.58972
threshold=2.5000000000000004 12.500000000000002 2.5000000000000004 2.5000000000000004 1.5000000000000002 11.500000000000002 33.500000000000007 1.0000000180025095e-35 1.5000000000000002 19.475678733031678 31.500000000000004 9.5000000000000018 21.500000000000004 1.0000000180025095e-35 16.500000000000004 50.500000000000007 14.500000000000002 41.500000000000007 26.500000000000004
decision_type=2 2 2 2 2 2 2 2 2 2 2 2 2 2 2 2 2 2 2
left_child=2 4 5 8 -2 6 13 9 12 -8 -10 15 -4 -1 -15 17 -7 -6 -3
right_child=1 18 3 -5 11 16 7 -9 10 -11 -12 -13 -14 14 -16 -17 -18 -19 -20
leaf_value=-0.040989625475980576 0.04392714822558829 0.014514406737131011 0.056059856691532566 -0.0112900743169147 0.09766501653690661 -0.03218067067447878 0.11453863575900457 -0.011585438623487229 0.071996365701969031 0.036227251475320452 0.14612834252610493 0.073071431786476279 -0.0055307617693232131 0.049456464202146895 -0.027140268754011494 0.080491242760337534 0.0090125637110018419 0.13470504905246913 -0.034460514446779902
leaf_weight=20.830932378768924 7.9046116471290579 4.3350803703069678 7.3070335686206818 12.967521503567694 7.9625871926546088 210.59909872710705 6.5638094693422335 6.0211962014436713 4.7736018747091293 6.3395529836416245 4.8897360563278198 9.3226601630449277 4.4666588306427002 3.7931551784276945 5.7886740118265152 4.5345044136047354 4.1134455800056449 26.315104454755783 9.4088330715894681
leaf_count=115 38 23 34 69 35 1138 31 32 23 31 21 42 22 20 31 20 21 112 50
internal_value=-0.000876012 0.0715505 -0.0181664 0.0322 0.0955029 -0.0251642 -0.000721106 0.0394689 0.0640919 0.072197 0.10395 0.106938 0.0348947 -0.0253086 0.00177592 0.117072 -0.0310026 0.124512 -0.00724703
internal_weight=368.238 69.7834 298.454 34.4046 56.0395 264.05 49.3373 18.9246 21.437 12.9034 9.66334 48.1349 11.7737 30.4128 9.58183 38.8122 214.713 34.2777 13.7439
internal_count=1908 320 1588 169 247 1419 260 94 100 62 44 209 56 166 51 167 1159 147 73
is_linear=0
shrinkage=0.05


Tree=12
num_leaves=20
num_cat=0
split_feature=45 121 73 91 0 123 95 0 97 33 145 150 118 115 1 90 97 1 101
split_gain=83.0526 61.0199 27.7696 17.9174 14.5542 12.4976 10.3209 9.13885 6.71601 6.53502 6.00913 7.09344 8.1081 11.184 8.71622 6.95497 6.95363 6.74597 7.86577
threshold=2.5000000000000004 12.500000000000002 11.500000000000002 35.500000000000007 28.500000000000004 29.500000000000004 22.500000000000004 42.500000000000007 32.500000000000007 54.500000000000007 27.500000000000004 30.500000000000004 19.500000000000004 8.5000000000000018 17.500000000000004 9.5000000000000018 40.500000000000007 19.500000000000004 22.500000000000004
decision_type=2 2 2 2 2 2 2 2 2 2 2 2 2 2 2 2 2 2 2
left_child=1 -1 4 -2 -3 6 -4 9 -5 -7 11 12 13 14 -8 -14 -12 18 -15
right_child=3 2 5 8 -6 7 10 -9 -10 -11 16 -13 15 17 -16 -17 -18 -19 -20
leaf_value=0.062917870549253907 0.00059173626536986534 0.014420536420213481 0.0391431607250224 -0.016201080268861124 -0.036310147979632793 -0.00051047070211430166 0.02044163189563232 -0.025672625417195439 -0.05274560962441896 0.037033441695147044 0.0031119265756683074 0.048406044112788683 -0.035854606359441064 0.021503089370146569 -0.020760173459112699 0.0026628555912751642 -0.039542381511128821 0.038866284819938368 -0.01836869504460081
leaf_weight=40.966205894947052 16.93229478597641 11.806343436241148 30.527929902076721 8.1164229512214643 55.970515847206116 84.15011066198349 14.848750144243239 32.149537056684494 82.980238497257233 6.5776990354061118 20.96299892663956 7.586738020181655 8.2099055647850019 63.670742362737656 25.663992434740067 46.691077083349228 7.8130442500114432 48.249499887228012 8.2514949440956098
leaf_count=123 52 36 92 25 175 257 45 99 264 20 64 23 25 193 78 142 24 146 25
internal_value=0.000232289 0.00855694 0.00356246 -0.0384658 -0.0247491 0.00844621 0.0142103 -0.00448511 -0.0481721 0.00304351 0.0109785 0.0136821 0.0119959 0.0175315 -0.00342022 -0.00369954 -0.00845961 0.0251127 0.0160192
internal_weight=622.126 514.097 473.13 108.029 67.7769 405.354 282.476 122.877 91.0967 90.7278 251.948 223.172 215.585 160.684 40.5127 54.901 28.776 120.172 71.9222
internal_count=1908 1567 1444 341 211 1233 857 376 289 277 765 677 654 487 123 167 88 364 218
is_linear=0
shrinkage=0.05


Tree=13
num_leaves=20
num_cat=0
split_feature=71 8 25 48 5 91 100 21 124 100 118 93 97 97 44 102 98 124 108
split_gain=16.3655 10.6714 10.116 8.01268 7.55915 11.5707 6.96633 6.2389 7.6851 5.80546 8.18411 9.57355 10.1523 11.1381 8.61168 6.87029 8.8812 9.04615 8.38444
threshold=11.500000000000002 0.072595520421607371 4.5000000000000009 2.5000000000000004 2.4859693877551026 36.500000000000007 48.500000000000007 2.5000000000000004 31.500000000000004 41.500000000000007 19.500000000000004 27.500000000000004 42.500000000000007 25.500000000000004 1.5000000000000002 26.500000000000004 30.500000000000004 24.500000000000004 16.500000000000004
decision_type=2 2 2 2 2 2 2 2 2 2 2 2 2 2 2 2 2 2 2
left_child=1 -1 -3 4 5 -2 9 8 -5 10 15 -12 13 -13 -15 16 17 -6 -19
right_child=3 2 -4 7 6 -7 -8 -9 -10 -11 11 12 -14 14 -16 -17 -18 18 -20
leaf_value=-0.027817851567139076 0.078299103141781762 -0.010977950702374591 0.049528160368453755 0.044613695601772814 -0.0048531452330585739 0.014215671602877268 0.044190666782016802 -0.032166388304540182 -0.021526184492313583 -0.010836530794831876 0.058639759786914561 0.057202677843934228 0.05199133940158629 -0.021502770785393928 0.024031853240101916 0.038010549845789166 -0.015546982460708642 0.015740569072492366 0.069209096394076866
leaf_weight=70.141651034355164 6.8348727673292187 12.573357537388803 7.4342797249555579 5.318019241094591 29.009434819221497 14.68769161403179 7.4535718858242026 21.57931849360466 4.5821899622678757 46.385746642947197 11.178091853857039 4.2027889192104331 9.8787463009357435 25.599068567156792 11.878592535853384 7.4348416328430167 58.481065317988396 14.380647256970407 8.0628083497285825
leaf_count=375 32 62 35 27 149 71 37 116 24 232 54 20 48 126 57 37 294 72 40
internal_value=-0.000262876 -0.0184509 0.0105127 0.00553655 0.00849095 0.0344523 0.00591798 -0.0168464 0.00971298 0.00430952 0.0083159 0.0224912 0.0140887 0.00334875 -0.00579865 0.000695695 -0.00259007 0.0119539 0.0344085
internal_weight=377.097 90.1493 20.0076 286.947 255.468 21.5226 233.945 31.4795 9.90021 226.492 180.106 62.7373 51.5592 41.6805 37.4777 117.369 109.934 51.4529 22.4435
internal_count=1908 472 97 1436 1269 103 1166 167 51 1129 897 305 251 203 183 592 555 261 112
is_linear=0
shrinkage=0.05


Tree=14
num_leaves=20
num_cat=0
split_feature=94 142 68 105 110 95 125 82 33 85 156 24 116 102 147 19 144 5 127
split_gain=24.3369 13.4092 6.87509 7.51325 11.8092 8.74624 9.53868 7.81446 7.15351 8.35272 6.88986 8.39562 7.90152 6.77805 6.53263 6.09992 6.09499 6.42097 6.94062
threshold=24.500000000000004 15.500000000000002 1.0000000180025095e-35 15.500000000000002 6.5000000000000009 29.500000000000004 22.500000000000004 21.500000000000004 39.500000000000007 44.500000000000007 4.5000000000000009 5.5000000000000009 17.500000000000004 14.500000000000002 25.500000000000004 25.500000000000004 18.500000000000004 2.4859693877551026 28.500000000000004
decision_type=2 2 2 2 2 2 2 2 2 2 2 2 2 2 2 2 2 2 2
left_child=-1 16 10 4 -4 6 -6 15 -9 14 11 12 -3 -12 -10 -7 17 -2 -19
right_child=1 2 3 -5 5 7 -8 8 9 -11 13 -13 -14 -15 -16 -17 -18 18 -20
leaf_value=-0.02772632470489815 -0.021777183440686465 0.077753838463872307 -0.013178624556336144 0.0060134417672157358 0.039314767831356671 0.068890794818962459 0.10282545127296656 -0.0031563708746022603 0.037277064867305636 0.0086702006929194105 -0.034597045129553951 -0.0043969751819939954 0.01804171673364997 0.0067299121903222764 0.095916854958127407 0.027889667932024582 -0.029961124003419916 -0.0065782635179106128 0.022264189621468828
leaf_weight=59.889664441347122 27.665972456336021 5.7461169511079806 11.355315282940863 68.310673072934151 8.1055774539709073 12.755522802472116 6.335994064807891 24.406035184860229 4.7760473340749758 9.8089150786399824 18.956712260842327 18.416761577129364 7.6656269133090973 12.930363848805426 4.9770437180995941 14.308906972408293 20.629399225115776 47.792318448424339 30.492155745625496
leaf_count=293 131 26 51 304 36 55 27 109 21 43 87 84 35 59 21 62 97 225 142
internal_value=0.000732884 0.0056736 0.012858 0.0182395 0.0270667 0.0335447 0.0644914 0.0266665 0.0140541 0.0337212 -0.000558366 0.0144269 0.0413859 -0.0164062 0.0625512 0.0459828 -0.00713405 -0.00258771 0.00463825
internal_weight=415.325 355.435 228.856 165.14 96.8294 85.474 14.4416 71.0325 43.968 19.562 63.7156 31.8285 13.4117 31.8871 9.75309 27.0644 126.58 105.95 78.2845
internal_count=1908 1615 1020 729 425 374 63 311 194 85 291 145 61 146 42 117 595 498 367
is_linear=0
shrinkage=0.05


Tree=15
num_leaves=20
num_cat=0
split_feature=30 71 125 48 79 21 112 126 0 67 91 111 118 24 10 113 69 128 122
split_gain=177.165 51.395 37.2478 19.8094 16.1229 24.9023 11.8623 11.3535 9.7751 8.93172 8.22168 7.78103 7.21397 6.23817 7.46126 6.05825 4.64312 5.46587 4.63699
threshold=2.5000000000000004 12.500000000000002 34.500000000000007 2.5000000000000004 11.500000000000002 2.5000000000000004 11.500000000000002 32.500000000000007 44.500000000000007 1.5000000000000002 40.500000000000007 12.500000000000002 8.5000000000000018 15.500000000000002 5.5000000000000009 24.500000000000004 1.5000000000000002 35.500000000000007 30.500000000000004
decision_type=2 2 2 2 2 2 2 2 2 2 2 2 2 2 2 2 2 2 2
left_child=2 7 4 11 5 -1 -7 10 -5 -8 -2 -4 -12 14 -14 -13 -9 -18 -6
right_child=1 -3 3 8 18 6 9 16 -10 -11 12 15 13 -15 -16 -17 17 -19 -20
leaf_value=-0.028788433042649504 0.01964203463164 -0.0096057597234638428 0.037701487453606596 0.047404280524387693 -0.035438281616627015 0.07878144882225617 -0.012173244607279893 0.11929861775453721 0.11639765934429563 0.053357017556353227 0.10964675472294977 -0.036181439336754176 0.071795044585570719 0.090619499966557077 0.011816488265326091 0.01584662725507895 0.060134298268338354 0.10851450053681305 -0.018472308168260825
leaf_weight=28.305208534002304 4.4309541285038021 13.276975125074385 7.6301753818988827 5.3983252793550474 157.43816366791725 8.0531188845634478 9.0051404535770398 20.733671188354492 5.716597855091095 4.7429905384778968 6.0132047235965755 10.114950329065321 4.7605718374252337 5.5955642610788336 6.9143387228250504 5.5185205638408652 6.9723774641752225 6.5692319571971893 50.065861597657204
leaf_count=157 20 71 39 24 876 39 45 83 23 23 24 54 20 24 30 28 29 26 273
internal_value=-0.000952383 0.0657587 -0.018473 0.0278492 -0.0250726 -0.00054383 0.0373019 0.0860022 0.0767564 0.0150938 0.0647136 0.00579034 0.0744229 0.0602937 0.0407811 -0.0142174 0.104703 0.0863967 -0.0312157
internal_weight=367.256 75.2669 291.989 34.3786 257.61 50.1065 21.8012 61.9899 11.1149 13.7481 27.7146 23.2636 23.2837 17.2705 11.6749 15.6335 34.2753 13.5416 207.504
internal_count=1908 327 1581 168 1413 264 107 256 47 68 118 121 98 74 50 82 138 55 1149
is_linear=0
shrinkage=0.05


Tree=16
num_leaves=20
num_cat=0
split_feature=123 121 75 80 125 97 32 85 7 141 48 128 22 44 83 120 100 0 107
split_gain=75.5506 46.059 33.1119 15.7983 11.356 10.8165 8.19419 8.14562 8.00584 7.95802 7.8383 7.02856 6.91725 9.71196 6.66557 6.23264 7.30791 6.19517 9.99946
threshold=29.500000000000004 12.500000000000002 13.500000000000002 11.500000000000002 28.500000000000004 29.500000000000004 14.500000000000002 54.500000000000007 2.2416912487708953 16.500000000000004 1.5000000000000002 21.500000000000004 3.5000000000000004 1.5000000000000002 50.500000000000007 24.500000000000004 24.500000000000004 39.500000000000007 17.500000000000004
decision_type=2 2 2 2 2 2 2 2 2 2 2 2 2 2 2 2 2 2 2
left_child=1 -1 10 5 9 -3 -4 8 -6 17 12 -8 -2 -14 -13 16 -11 -5 -19
right_child=2 3 6 4 7 -7 11 -9 -10 15 -12 14 13 -15 -16 -17 -18 18 -20
leaf_value=0.060396863719448163 -0.033936439656874616 0.0075232120710239884 0.028258206735908994 0.034621699638051937 0.026390065062511726 -0.034263604576608105 -0.041310318501001635 -0.035866528121365981 -0.0044002906542504631 0.032709232314798595 -0.047198218447117357 -0.0066406086724870852 0.036483495189016765 -0.023558975761264131 0.031430831090903326 0.035670878513557366 -0.0028976804803113711 0.041382018319576823 -0.013937128322169097
leaf_weight=40.472568899393082 32.003818392753601 19.64489158987999 14.752782136201857 83.29480254650116 22.005134880542755 31.824456602334976 6.5485299825668326 8.7932974100112897 73.719050347805023 11.251317739486693 87.248507112264633 66.820381045341492 6.800325542688368 7.2990975379943848 6.9166719615459433 11.562876611948012 67.143364489078522 6.6222353279590633 15.145918995141981
leaf_count=122 100 60 45 251 67 101 20 27 225 34 282 204 21 23 21 35 204 20 46
internal_value=0.000242415 0.0134664 -0.0222928 0.00779079 0.0120945 -0.016354 -0.000776509 -0.00075863 0.00308916 0.0191516 -0.0383095 -0.00621769 -0.0230301 0.00192785 -0.00197332 0.00873147 0.00340843 0.0283327 0.00781588
internal_weight=619.87 391.48 228.39 351.007 299.538 51.4693 95.0384 104.517 95.7242 195.021 133.352 80.2856 46.1032 14.0994 73.7371 89.9576 78.3947 105.063 21.7682
internal_count=1908 1192 716 1070 909 161 290 319 292 590 426 245 144 44 225 273 238 317 66
is_linear=0
shrinkage=0.05


Tree=17
num_leaves=20
num_cat=0
split_feature=48 121 0 104 115 157 106 111 90 10 109 46 20 113 151 92 97 10 33
split_gain=15.4073 16.9411 7.08832 11.3504 8.05684 9.06719 8.26931 8.43253 7.63516 8.34044 7.29625 7.92374 6.90503 7.73339 6.9018 9.00429 15.6216 12.4108 8.7777
threshold=2.5000000000000004 12.500000000000002 43.500000000000007 17.500000000000004 21.500000000000004 6.5000000000000009 8.5000000000000018 23.500000000000004 21.500000000000004 3.5000000000000004 17.500000000000004 1.0000000180025095e-35 9.5000000000000018 18.500000000000004 4.5000000000000009 35.500000000000007 34.500000000000007 6.5000000000000009 54.500000000000007
decision_type=2 2 2 2 2 2 2 2 2 2 2 2 2 2 2 2 2 2 2
left_child=1 -1 4 -4 6 10 -3 14 -9 -10 11 -6 13 -5 15 18 17 -17 -8
right_child=-2 2 3 12 5 -7 7 8 9 -11 -12 -13 -14 -15 -16 16 -18 -19 -20
leaf_value=-0.035508155640502831 -0.022944555948796037 -0.018036998732626559 -0.030659677587796769 -0.027876853212442845 0.056261293475250176 -0.002970439291238454 -0.0049663758381766326 0.011269937243474684 0.10535461093940478 0.03832720058791711 0.081207319244776754 0.014005443852208546 0.039591508339648064 0.029381771120082247 -0.0073984693222467496 0.11136733278566907 0.011221878596484776 0.033971754956392812 0.047328774341099882
leaf_weight=20.990605250000954 58.764636024832726 26.729141011834145 26.811109930276871 11.073819756507879 15.053589656949041 14.107615008950232 47.777293995022774 7.076701998710635 4.704779848456381 5.400636225938797 4.7399931252002707 22.066646128892899 10.89641200006008 5.6405533701181403 53.711654365062714 7.3855403214693052 22.538016423583031 5.3431034535169601 5.4456507712602606
leaf_count=123 320 133 141 58 72 69 238 34 22 26 22 106 51 27 267 35 111 26 27
internal_value=-0.000179986 0.00414801 0.00723866 -0.00846817 0.0108964 0.0269818 0.00597618 0.0101943 0.0399245 0.0664558 0.0387364 0.0318952 0.0120339 -0.00486584 0.0062848 0.014626 0.033367 0.0726253 0.00229005
internal_weight=376.257 317.493 296.502 54.4219 242.08 55.9678 186.113 159.383 17.1821 10.1054 41.8602 37.1202 27.6108 16.7144 142.201 88.4896 35.2667 12.7286 53.2229
internal_count=1908 1588 1465 277 1188 269 919 786 82 48 200 178 136 85 704 437 172 61 265
is_linear=0
shrinkage=0.05


Tree=18
num_leaves=20
num_cat=0
split_feature=94 142 89 148 137 49 150 145 11 154 143 6 116 147 123 152 1 22 147
split_gain=22.2719 12.0998 6.38614 7.20232 7.52789 9.05658 8.0949 8.03984 7.3814 6.62248 6.43034 6.34958 10.658 9.21667 9.66083 7.01009 6.97594 6.08938 6.05893
threshold=24.500000000000004 15.500000000000002 1.0000000180025095e-35 33.500000000000007 1.0000000180025095e-35 1.5000000000000002 16.500000000000004 26.500000000000004 1.0000000180025095e-35 1.5000000000000002 25.500000000000004 20.625833333333336 16.500000000000004 28.500000000000004 27.500000000000004 9.5000000000000018 13.500000000000002 6.5000000000000009 11.500000000000002
decision_type=2 2 2 2 2 2 2 2 2 2 2 2 2 2 2 2 2 2 2
left_child=-1 -2 -3 4 5 7 -6 9 -8 -4 -9 13 -13 14 -10 -14 -16 -11 -7
right_child=1 2 3 -5 6 18 8 10 11 17 -12 12 15 -15 16 -17 -18 -19 -20
leaf_value=-0.026935417184427247 -0.0068831669036575581 0.054522869668604437 0.037789216438322504 -0.018743306763626146 -0.0068957121970569498 0.019710222009615759 0.0021464984326847385 0.023248961508493027 -0.0054707680857019637 -0.0046813060852265815 0.072771288113618729 0.06881871203539848 -0.010720395674311501 0.080547477036054901 0.082443509818051361 0.039457620262724924 0.027507962325052017 0.03899080614363104 -0.021483876739338874
leaf_weight=58.352306127548218 125.95456321537495 4.4571825116872779 10.183527380228041 14.603665739297865 12.748230993747709 7.1094421297311774 13.266739860177038 9.6835579127073306 6.8223762363195446 51.384159132838249 7.1878929287195197 4.6169698387384441 15.813311919569971 13.363561123609541 7.0873586237430555 5.9077445417642585 6.7065227478742599 4.7513933777809134 35.24234239757061
leaf_count=293 595 19 44 67 57 32 58 42 31 230 30 20 70 56 30 25 29 21 159
internal_value=0.000683838 0.0053404 0.0121041 0.0109492 0.0132734 0.00561908 0.0243749 0.0148225 0.0308978 0.00743393 0.0422682 0.0383174 0.0215791 0.0519843 0.0338066 0.0063551 0.0531657 0.000621007 -0.0124055
internal_weight=415.243 356.891 230.936 226.479 211.875 125.542 86.3328 83.1905 73.5846 66.3191 16.8715 60.3178 26.338 33.9798 20.6163 21.7211 13.7939 56.1356 42.3518
internal_count=1908 1615 1020 1001 934 558 376 367 319 295 72 261 115 146 90 95 59 251 191
is_linear=0
shrinkage=0.05


Tree=19
num_leaves=20
num_cat=0
split_feature=30 76 44 76 20 93 9 49 114 10 1 80 95 127 131 31 149 157 163
split_gain=155.227 43.9503 34.2944 25.8199 12.6992 10.7797 16.5161 10.5984 9.6424 7.64538 6.59527 5.84781 5.69952 5.46985 12.0398 5.54887 5.19174 7.86418 3.87623
threshold=2.5000000000000004 12.500000000000002 2.5000000000000004 12.500000000000002 9.5000000000000018 42.500000000000007 33.500000000000007 1.0000000180025095e-35 25.500000000000004 4.5000000000000009 23.500000000000004 11.500000000000002 48.500000000000007 35.500000000000007 2.5000000000000004 1.5000000000000002 14.500000000000002 7.5000000000000009 1.0000000180025095e-35
decision_type=2 2 2 2 2 2 2 2 2 2 2 2 2 2 2 2 2 2 2
left_child=2 7 5 4 8 12 11 -2 -4 -8 13 -7 18 14 16 -15 -9 -18 -1
right_child=1 -3 3 -5 -6 6 9 10 -10 -11 -12 -13 -14 15 -16 -17 17 -19 -20
leaf_value=-0.033862056560286895 0.035793754932367465 -0.013495898986365315 0.0093615053980012752 -0.020482891189336078 0.10400440238265084 0.018193575416807998 0.08669895273419867 0.066133982994813864 0.074050745293101114 0.01921300596414963 0.11061169328231767 -0.026024989747040712 0.0086485571736845211 0.11217026183676918 0.10075488561139655 0.068650175557350313 -0.0116331353603275 0.048796210891951963 -0.016579590412855106
leaf_weight=165.5975685864687 8.3763224929571134 11.930341780185698 8.994396924972536 12.360993966460226 7.0554686337709418 5.9107972681522361 5.0032148808240873 5.393615171313292 5.3501201122999182 3.9423088431358337 13.688083350658415 30.110423013567924 6.1489858627319327 12.446241274476053 7.5648925006389609 7.228660210967063 6.0790110081434232 5.8981911092996597 36.63456566631794
leaf_count=945 37 65 41 68 28 28 24 21 22 20 51 166 32 46 29 28 26 24 207
internal_value=-0.00100216 0.0597852 -0.0179375 0.0269295 0.0596076 -0.0243203 -0.00299968 0.0766588 0.0384758 0.0483268 0.0846569 -0.016741 -0.029119 0.0760808 0.0614275 0.0931365 0.039587 0.0211099 -0.0306246
internal_weight=365.714 78.6054 287.109 33.761 21.4 253.348 44.9667 66.675 14.3445 8.94552 58.2987 36.0212 208.381 44.6106 24.9357 19.6749 17.3708 11.9772 202.232
internal_count=1908 327 1581 159 91 1422 238 262 63 44 225 194 1184 174 100 74 71 50 1152
is_linear=0
shrinkage=0.05


Tree=20
num_leaves=20
num_cat=0
split_feature=125 121 75 77 42 94 6 95 43 87 88 62 147 160 34 91 142 143 99
split_gain=76.1462 42.216 34.3473 15.7274 12.2868 12.1 9.60439 9.78604 7.79091 7.32477 9.73161 7.0581 6.62589 6.59208 7.13713 6.07657 6.01773 6.09248 6.79453
threshold=28.500000000000004 13.500000000000002 13.500000000000002 11.500000000000002 1.0000000180025095e-35 41.500000000000007 20.277935547598471 34.500000000000007 1.0000000180025095e-35 22.500000000000004 18.500000000000004 1.5000000000000002 24.500000000000004 3.5000000000000004 1.0000000180025095e-35 43.500000000000007 21.500000000000004 10.500000000000002 35.500000000000007
decision_type=2 2 2 2 2 2 2 2 2 2 2 2 2 2 2 2 2 2 2
left_child=1 -1 4 8 -2 6 7 9 -3 10 -5 13 15 -11 -15 -8 17 -4 -19
right_child=2 3 16 5 -6 -7 12 -9 -10 11 -12 -13 -14 14 -16 -17 -18 18 -20
leaf_value=0.057830169301367307 -0.0097052667560804887 0.0031607099776170366 -0.016752700248582882 0.010644161828732488 -0.043520696833219207 -0.0078273811015182517 0.019822618254109997 0.040520213299890091 -0.033670411145757272 0.047560007363837038 -0.035130473337366248 0.00036910517349419557 -0.028532803674532165 0.031500662214547663 -0.014610567301370905 -0.020086351921928539 -0.014130821668377955 0.034150101773608756 0.0028475482429858655
leaf_weight=43.131400316953659 27.907946974039078 18.51805591583252 12.480372458696364 41.905983626842499 120.54568889737129 50.270600765943527 24.495593845844272 51.922992646694183 27.830184191465378 32.510256409645081 8.507493704557417 14.179033726453779 11.452746689319609 13.58796662092209 7.5517308712005606 7.2184074819087973 41.421644359827042 23.358513534069061 34.509732335805893
leaf_count=131 87 57 38 127 392 154 74 157 89 98 26 43 35 41 23 22 127 71 105
internal_value=-0.000463854 0.0145247 -0.0207353 0.00826452 -0.0364188 0.0128725 0.0180576 0.0233886 -0.0169373 0.015749 0.00197819 0.0257911 -0.00147758 0.0341742 0.0156893 0.00806093 -0.000617073 0.00845076 0.0154351
internal_weight=613.306 353.082 260.224 309.951 148.454 263.603 213.332 170.165 46.3482 118.242 50.4135 67.829 43.1667 53.65 21.1397 31.714 111.77 70.3486 57.8682
internal_count=1897 1077 820 946 479 800 646 515 146 358 153 205 131 162 64 96 341 214 176
is_linear=0
shrinkage=0.05


Tree=21
num_leaves=20
num_cat=0
split_feature=32 6 118 137 13 101 6 124 121 95 10 97 113 0 108 99 41 23 152
split_gain=14.5264 13.0961 8.45567 14.0121 8.00666 8.81104 7.39007 9.58726 6.63692 9.57186 10.2545 6.46537 6.16025 5.79322 7.65443 9.84301 6.16058 8.00289 5.68142
threshold=10.500000000000002 9.912878787878789 14.500000000000002 1.0000000180025095e-35 3.5000000000000004 19.500000000000004 24.532147742818061 28.500000000000004 31.500000000000004 28.500000000000004 3.5000000000000004 21.500000000000004 26.500000000000004 44.500000000000007 14.500000000000002 37.500000000000007 1.5000000000000002 4.5000000000000009 3.5000000000000004
decision_type=2 2 2 2 2 2 2 2 2 2 2 2 2 2 2 2 2 2 2
left_child=-1 8 18 4 5 12 -5 -8 9 11 -11 -2 13 14 16 -16 -4 -18 -3
right_child=1 2 3 6 -6 -7 7 -9 -10 10 -12 -13 -14 -15 15 -17 17 -19 -20
leaf_value=-0.028526743893400222 0.040895051915019132 -0.00042582935964589663 0.0048007644102735815 -0.016941483775537353 -0.026534220686833056 -0.0030022021047876493 0.05216132590416727 -0.0092870132566522535 -0.0040045991597664598 0.034749521836938975 0.091328099073677824 -0.015757142218419808 0.068070731916293883 -0.0065076571405663728 0.035831409591455858 0.10064440414526395 0.017441918065114193 0.084250748809710133 -0.021967478984200716
leaf_weight=37.35109543800354 3.8267669826745978 53.357233971357346 20.081783071160316 62.8075260668993 4.709887206554412 18.693650722503662 7.9042008966207531 9.711705416440962 12.016350105404852 23.631076291203502 6.9237146824598303 11.228218883275984 7.257098749279975 6.8638159930706015 9.699764743447302 5.8590644896030417 4.8610117584466952 4.7166212648153305 61.82979528605938
leaf_count=210 20 271 97 320 24 94 39 52 60 112 32 56 36 36 47 28 24 22 317
internal_value=-0.000393499 0.00287953 -0.00156347 0.0056405 0.0198346 0.0240531 -0.00878238 0.016782 0.0238585 0.0329744 0.0484974 0.00447949 0.0333084 0.0277034 0.0338455 0.0593262 0.0201146 0.0467494 -0.0117924
internal_weight=373.33 335.979 278.353 163.166 82.7427 78.0328 80.4234 17.6159 57.6261 45.6098 30.5548 15.055 59.3392 52.0821 45.2182 15.5588 29.6594 9.57763 115.187
internal_count=1897 1687 1407 819 408 384 411 91 280 220 144 76 290 254 218 75 143 46 588
is_linear=0
shrinkage=0.05


Tree=22
num_leaves=20
num_cat=0
split_feature=142 142 150 159 3 148 6 3 158 84 75 129 46 109 110 66 23 133 156
split_gain=21.5197 11.8414 11.9302 8.02417 10.0365 8.6019 7.94848 7.59633 7.6935 7.58173 10.6892 7.91501 7.52374 7.34006 8.40307 6.02154 5.98199 8.53908 9.22546
threshold=8.5000000000000018 23.500000000000004 30.500000000000004 8.5000000000000018 58.961038961038966 32.500000000000007 12.542997542997544 36.794736842105273 7.5000000000000009 25.500000000000004 11.500000000000002 22.500000000000004 1.5000000000000002 22.500000000000004 11.500000000000002 2.5000000000000004 1.5000000000000002 2.5000000000000004 4.5000000000000009
decision_type=2 2 2 2 2 2 2 2 2 2 2 2 2 2 2 2 2 2 2
left_child=-1 6 3 5 -5 16 7 8 -2 10 -8 -12 -13 14 -14 -11 -3 18 -18
right_child=1 2 -4 4 -6 -7 9 -9 -10 15 11 12 13 -15 -16 -17 17 -19 -20
leaf_value=-0.033363623434795368 -0.010666887653227831 0.049341392660560347 -0.010553966448793931 0.095111245690667159 0.027391477581030978 -0.023643431016056198 -0.021117560313561268 -0.036470810881667474 0.037230590442514665 -0.0092532913288554414 0.051823009023913159 0.00032276007082190336 0.062049271058308424 0.07685079666658963 0.0023424971853818807 0.030944169048908895 0.027460081140405108 0.051050692641807886 -0.012828690883330204
leaf_weight=38.542634844779968 55.532328382134438 14.700394257903097 25.772050708532333 6.2831137329339963 6.1908425986766815 6.1206726580858222 12.606721892952917 23.987802222371101 5.3729855567216864 84.337944507598877 14.464886233210562 33.111208632588387 4.615482419729239 4.4753205031156531 11.947234869003294 5.9704432338476172 25.116966709494591 10.696011826395987 22.677786812186241
leaf_count=199 263 63 115 26 27 28 58 114 24 388 66 151 20 20 54 27 109 45 100
internal_value=0.000340844 0.0039906 0.0169112 0.0254037 0.0573785 0.0198506 -0.00196201 -0.0142233 -0.00542519 0.00410392 0.0149747 0.0228652 0.0146149 0.0355392 0.0232534 -0.0055581 0.0244663 0.0176554 0.00866264
internal_weight=412.523 373.98 117.558 91.7858 12.474 79.3118 256.422 84.8931 60.9053 171.529 81.2209 68.6141 54.1492 21.038 16.5627 90.3084 73.1912 58.4908 47.7948
internal_count=1897 1698 513 398 53 345 1185 401 287 784 369 311 245 94 74 415 317 254 209
is_linear=0
shrinkage=0.05


Tree=23
num_leaves=20
num_cat=0
split_feature=44 91 76 9 94 129 9 125 50 86 47 160 20 158 147 7 126 135 7
split_gain=122.182 38.5287 30.7167 17.8235 14.3705 13.6405 12.9831 11.6343 11.3162 7.11498 6.9891 6.05969 6.31848 6.02432 6.14375 6.24716 5.20163 4.60803 4.17875
threshold=2.5000000000000004 43.500000000000007 12.500000000000002 34.500000000000007 47.500000000000007 31.500000000000004 31.500000000000004 31.500000000000004 1.5000000000000002 25.500000000000004 1.5000000000000002 6.5000000000000009 8.5000000000000018 5.5000000000000009 33.500000000000007 2.122941970310392 30.500000000000004 1.5000000000000002 2.1717900947057918
decision_type=2 2 2 2 2 2 2 2 2 2 2 2 2 2 2 2 2 2 2
left_child=1 7 5 4 -3 6 9 11 -9 -2 -10 -1 18 -7 15 -15 -5 -17 -13
right_child=2 3 -4 16 -6 13 -8 8 10 -11 -12 12 -14 14 -16 17 -18 -19 -20
leaf_value=-0.034461154921052069 -0.029337031318066205 -0.0086396395386332796 -0.0083819475833611674 0.037751512255340847 0.058157088193528932 0.10203049907345688 0.068317790620112895 -0.020620846523820319 0.0055560046872603483 0.026611984973903526 0.058998569534672134 0.0068876394631096662 0.024156320554357114 0.025022760627757108 0.099782695324537388 0.053124534270280278 0.084348549757406716 0.09804447302583677 -0.030143524948881829
leaf_weight=144.05927810072899 4.6492474824190166 33.248055264353752 12.268601670861242 5.9031283259391776 6.4697738140821448 19.217190772294998 14.009104639291762 24.209415718913078 8.7626568675041216 9.2757732272148115 7.8013628274202338 6.708682343363761 6.3323713690042487 6.9103834033012452 5.6119927167892447 6.6786869764327985 9.99310354888439 5.4767197519540787 25.429338663816452
leaf_count=845 20 177 68 28 27 69 54 134 48 39 36 37 36 27 20 26 41 20 145
internal_value=0.000801025 -0.0150217 0.0524617 0.0209612 0.00494317 0.0658123 0.0411624 -0.0243331 -0.0012351 0.00971869 0.0284048 -0.0297541 -0.0129215 0.0826891 0.0687419 0.0549807 0.0618539 0.0717232 -0.0209101
internal_weight=363.015 278.917 84.0977 55.6141 39.7178 71.8291 27.9341 223.303 40.7734 13.925 16.564 182.53 38.4704 43.895 24.6778 19.0658 15.8962 12.1554 32.138
internal_count=1897 1554 343 273 204 275 113 1281 218 59 84 1063 218 162 93 73 69 46 182
is_linear=0
shrinkage=0.05


Tree=24
num_leaves=20
num_cat=0
split_feature=123 121 75 45 142 122 117 41 128 85 67 69 93 119 118 124 142 94 9
split_gain=68.6075 41.2648 23.0085 14.7413 10.0004 8.52973 7.75578 7.489 7.31067 7.05374 8.68553 6.70503 6.57364 6.33324 10.4886 8.54806 6.06114 5.3895 5.49195
threshold=29.500000000000004 13.500000000000002 13.500000000000002 2.5000000000000004 16.500000000000004 31.500000000000004 13.500000000000002 2.5000000000000004 22.500000000000004 10.500000000000002 1.0000000180025095e-35 1.5000000000000002 48.500000000000007 14.500000000000002 16.500000000000004 26.500000000000004 23.500000000000004 30.500000000000004 25.500000000000004
decision_type=2 2 2 2 2 2 2 2 2 2 2 2 2 2 2 2 2 2 2
left_child=1 -1 5 4 6 13 9 -5 -6 10 -3 -10 -4 -2 -15 -16 -13 -8 -19
right_child=2 3 12 7 8 -7 17 -9 11 -11 -12 16 -14 14 15 -17 -18 18 -20
leaf_value=0.054769112636939211 -0.042645727322612056 -0.042080786182987634 -0.0078029441110373139 -0.0079087101930266964 0.021421873634975188 -0.047668163177346679 0.054972456594696878 -0.047551477458604108 0.0027711429736576292 0.017921654407856119 0.010818314971061373 -0.007575470160547171 0.026940516603293243 0.026316616429764142 0.0046544691851749627 -0.039461994816558578 -0.043918444361665615 0.042801739188003035 0.0049983830021029102
leaf_weight=43.990669727325439 20.658165276050568 8.9234816431999224 82.460849493741989 23.125957578420639 30.640746593475342 68.426004350185394 17.954537004232407 13.51809513568878 97.687624782323837 83.091933280229568 8.921791732311247 20.254829823970795 9.2618099153041822 8.0249469578266126 11.190143674612044 23.233993768692017 13.498813033103941 11.61810824275017 13.784271150827406
leaf_count=135 67 27 252 72 93 230 54 45 299 251 27 62 28 25 35 76 42 35 42
internal_value=-0.000474152 0.0121551 -0.0222346 0.00645483 0.0099587 -0.0356391 0.0193567 -0.0211929 0.00163863 0.0121949 -0.0123208 -0.00354717 -0.00394293 -0.0232865 -0.0123702 -0.0230449 -0.0212442 0.0360217 0.0238931
internal_weight=610.267 387.011 223.256 343.02 306.376 131.533 144.294 36.6441 162.082 100.937 17.8453 131.441 91.7227 63.1072 42.4491 34.4241 33.7536 43.3569 25.4024
internal_count=1897 1184 713 1049 932 433 436 117 496 305 54 403 280 203 136 111 104 131 77
is_linear=0
shrinkage=0.05


Tree=25
num_leaves=20
num_cat=0
split_feature=32 6 118 137 155 144 3 6 100 42 42 95 48 115 142 148 158 112 155
split_gain=13.6041 12.0309 7.72951 12.6783 7.46913 10.9196 7.08997 6.85976 9.34779 6.30404 6.14629 6.94142 7.51485 11.0787 8.98654 8.31919 5.62838 5.44819 7.03383
threshold=10.500000000000002 9.912878787878789 14.500000000000002 1.0000000180025095e-35 2.5000000000000004 18.500000000000004 41.436981132075481 24.532147742818061 42.500000000000007 1.5000000000000002 2.5000000000000004 28.500000000000004 1.0000000180025095e-35 11.500000000000002 21.500000000000004 26.500000000000004 7.5000000000000009 7.5000000000000009 6.5000000000000009
decision_type=2 2 2 2 2 2 2 2 2 2 2 2 2 2 2 2 2 2 2
left_child=-1 10 16 4 5 -4 -7 -5 -9 -8 11 -2 13 -13 -15 -14 17 18 -3
right_child=1 2 3 7 -6 6 9 8 -10 -11 -12 12 15 14 -16 -17 -18 -19 -20
leaf_value=-0.027920056317900888 0.0048255479489839413 2.5191220544955318e-05 0.0011020666948959466 -0.016460871810680702 0.010734477284219848 0.0301183527723697 0.064676443509453854 0.050674770149432884 -0.0097103470175806152 0.12192946670363379 -0.01218707489146474 0.11044461652583944 -0.0016264351410130184 0.012874455328475299 0.077466309942179942 0.055757241154546257 -0.036024217330660128 -0.013986452721907237 0.050279914667902742
leaf_weight=36.410561114549637 15.789494156837462 21.103374689817432 6.0105778276920345 62.058042883872986 63.32022251188755 4.2251224219799033 5.8072856068611127 8.0233014971017855 9.799242749810217 4.5387280583381653 6.6083151102066031 4.6421590745449093 12.136193260550501 7.773933216929434 5.3746908605098724 6.0355163216590872 16.194405719637871 71.402752742171288 5.360612377524375
leaf_count=210 80 107 30 320 311 20 27 39 52 20 34 20 58 37 24 27 87 368 26
internal_value=-0.000337748 0.0027917 -0.00149649 0.00535074 0.0186926 0.0428283 0.0657935 -0.00848202 0.0159353 0.0877937 0.02275 0.0291455 0.0409075 0.0622611 0.0433288 0.0212235 -0.011351 -0.00706591 0.011097
internal_weight=372.615 336.204 277.844 163.783 83.9019 20.5817 14.5711 79.8806 17.8225 10.346 58.3603 51.752 35.9625 17.7908 13.1486 18.1717 114.061 97.8667 26.464
internal_count=1897 1687 1407 819 408 97 67 411 91 47 280 246 166 81 61 85 588 501 133
is_linear=0
shrinkage=0.05


Tree=26
num_leaves=20
num_cat=0
split_feature=142 142 5 116 19 159 115 128 111 15 113 85 7 5 24 84 20 112 66
split_gain=19.9781 10.5705 8.74494 8.08993 13.3296 7.5961 10.118 7.15252 6.42118 6.36229 8.44386 7.57032 6.65934 5.60393 5.59363 7.01216 5.56662 8.50174 8.46148
threshold=8.5000000000000018 23.500000000000004 9.436493327197427 25.500000000000004 33.500000000000007 8.5000000000000018 22.500000000000004 23.500000000000004 23.500000000000004 1.0000000180025095e-35 13.500000000000002 58.500000000000007 5.6332314531814403 7.7089216944801029 5.5000000000000009 41.500000000000007 8.5000000000000018 8.5000000000000018 1.5000000000000002
decision_type=2 2 2 2 2 2 2 2 2 2 2 2 2 2 2 2 2 2 2
left_child=-1 9 5 4 -4 6 7 -3 -9 11 -11 12 16 -12 -8 -16 17 -2 -19
right_child=1 2 3 -5 -6 -7 14 8 -10 10 13 -13 -14 -15 15 -17 -18 18 -20
leaf_value=-0.032594514253984665 0.029493605429976245 0.0076689521523518938 0.0052568158545402135 -0.019400863062115126 0.067968121488494584 0.063113724646228955 -0.027876442397925357 0.043445761371012526 0.093268195058603898 -0.00052271636642146283 0.086217887728861589 0.041909370009866415 -0.03482433190409958 0.030675667142701757 0.036579551111073645 -0.019616316344333327 -0.01594151547150879 -0.010376759481855978 0.015856554523140911
leaf_weight=37.295724898576736 19.475901588797569 5.1142852604389217 36.701071962714195 21.070072948932648 5.748061776161193 9.9453579038381559 8.1438758373260516 12.289485797286035 5.3669922649860373 10.765642568469049 4.6318523138761503 4.4724483937025061 14.011654257774351 4.4786328077316284 9.9081358164548856 4.5043436288833609 59.092522755265236 99.378553703427315 39.30814827978611
leaf_count=199 92 23 159 94 24 41 36 52 22 51 20 20 69 20 42 20 279 459 175
internal_value=0.000390117 0.00385137 0.0159711 0.00396607 0.0155186 0.0301496 0.0223304 0.0433722 0.0591133 -0.00180782 0.0227841 -0.00413575 -0.00545964 0.0537524 0.000333311 0.0148474 -0.00332167 0.00152756 -0.00270394
internal_weight=411.703 374.407 118.792 63.5192 42.4491 55.2725 45.3271 22.7708 17.6565 255.615 19.8761 235.739 231.267 9.11049 22.5564 14.4125 217.255 158.163 138.687
internal_count=1897 1698 513 277 183 236 195 97 74 1185 91 1094 1074 40 98 62 1005 726 634
is_linear=0
shrinkage=0.05


Tree=27
num_leaves=20
num_cat=0
split_feature=44 91 76 78 42 127 113 130 160 127 4 148 99 154 92 114 25 70 4
split_gain=108.122 35.5993 26.804 16.0629 12.5979 12.2427 13.5452 8.98037 7.73285 6.74036 6.39023 6.32695 5.49164 6.13882 5.3238 5.90068 5.28186 5.15807 4.94073
threshold=2.5000000000000004 43.500000000000007 12.500000000000002 11.500000000000002 2.5000000000000004 33.500000000000007 12.500000000000002 32.500000000000007 6.5000000000000009 33.500000000000007 8.4739873987398759 16.500000000000004 43.500000000000007 7.5000000000000009 38.500000000000007 19.500000000000004 4.5000000000000009 1.0000000180025095e-35 8.4061306861568692
decision_type=2 2 2 2 2 2 2 2 2 2 2 2 2 2 2 2 2 2 2
left_child=1 4 5 -3 8 6 -2 17 -1 12 -11 -8 13 -5 -10 16 -16 -6 -13
right_child=2 3 -4 9 7 -7 11 -9 14 10 -12 18 -14 -15 15 -17 -18 -19 -20
leaf_value=-0.032082491107143479 0.073515222248554848 0.05499987345517296 -0.0081041384744678369 -0.037091228663444172 0.021291217088729872 0.078789524067893815 -0.016760201174278285 0.059166224377824178 -0.021513603385062939 0.068453318302877611 0.0061191971265825151 0.055369060057057551 0.01902370470692312 0.013767139251419442 0.028860055646565259 0.05099321462810176 -0.022868630212941457 -0.034043783361962454 0.012074444857577521
leaf_weight=159.58358150720596 13.008940055966375 18.613861918449402 12.20412042737007 16.060351267457015 4.5141172856092435 39.335580468177795 5.6603088378906277 4.976728454232215 27.329832166433334 4.5272895544767362 3.9515910744667053 6.8206037431955364 8.3655167222022992 4.8124586492776862 4.6370698958635357 3.9102430492639533 8.583259239792822 4.8678544163703918 9.5018918514251691
leaf_count=957 47 74 68 89 24 140 23 20 160 21 21 26 42 26 25 21 48 26 39
internal_value=0.000704735 -0.0145437 0.0484027 0.0197259 -0.0237192 0.0604703 0.0408133 0.0168819 -0.0269688 0.00288659 0.0344327 0.0177991 -0.0088192 -0.0222456 -0.00921991 0.0112535 -0.00157671 -0.00399639 0.0298075
internal_weight=361.265 274.734 86.5314 56.3311 218.403 74.3273 34.9917 14.3587 204.044 37.7172 8.47888 21.9828 29.2383 20.8728 44.4604 17.1306 13.2203 9.38197 16.3225
internal_count=1897 1554 343 273 1281 275 135 70 1211 199 42 88 157 115 254 94 73 50 65
is_linear=0
shrinkage=0.05


Tree=28
num_leaves=20
num_cat=0
split_feature=125 121 75 77 128 42 94 140 25 43 122 3 3 127 9 113 9 123 100
split_gain=63.5643 35.1185 28.764 13.6654 12.6408 10.928 7.19972 8.21312 7.9774 6.67119 6.57229 6.3147 5.75723 5.90947 5.6047 5.58938 5.58324 5.49351 5.60466
threshold=28.500000000000004 13.500000000000002 13.500000000000002 11.500000000000002 24.500000000000004 1.0000000180025095e-35 41.500000000000007 1.5000000000000002 6.5000000000000009 1.0000000180025095e-35 30.500000000000004 59.260019550342143 33.845299145299151 22.500000000000004 32.500000000000007 24.500000000000004 28.500000000000004 30.500000000000004 37.500000000000007
decision_type=2 2 2 2 2 2 2 2 2 2 2 2 2 2 2 2 2 2 2
left_child=1 -1 5 9 14 17 7 8 11 -3 15 12 -6 -14 -5 -4 -15 18 -2
right_child=2 3 10 4 6 -7 -8 -9 -10 -11 -12 -13 13 16 -16 -17 -18 -19 -20
leaf_value=0.053158738927837262 -0.0091522309546682758 0.00242413041885849 0.012376270457201133 0.028750567910958542 -0.011303860968046342 -0.040778099955282504 -0.014473936371035473 -0.017719324774628196 0.030371689444095674 -0.031828243378233756 -0.017537931025951914 -0.018888125181243415 -0.005158403252533382 0.05091629942068393 -0.0052890411960105441 -0.019972236725339841 0.013476551576490612 -0.03069447199517791 0.033179686881317984
leaf_weight=42.089533418416977 10.687738716602331 18.541418850421906 69.046634554862976 96.091474622488022 11.801376730203627 116.22129344940186 37.906737923622131 17.938801646232605 40.986025243997574 27.230186104774475 32.9523586332798 16.731885641813278 7.5937951207160941 15.529953241348268 7.1808568835258475 9.7196696698665601 11.55805668234825 9.2486500144004804 7.7631257474422446
leaf_count=131 33 57 210 290 36 392 117 55 124 89 101 51 23 47 22 30 35 30 24
internal_value=-0.000454386 0.0132287 -0.0191881 0.00756446 0.0118432 -0.0338851 0.0032691 0.00886487 0.0142791 -0.0160822 -0.000890252 0.00383045 0.0122728 0.0223651 0.0251153 0.00715181 0.0333293 -0.00861874 0.00744093
internal_weight=606.82 351.18 255.639 309.091 263.319 143.921 160.047 122.14 104.201 45.7716 111.719 63.2151 46.4832 34.6818 103.272 78.7663 27.088 27.6995 18.4509
internal_count=1897 1077 820 946 800 479 488 371 316 146 341 192 141 105 312 240 82 87 57
is_linear=0
shrinkage=0.05


Tree=29
num_leaves=20
num_cat=0
split_feature=32 100 115 0 122 126 142 122 102 146 160 118 100 5 2 77 98 90 41
split_gain=12.6395 10.9073 10.8721 9.1275 7.29213 6.75449 17.2675 6.62495 6.47782 11.376 7.70519 9.3475 7.18177 6.41767 9.02842 8.46841 7.19809 6.28996 6.2281
threshold=10.500000000000002 41.500000000000007 21.500000000000004 43.500000000000007 25.500000000000004 29.500000000000004 18.500000000000004 24.500000000000004 14.500000000000002 25.500000000000004 4.5000000000000009 19.500000000000004 30.500000000000004 3.3731431966726091 23.500000000000004 12.500000000000002 32.500000000000007 32.500000000000007 1.5000000000000002
decision_type=2 2 2 2 2 2 2 2 2 2 2 2 2 2 2 2 2 2 2
left_child=-1 2 13 8 7 6 -6 17 10 -10 11 -4 -13 15 -15 -2 -17 -3 -8
right_child=1 4 3 -5 5 -7 18 -9 9 -11 -12 12 -14 14 -16 16 -18 -19 -20
leaf_value=-0.027260589541079558 -0.01432277738940657 0.021588798944905632 -0.029326359185174386 -0.010070833782303749 -0.030822055413164202 -0.027305226349898761 0.011531601481489785 0.053291708635925639 0.033359907861509018 0.10260063192442659 0.051290043439261107 0.0566565683582885 0.0014885219699789579 -0.0078804366050990657 0.026979623194002059 0.068704906923215833 0.020812097605181358 -0.029086178956761841 0.061650806712421569
leaf_weight=35.423002913594246 8.8164596259593946 10.469879984855657 7.5872595012187984 9.3283421844243986 17.459827318787575 53.940117582678795 8.5035427063703555 4.6992567330598822 8.7623661160469037 5.9363595992326728 12.636815413832663 7.5237295180559141 7.262737438082695 113.0343971401453 18.090198069810867 7.1033943891525295 20.417433708906174 6.6398790627717963 8.2853090465068799
leaf_count=210 49 52 38 49 90 289 42 23 40 25 59 34 33 571 85 33 99 34 42
internal_value=-0.000305321 0.00267168 0.00890814 0.0268075 -0.0100005 -0.0165068 -0.00017204 0.0136508 0.0356876 0.0604159 0.0249552 0.00812622 0.027294 0.00253349 -0.00262419 0.0200847 0.0339055 0.00202583 0.0332085
internal_weight=371.92 336.497 226.499 59.0376 109.998 88.1888 34.2487 21.809 49.7093 14.6987 35.0105 22.3737 14.7865 167.462 131.125 36.3373 27.5208 17.1098 16.7889
internal_count=1897 1687 1115 278 572 463 174 109 229 65 164 105 67 837 656 181 132 86 84
is_linear=0
shrinkage=0.05


Tree=30
num_leaves=20
num_cat=0
split_feature=142 105 34 114 70 102 119 158 157 42 117 33 2 19 46 155 102 87 128
split_gain=18.4985 9.57948 12.8486 11.1344 8.80412 8.88656 8.10597 6.88329 6.70851 10.8966 11.4895 10.0267 7.67712 8.50316 7.5681 6.93111 6.25628 5.86147 6.33795
threshold=8.5000000000000018 15.500000000000002 1.0000000180025095e-35 7.5000000000000009 2.5000000000000004 20.500000000000004 30.500000000000004 1.5000000000000002 5.5000000000000009 1.5000000000000002 21.500000000000004 5.5000000000000009 21.500000000000004 29.500000000000004 1.5000000000000002 5.5000000000000009 12.500000000000002 16.500000000000004 27.500000000000004
decision_type=2 2 2 2 2 2 2 2 2 2 2 2 2 2 2 2 2 2 2
left_child=-1 2 3 -2 -3 -6 8 -5 11 14 -11 -4 -13 -14 -10 -12 -17 18 -9
right_child=1 4 6 7 5 -7 -8 17 9 10 15 12 13 -15 -16 16 -18 -19 -20
leaf_value=-0.031884030706906097 0.038707981445050582 -0.0076224102911386735 0.06290203140459405 -0.034021175235568323 0.073057673545553314 0.0030104325096347445 -0.016370203410788379 0.046687500824337438 0.043983235744798455 -0.026107411723965371 0.073089261694232355 0.024313889304810255 -0.033797663091058965 0.019905564979177132 0.096306267811918034 -0.0095504236123928575 0.045431922548483078 -0.010352291268706751 0.00052287086525283882
leaf_weight=36.069951757788658 10.697496265172957 163.8788997977972 5.7188282907009116 16.283528506755829 5.0327524691820127 4.322406992316246 7.5445616692304602 8.8187939971685427 8.6814447343349475 5.326071351766589 5.3907484561204937 29.90362685918808 14.029054626822473 7.6640589833259574 9.4713726639747602 5.6608432531356794 5.6417299807071686 48.770535036921501 12.105289146304129
leaf_count=199 51 757 24 78 22 20 34 39 37 24 22 133 62 33 39 25 23 222 53
internal_value=0.000409433 0.00368548 0.011031 -0.00174863 -0.00481186 0.0340346 0.0229662 -0.00794462 0.027083 0.0420036 0.021286 0.0166074 0.00927921 -0.0115766 0.0682612 0.0380454 0.0207707 -0.00142864 0.0188176
internal_weight=411.012 374.942 201.708 96.6756 173.234 9.35516 105.032 85.9781 97.4878 40.1722 22.0194 57.3156 51.5967 21.6931 18.1528 16.6933 11.3026 69.6946 20.9241
internal_count=1897 1698 899 443 799 42 456 392 422 170 94 252 228 95 76 70 48 314 92
is_linear=0
shrinkage=0.05


Tree=31
num_leaves=20
num_cat=0
split_feature=45 91 79 93 51 155 94 20 148 4 120 42 76 79 77 127 90 3 77
split_gain=97.0795 36.6178 22.2593 17.4358 14.5991 12.4307 7.63064 7.02718 7.15092 6.36351 6.1533 6.08337 8.97982 5.01991 4.6014 6.50167 4.47174 4.31647 5.0518
threshold=2.5000000000000004 43.500000000000007 12.500000000000002 41.500000000000007 2.5000000000000004 11.500000000000002 49.500000000000007 8.5000000000000018 16.500000000000004 9.8877454583639626 18.500000000000004 2.5000000000000004 11.500000000000002 12.500000000000002 11.500000000000002 33.500000000000007 42.500000000000007 36.794736842105273 10.500000000000002
decision_type=2 2 2 2 2 2 2 2 2 2 2 2 2 2 2 2 2 2 2
left_child=1 4 5 14 7 11 9 17 13 10 -5 12 -2 -9 -3 -16 -4 -1 -19
right_child=2 3 16 6 -6 -7 -8 8 -10 -11 -12 -13 -14 -15 15 -17 -18 18 -20
leaf_value=-0.040599987094368441 0.066030889894477057 0.024752163468996391 -0.026153851075758662 0.082755682432179095 0.047317262008449129 0.014601546806369638 0.086165333449998882 0.019528871761166616 0.033122479656777497 0.0091579159071977344 0.032672310314685586 0.075438748677015624 0.012483777506786071 -0.027069825055184845 -0.031536799778515458 0.019579206123918322 0.023043391589477904 0.0053929225840056967 -0.027093097650390585
leaf_weight=55.250218585133553 13.241759851574898 5.2363824397325542 10.180703461170195 6.6013417541980806 3.715959981083869 9.3869560360908491 5.4026716798543921 4.2558711022138658 6.8170792758464804 9.6969213932752591 8.3876710683107358 43.037473484873772 8.5353808254003525 18.811481967568398 17.14119511842728 5.0301127135753623 3.6856287121772757 9.9685133695602399 114.84043258428574
leaf_count=347 49 22 56 27 14 37 20 20 38 46 35 148 37 112 97 26 20 57 689
internal_value=0.000615227 -0.0140979 0.0452719 0.0201865 -0.0236573 0.0568111 0.0457824 -0.0255491 -0.00427776 0.0361963 0.0532387 0.064836 0.0459312 -0.0157414 -0.00569452 -0.0169524 -0.00360532 -0.0292612 -0.02421
internal_weight=359.224 271.156 88.0679 57.4963 213.66 74.2016 30.0886 209.944 29.8844 24.6859 14.989 64.8146 21.7771 23.0674 27.4077 22.1713 13.8663 180.059 124.809
internal_count=1897 1550 347 273 1277 271 128 1263 170 108 62 234 86 132 145 123 76 1093 746
is_linear=0
shrinkage=0.05


Tree=32
num_leaves=20
num_cat=0
split_feature=125 121 75 31 128 42 140 94 20 106 125 123 25 122 76 81 113 123 100
split_gain=57.3247 32.4206 26.4641 12.6778 10.5317 10.2168 7.03837 7.14749 6.53533 8.48009 7.82503 6.489 6.16734 6.08146 5.92967 5.435 5.2343 5.12949 5.16209
threshold=28.500000000000004 13.500000000000002 13.500000000000002 1.0000000180025095e-35 25.500000000000004 1.0000000180025095e-35 1.5000000000000002 41.500000000000007 8.5000000000000018 17.500000000000004 24.500000000000004 29.500000000000004 6.5000000000000009 30.500000000000004 16.500000000000004 39.500000000000007 24.500000000000004 30.500000000000004 37.500000000000007
decision_type=2 2 2 2 2 2 2 2 2 2 2 2 2 2 2 2 2 2 2
left_child=1 -1 5 4 8 17 7 12 9 10 14 -10 -6 16 -3 -9 -4 18 -2
right_child=2 3 13 -5 6 -7 -8 15 11 -11 -12 -13 -14 -15 -16 -17 -18 -19 -20
leaf_value=0.051147196594145045 -0.0087549925611251408 -0.0029911250305586171 0.0118724958241443 -0.031678426996243847 0.0023699318607631609 -0.039434542902607006 -0.020753085077101933 -0.0051454816612108338 0.010179783535042453 0.043596655231121523 0.034131413500435588 -0.034555357748484165 0.026514866431455772 -0.016942426639958545 0.030637965979539317 -0.042963010010846542 -0.019478309118806738 -0.02975045136736635 0.031839107680598659
leaf_weight=41.414579719305038 10.656221538782125 45.574335366487503 69.105624079704285 13.663156926631926 59.494634062051773 113.94353112578392 26.371273100376129 24.828302770853046 13.908361047506334 32.407229214906693 30.34270504117012 6.7029507160186759 37.493380010128021 32.852755904197693 10.914695113897322 6.9714365005493155 9.6826156377792341 9.1347205340862256 7.804671347141265
leaf_count=131 33 138 210 44 182 392 82 78 42 98 92 21 114 101 33 22 30 30 24
internal_value=-0.000487446 0.0125026 -0.0183882 0.00709019 0.00923015 -0.0326629 0.000466772 0.005012 0.0189782 0.0236086 0.0158583 -0.0034402 0.0116703 -0.000890345 0.00514934 -0.0136129 0.00683078 -0.00820333 0.00723536
internal_weight=603.267 350.087 253.18 308.672 295.009 141.539 155.159 128.788 139.85 119.239 86.8317 20.6113 96.988 111.641 56.489 31.7997 78.7882 27.5956 18.4609
internal_count=1897 1077 820 946 902 479 478 396 424 361 263 63 296 341 171 100 240 87 57
is_linear=0
shrinkage=0.05


Tree=33
num_leaves=20
num_cat=0
split_feature=32 6 125 115 155 119 10 121 95 10 104 21 97 100 103 93 144 20 137
split_gain=11.7561 10.5855 7.31339 7.93558 8.58619 5.93529 5.83219 5.6145 6.90805 8.05396 6.55843 13.1814 6.33396 5.29418 4.82772 4.49866 4.74796 10.9676 8.71658
threshold=10.500000000000002 9.912878787878789 35.500000000000007 24.500000000000004 8.5000000000000018 17.500000000000004 4.5000000000000009 31.500000000000004 28.500000000000004 3.5000000000000004 16.500000000000004 2.5000000000000004 21.500000000000004 34.500000000000007 10.500000000000002 49.500000000000007 18.500000000000004 8.5000000000000018 1.0000000180025095e-35
decision_type=2 2 2 2 2 2 2 2 2 2 2 2 2 2 2 2 2 2 2
left_child=-1 7 3 15 5 -5 -7 8 12 10 14 -12 -2 -9 -10 16 17 -3 -18
right_child=1 2 -4 4 -6 6 -8 13 9 -11 11 -13 -14 -15 -16 -17 18 -19 -20
leaf_value=-0.026595609799150377 0.04137135430492566 -0.017396220496271358 -0.022051732946628197 0.050389385247679601 0.068857591147405514 -0.018065064825394741 0.028941823975406941 0.020510697345926532 0.037684442340078783 0.077764271039123631 0.099224420346017486 0.016304482342282722 -0.015167726456104539 -0.031147540032851098 -0.0090826822738792872 -0.027923246346915766 0.020817113442735881 0.015832416987408851 -0.0084818389267450247
leaf_weight=34.451852172613144 3.8343927562236777 75.412861734628677 33.981683850288391 4.2730735838413301 5.2872715443372718 11.972964167594911 7.2326295226812354 5.1690065711736661 4.5128480195999172 7.6046353727579108 5.0032571256160718 5.2049416601657867 11.042474612593649 6.8583183437585831 10.128231912851332 11.596204340457914 54.139697924256325 32.311779335141182 40.932631254196167
leaf_count=210 20 395 183 19 26 59 36 25 20 32 21 25 56 35 46 62 257 162 208
internal_value=-0.000238428 0.00259696 -0.00146353 0.00152363 0.0246573 0.0137838 0.00168788 0.021147 0.0292417 0.0417718 0.0296128 0.0543086 0.00468635 -0.00449254 0.00979461 -0.00173671 -3.40893e-05 -0.00707615 0.00796121
internal_weight=370.951 336.499 277.141 243.159 28.7659 23.4787 19.2056 59.3581 47.3308 32.4539 24.8493 10.2082 14.8769 12.0273 14.6411 214.393 202.797 107.725 95.0723
internal_count=1897 1687 1407 1224 140 114 95 280 220 144 112 46 76 60 66 1084 1022 557 465
is_linear=0
shrinkage=0.05


Tree=34
num_leaves=20
num_cat=0
split_feature=142 142 150 118 130 70 102 85 130 64 153 44 5 110 90 47 159 86 3
split_gain=17.1729 9.01561 10.1028 7.62369 10.2839 6.41435 6.4576 6.18535 5.80471 5.73631 5.53713 10.1978 8.03096 7.39512 7.27066 7.08386 6.51338 5.33641 4.95427
threshold=8.5000000000000018 23.500000000000004 30.500000000000004 30.500000000000004 33.500000000000007 2.5000000000000004 20.500000000000004 58.500000000000007 30.500000000000004 2.5000000000000004 6.5000000000000009 1.5000000000000002 9.1595925297113769 6.5000000000000009 19.500000000000004 1.0000000180025095e-35 3.5000000000000004 45.500000000000007 42.485294117647065
decision_type=2 2 2 2 2 2 2 2 2 2 2 2 2 2 2 2 2 2 2
left_child=8 5 3 4 9 7 -7 18 -1 10 13 12 -12 -3 16 -16 -15 -17 -2
right_child=1 2 -4 -5 -6 6 -8 -9 -10 -11 11 -13 -14 14 15 17 -18 -19 -20
leaf_value=-0.040610175365306311 -0.013524481819393089 -0.01186041497150286 -0.010694721368140798 -0.017390253757026779 0.064853033627038897 0.049932623538174264 -0.0038636478130449486 0.037237134794420167 0.006618414264901628 0.057661143749116586 0.060732180919877733 -0.032556496864222871 0.000201825883712322 0.028420259453612758 0.043010562632959881 -0.021059669168652193 0.079303918164682866 0.026195091416193767 0.00097667429779371598
leaf_weight=30.540128991007805 95.219953209161758 6.5611068904399863 25.695400431752205 6.4172734022140494 10.408399432897566 9.573255851864813 4.9773676544427863 4.8256141245365134 4.3499416708946219 4.7369953840970984 4.9968357384204882 11.064755097031592 7.2419553250074387 5.9953791648149517 11.275051116943361 10.675903126597403 10.385203093290327 4.971865087747573 140.16847670078278
leaf_count=177 457 29 115 29 41 41 23 21 22 19 20 49 31 25 47 46 42 20 643
internal_value=0.000464323 0.00357138 0.0146612 0.0222401 0.0262787 -0.00169443 0.0265882 -0.00369021 -0.0311977 0.0202353 0.0165239 -0.00191918 0.0233563 0.0254136 0.0331388 0.0187514 0.0565172 -0.00145256 -0.00490125
internal_weight=410.081 375.191 120.426 94.7307 88.3134 254.765 14.5506 240.214 34.8901 77.9051 73.1681 23.3035 12.2388 49.8645 43.3034 26.9228 16.3806 15.6478 235.388
internal_count=1897 1698 513 398 369 1185 64 1121 199 328 309 100 51 209 180 113 67 66 1100
is_linear=0
shrinkage=0.05


Tree=35
num_leaves=20
num_cat=0
split_feature=42 91 77 77 125 128 127 143 49 135 20 79 65 92 19 138 25 113 95
split_gain=86.3479 36.9679 17.0145 15.9999 10.6871 10.9549 10.1637 8.77937 7.19488 6.69604 6.43943 8.37718 5.85461 5.56925 5.45969 6.52901 4.96202 4.61706 4.56851
threshold=2.5000000000000004 43.500000000000007 12.500000000000002 11.500000000000002 31.500000000000004 28.500000000000004 33.500000000000007 17.500000000000004 1.5000000000000002 1.5000000000000002 8.5000000000000018 12.500000000000002 1.0000000180025095e-35 47.500000000000007 27.500000000000004 1.0000000180025095e-35 6.5000000000000009 12.500000000000002 43.500000000000007
decision_type=2 2 2 2 2 2 2 2 2 2 2 2 2 2 2 2 2 2 2
left_child=1 4 6 14 10 17 7 13 18 -9 -1 -12 16 -2 15 -3 -5 -6 -7
right_child=2 3 -4 12 5 8 -8 9 -10 -11 11 -13 -14 -15 -16 -17 -18 -19 -20
leaf_value=-0.032358918759967062 0.078563528134984587 0.062366460666501512 -0.004524271329735337 0.049662923329663544 0.005652413393723763 0.027343871058250903 0.069591854574259093 -0.0091715189869989288 0.049886977549493949 0.037298525310081425 0.037207440976219724 -0.019535142767937868 -0.012937802945774202 0.032955842019470827 0.082955830415274379 0.011016777966738223 0.002116125321546241 -0.03916448933554726 -0.023685779103169408
leaf_weight=147.00647333264351 10.646145239472391 8.1505981981754321 10.598661899566649 7.3430023044347745 4.913392603397372 4.2076425999403018 38.037404268980026 11.131485104560854 10.414050236344336 9.7793773561716062 5.5217781513929394 19.416770905256271 21.764802753925323 5.9227187633514395 6.9538153409957877 6.0361582636833182 6.987029030919075 15.139017909765242 6.7802547365427017
leaf_count=931 38 31 61 39 28 24 128 46 47 36 26 118 112 21 24 23 36 90 38
internal_value=0.000538458 -0.0132442 0.0432221 0.0213138 -0.0228359 -0.000979106 0.052306 0.0353614 0.0228001 0.0149938 -0.0283583 -0.00629596 0.00314206 0.0579207 0.0537099 0.0409704 0.024197 -0.0246234 0.000295439
internal_weight=356.751 270.635 86.1158 57.2354 213.399 41.4544 75.5171 37.4797 21.4019 20.9109 171.945 24.9385 36.0948 16.5689 21.1406 14.1868 14.33 20.0524 10.9879
internal_count=1897 1567 330 265 1302 227 269 141 109 82 1075 144 187 59 78 54 75 118 62
is_linear=0
shrinkage=0.05


Tree=36
num_leaves=20
num_cat=0
split_feature=123 121 76 45 141 98 69 4 1 9 116 121 110 91 115 128 118 127 116
split_gain=52.8894 31.6679 17.7589 11.6311 8.1026 7.21913 7.61445 7.05001 6.70827 7.80941 6.84173 6.3619 6.34497 7.05066 6.24035 6.72319 6.46857 6.11274 7.61829
threshold=29.500000000000004 13.500000000000002 13.500000000000002 2.5000000000000004 16.500000000000004 27.500000000000004 1.5000000000000002 15.379029733959314 23.500000000000004 27.500000000000004 18.500000000000004 24.500000000000004 21.500000000000004 27.500000000000004 12.500000000000002 29.500000000000004 17.500000000000004 25.500000000000004 16.500000000000004
decision_type=2 2 2 2 2 2 2 2 2 2 2 2 2 2 2 2 2 2 2
left_child=1 -1 7 4 14 -6 12 17 9 11 -11 -4 13 -7 15 -3 -16 18 -2
right_child=2 3 8 -5 5 6 -8 -9 -10 10 -12 -13 -14 -15 16 -17 -18 -19 -20
leaf_value=0.04881180955218168 -0.030743621014419187 0.016643548766614669 -0.019581090767371967 -0.019250030033167054 0.02112734051148819 -0.02718338600606169 -0.021456005353003571 -0.0019115656773074413 0.025294610985268681 -0.036631199232115948 -0.0021607986328320817 0.020019258288170437 -0.027142405736215708 0.011786292065036374 0.041017567534360727 -0.012909856174722662 0.0055250825492662546 -0.041217500812475126 0.019471048727397338
leaf_weight=41.931374490261078 11.494065254926683 70.133495986461639 8.1765828728675825 35.637193351984024 30.877759248018265 6.8018073141574851 37.092431098222733 10.918374449014662 10.924024283885954 27.03412526845932 18.79316058754921 26.592662453651428 8.7398713827133161 82.843469083309174 38.423092007637024 19.019089818000793 11.463834196329115 95.837274521589279 6.7888433039188376
leaf_count=135 37 212 25 117 94 21 115 35 33 83 58 81 27 254 116 58 35 339 22
internal_value=-0.000512924 0.0105641 -0.0199795 0.00564899 0.00873372 0.0014618 -0.003552 -0.0322203 -0.00404794 -0.00845282 -0.021317 0.00776212 0.0033953 0.00757487 0.01747 0.0100175 0.030965 -0.0361755 -0.0131694
internal_weight=599.523 382.963 216.559 341.032 305.395 166.355 135.478 125.039 91.5206 80.5965 45.8273 34.7692 98.3851 89.6453 139.04 89.1526 49.8869 114.12 18.2829
internal_count=1897 1184 713 1049 932 511 417 433 280 247 141 106 302 275 421 270 151 398 59
is_linear=0
shrinkage=0.05


Tree=37
num_leaves=20
num_cat=0
split_feature=32 100 115 0 154 146 102 122 126 142 122 90 5 2 77 90 44 103 123
split_gain=10.9515 9.87253 9.05348 8.08112 7.14448 8.32833 10.0798 6.70731 6.30343 15.6872 6.01253 5.88333 5.72624 7.981 7.50142 6.95746 7.39656 6.65323 6.23178
threshold=10.500000000000002 41.500000000000007 21.500000000000004 43.500000000000007 8.5000000000000018 26.500000000000004 13.500000000000002 25.500000000000004 29.500000000000004 18.500000000000004 24.500000000000004 32.500000000000007 3.3731431966726091 23.500000000000004 12.500000000000002 38.500000000000007 1.0000000180025095e-35 20.500000000000004 20.500000000000004
decision_type=2 2 2 2 2 2 2 2 2 2 2 2 2 2 2 2 2 2 2
left_child=-1 2 12 4 5 -4 -7 10 9 -9 11 -3 14 18 -2 16 17 -16 -14
right_child=1 7 3 -5 -6 6 -8 8 -10 -11 -12 -13 13 -15 15 -17 -18 -19 -20
leaf_value=-0.025938326697298588 -0.013797082800161155 0.020264605762871792 0.010993278216275743 -0.010224701255245956 0.072739785196440324 0.025804606657506647 0.088011175758842611 -0.03021756763348997 -0.02659569976248638 0.030818012453773455 0.050305568033855691 -0.028855373222635455 0.012977849156959657 0.025173058157569119 0.041558690374344037 -0.0054782990364081593 0.070989542684131074 -0.016151207645011389 -0.013685337071999129
leaf_weight=33.514274820685387 8.6233792155981046 10.651326850056654 28.718411013484001 9.2834486216306669 5.4379656463861457 9.6783553063869494 7.3210356533527365 16.988113597035408 52.532517939805984 17.252649083733559 4.8661002814769736 6.5085074305534354 25.012787565588951 18.485831096768379 7.9497543126344734 5.5212746411561957 10.432654067873953 4.2492936849594116 86.787056773900986
leaf_count=210 49 52 131 49 24 45 29 90 289 84 23 34 133 85 37 27 47 21 438
internal_value=-0.000144376 0.00255991 0.0084491 0.0245502 0.0326583 0.026585 0.0509629 -0.00959092 -0.0159461 -0.000234072 0.0129169 0.00174528 0.00257078 -0.00235016 0.0190177 0.0316948 0.0440852 0.0222951 -0.00738794
internal_weight=369.815 336.3 227.501 60.4392 51.1558 45.7178 16.9994 108.799 86.7733 34.2408 22.0259 17.1598 167.062 130.286 36.7764 28.153 22.6317 12.199 111.8
internal_count=1897 1687 1115 278 229 205 74 572 463 174 109 86 837 656 181 132 105 58 571
is_linear=0
shrinkage=0.05


Tree=38
num_leaves=20
num_cat=0
split_feature=142 105 34 114 86 119 70 102 82 92 98 102 141 98 14 50 130 62 4
split_gain=15.8457 8.45946 11.158 10.3272 8.29978 7.60627 7.52739 7.32179 6.49205 9.80023 6.39188 6.32273 7.85314 7.49009 7.20491 7.15807 5.72318 5.01575 4.76698
threshold=8.5000000000000018 15.500000000000002 1.0000000180025095e-35 7.5000000000000009 2.5000000000000004 30.500000000000004 2.5000000000000004 20.500000000000004 15.500000000000002 31.500000000000004 25.500000000000004 12.500000000000002 24.500000000000004 32.500000000000007 11.500000000000002 1.0000000180025095e-35 30.500000000000004 1.5000000000000002 6.7130247908511791
decision_type=2 2 2 2 2 2 2 2 2 2 2 2 2 2 2 2 2 2 2
left_child=16 2 3 -2 -4 8 18 -8 9 -6 -5 13 15 14 -10 -13 -1 -11 -3
right_child=1 6 4 10 5 -7 7 -9 11 17 -12 12 -14 -15 -16 -17 -18 -19 -20
leaf_value=-0.040082194281355843 0.036729663650124506 0.02044039953827325 -0.020154830755524725 -0.033243871860473277 0.017249234252494135 -0.014079230429371425 0.064473978372384042 0.0019334784276278023 0.007038167586665707 0.094181129144960865 -0.0015267052709546397 0.045785905821072476 0.061661655279352051 -0.0084583150334779939 0.061842310785833937 -0.0073938148917286591 0.0076996251030289793 0.049225655690320884 -0.0094800571319954632
leaf_weight=29.304182156920433 10.912548556923864 9.9862478673458082 6.7903844118118277 15.788997709751127 8.733749672770502 7.0111425071954718 5.399864658713339 4.3234396725893021 7.4009694308042508 9.1867780834436399 69.673832252621651 6.7067792564630571 14.150115713477133 23.29430291056633 7.4272779524326324 9.869820907711981 4.3542090058326712 6.164554461836814 152.59694124758244
leaf_count=177 51 44 30 79 38 32 22 20 34 35 313 29 57 101 31 43 22 26 713
internal_value=0.000509337 0.00344388 0.0102996 -0.00168112 0.0212801 0.0251605 -0.00458568 0.0308499 0.0290455 0.0495131 -0.00772913 0.0215573 0.0370343 0.00846863 0.0320179 0.0174383 -0.0304387 0.0723566 -0.00724975
internal_weight=409.076 375.418 203.111 96.3754 106.736 99.9455 172.306 9.7233 92.9343 24.0851 85.4628 68.8493 30.7267 38.1226 14.8282 16.5766 33.6584 15.3513 162.583
internal_count=1897 1698 899 443 456 426 799 42 394 99 392 295 129 166 65 72 199 61 757
is_linear=0
shrinkage=0.05


Tree=39
num_leaves=20
num_cat=0
split_feature=93 79 50 65 127 91 9 77 147 117 9 86 20 129 115 64 3 93 82
split_gain=79.0319 29.5474 21.2806 15.6746 11.6395 9.92083 7.70485 7.59654 12.0423 6.34924 6.14068 5.18757 5.16675 5.06446 4.93964 8.04242 4.4015 4.38938 3.69396
threshold=42.500000000000007 12.500000000000002 2.5000000000000004 1.5000000000000002 33.500000000000007 41.500000000000007 33.500000000000007 12.500000000000002 17.500000000000004 22.500000000000004 33.500000000000007 46.500000000000007 8.5000000000000018 31.500000000000004 18.500000000000004 1.0000000180025095e-35 46.801820728291325 49.500000000000007 29.500000000000004
decision_type=2 2 2 2 2 2 2 2 2 2 2 2 2 2 2 2 2 2 2
left_child=2 4 5 16 6 -1 9 8 -7 13 11 -3 -5 18 -9 -16 -4 -8 -2
right_child=1 10 3 12 -6 7 17 14 -10 -11 -12 -13 -14 -15 15 -17 -18 -19 -20
leaf_value=-0.028603617852656273 -0.018268066623811991 -0.029543868074560154 0.016175632748330362 0.044401952428332517 0.063758311294659864 0.064039961695193201 0.065950697908759667 -0.029981842982053898 -0.0070478155401619393 -0.019836759458086314 0.024953114567435382 0.018875655830571065 0.094400364599877579 0.047474828243340969 0.051885629167390979 -0.018318247558108448 -0.02540259377667007 0.026798832623131531 0.022671186455351211
leaf_weight=156.94722971320152 4.9818374365568214 21.749157458543781 8.1212505251169258 5.1795924305915815 44.969832688570023 6.9068227559328061 14.224397033452989 19.428444206714634 7.7553407102823257 6.2132309675216666 6.9982618689537039 3.7166774421930304 5.3103644549846649 9.7957215458154661 3.900830611586569 5.6956586092710495 8.9526995569467527 5.6600159406661978 7.8357526957988739
leaf_count=1009 21 130 36 23 153 28 49 116 36 27 37 22 18 37 22 34 45 20 34
internal_value=0.000430499 0.0317294 -0.0169849 0.0217768 0.0460992 -0.022747 0.0303911 -0.00245406 0.02441 0.0143472 -0.00619897 -0.0196755 0.0638918 0.0245668 -0.0157498 0.0087014 -0.00256517 0.050907 0.00782105
internal_weight=354.343 126.145 228.198 27.5639 93.6808 200.634 48.711 43.6871 14.6622 28.8265 32.4641 25.4658 10.49 22.6133 29.0249 9.59649 17.074 19.8844 12.8176
internal_count=1897 530 1367 122 341 1245 188 236 64 119 189 152 41 92 172 56 81 69 55
is_linear=0
shrinkage=0.05


Tree=40
num_leaves=20
num_cat=0
split_feature=123 92 35 122 95 93 29 76 4 112 25 159 116 9 143 116 84 82 92
split_gain=51.4891 29.4123 20.2854 8.93152 8.26218 7.75922 7.45185 7.20409 6.88142 6.06073 6.52628 6.0284 5.91412 5.8941 6.14382 6.57142 5.59394 8.37472 6.59332
threshold=28.500000000000004 20.500000000000004 1.0000000180025095e-35 31.500000000000004 47.500000000000007 49.500000000000007 2.5000000000000004 13.500000000000002 12.243711340206188 11.500000000000002 7.5000000000000009 2.5000000000000004 27.500000000000004 31.500000000000004 23.500000000000004 17.500000000000004 23.500000000000004 18.500000000000004 30.500000000000004
decision_type=2 2 2 2 2 2 2 2 2 2 2 2 2 2 2 2 2 2 2
left_child=1 -1 5 13 6 12 7 16 11 10 -10 -9 -2 14 15 -4 17 -3 -18
right_child=2 4 3 -5 -6 -7 -8 8 9 -11 -12 -13 -14 -15 -16 -17 18 -19 -20
leaf_value=0.043315394041105369 -0.0052310257005055488 -0.0075063347841905353 -0.046109681690638449 -0.045878792077602037 -0.025252873820757561 0.029209293888395535 0.038054673921812485 0.020891831388780504 0.026353686934793785 0.038272085689344482 -0.020757510374301378 -0.0022943208934831142 -0.038826972406241458 -0.038271791955440539 0.01478793007839492 -0.00081814263111743696 0.0073511291187039586 0.031330655335631744 -0.026816936827460742
leaf_weight=56.218071222305298 118.66409578919411 27.923514634370804 10.094295993447306 61.006289437413216 14.226632907986639 9.0526537895202619 12.43298104405403 35.334217518568039 8.2506841719150561 34.310676664113998 7.9417944848537436 78.035689234733582 8.2271718084812147 18.530635103583336 14.194123536348341 9.9746914207935315 14.402948558330534 16.658862411975861 37.140455394983292
leaf_count=180 365 87 34 225 47 28 38 107 25 104 24 237 26 66 46 33 44 51 117
internal_value=-0.000576943 0.0118877 -0.017632 -0.0330159 0.00557999 -0.00508515 0.00745869 0.00565674 0.011887 0.0264338 0.0060607 0.00535264 -0.00803021 -0.0190958 -0.0070398 -0.0218221 -0.00487898 0.00690407 -0.0157993
internal_weight=592.62 342.877 249.744 113.8 286.658 135.944 272.432 259.999 163.873 50.5032 16.1925 113.37 126.891 52.7937 34.2631 20.069 96.1258 44.5824 51.5434
internal_count=1884 1061 823 404 881 419 834 796 497 153 49 344 391 179 113 67 299 138 161
is_linear=0
shrinkage=0.05


